1.0|-2.580824906361788e-10 7.982066566755192e-09 -1.6834496435052615e-09 -2.0009234169628283e-08 5.85239307393428e-08 -7.30420668658364e-08 2.4870732470305803e-07 -2.451635336237566e-08 1.6685648642241958e-07 -3.015978902678889e-07 -4.48476374345819e-07 -1.7963709293141545e-07 1.2176794625735354e-06 -1.503056899050915e-06 3.7453953397146327e-07
2.0|-3.0348069219969723e-06 11.313707817815297 -7.815026615709825e-06 2.315574898894121e-06 -6.114519255140871e-06 -1.176644160351991e-05 3.9658406745968984e-05 -3.1178970161540465e-06 2.5084918965810348e-05 -3.5445192719261404e-05 9.473328432815025e-06 -1.6440881417113835e-05 5.2292481521939794e-05 -2.9463480550140986e-05 5.148120061816668e-06
3.0|0.0004606711732722048 0.00030333843285488204 0.001347460657572266 0.001518270429753959 -0.023143594896232734 0.001298788040330033 -0.02755483948677055 0.030064408499821022 -0.0778451413643042 0.02140649504901345 -0.07616686703995589 0.11830335776851533 -0.07585422900415593 0.12324470525315903 -0.2565542298049566
4.0|-2.3000045104837423e-06 -2.9158915803397465e-06 -1.0495451200307341e-05 9.949870618220414 -8.207774217655698e-05 -6.28938581009885e-06 -2.9005622700382257e-06 5.8952519261100746e-05 -8.430058711379709e-06 2.8252408073707374e-06 -7.55590901060949e-05 0.00015781732415666333 2.9309545757180845e-06 5.7208168367141455e-05 -8.604906726204984e-05
5.0|-1.8156079452895363e-13 -1.1196128853841216e-12 1.561856327203826e-13 -9.984385464022392e-12 -1.2969581358308275e-11 -1.83314626579333e-11 4.331255480488101e-12 -6.885632130136824e-11 -2.3237104476422064e-10 1.1817779161802349e-11 2.1592009269017433e-11 -1.9617793623061779e-10 -1.4810769240390467e-11 -3.159611826318407e-10 1.1412139930737654e-10
6.0|0.0002168059446063122 0.0002113315884346223 0.0001559842465414923 0.00010201108335730703 -0.011030215423353733 0.0018397851438483933 -0.020148042348829335 0.004280532559678577 -0.020078541641828394 -0.016327210081863407 -0.04037980204745321 0.0024469220159072927 -0.0019062321751607963 0.004169531176088176 -0.04018865586416245
7.0|8.58615629624249e-05 0.00027935853301760017 9.480611649091483e-05 0.00039608838469677146 0.0019304023051272422 0.0003813330451547493 -0.020187944027400886 -0.011973737068345255 0.0030267475810845028 -0.02889980615553263 -0.019617049070616597 0.0004899956157424723 0.014958380047490649 0.0666652499422512 0.0031608764625786984
8.0|-1.3568760761853394e-09 9.279181861138944e-09 -1.6106699348585785e-08 4.070923104448812e-09 5.4376017824939786e-08 3.4011504741001166e-08 -1.3259574720111814e-07 -2.0255716609298196e-07 8.723692883895191e-07 -5.860467460908276e-07 -5.2030153038524106e-08 3.685986166467768e-07 5.234328827173283e-07 8.387174049613302e-07 -3.3903484684093096e-07
9.0|9.129025750783887e-05 7.230746230449174e-06 0.00043637765561841557 0.00042001277704440104 -0.006006386053083476 0.0010712282630207285 -0.018964323188160964 0.014582551169029165 -0.031966454427399274 0.02291065223278905 -0.049035304985127724 0.09203388489246069 -0.1314090923909948 0.5544548154589479 6.522918153219575
10.0|11.874341919926188 2.8076039905223215e-06 1.0920202274607926e-06 1.6744452063699671e-06 -1.133000168944306e-05 -9.391108704149636e-07 1.2574096655091066e-06 4.306427362391386e-06 -7.260130469315097e-06 -2.0221475456642408e-06 -6.24395564104106e-06 7.627254540230686e-06 1.6286009100552493e-06 -1.86691475520861e-07 -1.1004674146506382e-05
11.0|3.99984131193698e-06 9.571682541699469e-05 -0.00024129180603545315 -2.1909136231465524e-05 0.0011654305785442614 -0.0013526366172789135 0.03188495990034923 -0.01768052673121661 0.07800435239880561 7.272983677450382 -0.10992307140097682 0.10251184566824399 -0.052200239982643795 0.027297392426372587 -0.014886071287679553
12.0|3.943099671140037e-06 3.993459276811381e-06 -1.3466807276405081e-06 1.0810460898384404e-07 -0.00015692458343883944 -2.1314483343771826e-05 -0.0004947319331542198 -0.00042327367325637204 -0.000597154418951411 -0.0004833104445090338 -0.0023211361377539767 0.0005126637142789549 0.0008006838695249676 -0.00021207765849210348 -0.0017644661254710462
13.0|-1.760983823335662e-05 0.0001263146140970468 -0.0005596335844831378 -0.0002502301504990351 0.0030416638879416833 -0.002634125341786036 0.03906786736126839 -0.008672628370111159 0.03290303761052042 -0.04273741963740851 0.06752126979496406 -0.13229177391306163 0.30487661616327966 6.629623831836177 -0.4540586546912761
14.0|1.939236655434142e-05 9.814750349467782e-06 9.251669396218583e-05 0.00010383397048725377 8.999704997896746 -0.002729865148305286 0.0008532545676380977 -0.0005925401584575124 0.0014185667441788835 -0.0005695154218608225 0.0011405188328583568 -0.001432709110890951 0.0007896112663430633 -0.0006573553312378377 0.0013682969944397835
15.0|-7.197238132578516e-08 -9.205745303282024e-08 -6.496887911730473e-07 1.715571790307739e-07 5.12295985266401e-06 6.028116100818223e-06 4.796105538757974e-06 4.679625176949786e-05 6.224421875394508e-05 1.2415837287353674e-05 9.866148868915416e-05 -4.645238563592419e-05 1.5585244826355482e-05 0.00012068603973942772 6.627628628395297e-05
16.0|2.4470538752661967e-05 -6.164428852612719e-05 0.00026059038282635037 4.172639847550863e-05 -0.0026605806009158783 0.0012453617992574271 -0.050701239349471565 0.056578844332092995 7.4094531750800785 -0.07065223043649407 0.03425435992824113 -0.03381909279138781 0.03776905376925274 -0.017549876651682533 0.014912957276715011
17.0|1.422904974667955e-07 -1.8660201172930548e-06 1.9056729942582742e-06 -4.160215605520456e-06 -1.4081821281696984e-05 1.528488906280721e-05 -0.00017986748427728608 3.433908310400425e-05 -0.0001748428809627848 0.00017315904055983304 -0.00011157185139550456 0.00012569071103469656 -0.00015631862132661452 0.000299558886078813 -0.0003464763830482476
18.0|9.55717527909474e-07 4.5660329269345865e-05 -4.7172236598927884e-05 0.00018779371074275074 -1.8040657147922396e-05 3.3949580633393555e-05 0.0019001832125733092 0.002789852467275232 0.004218887290730452 -0.00011059434144229385 0.0013208157634601338 0.005105552986766949 0.0036749637557010593 -0.0008133558379614627 0.004523253516094849
19.0|1.942757549497868e-05 9.195803676659277e-05 0.00023044957459841475 -0.00015893788886650362 0.0005227880590654433 0.0002676582294302655 -0.0002978638925739527 -0.002553192686133984 0.002622891244115717 -0.009272103021491195 0.008753216224928181 -0.024292522309599038 0.021406438763025535 0.015165199543179195 -0.0061060495799602
20.0|-0.00045540203687147987 -0.0006245111146189644 -8.983874692073258e-05 -0.0012618371925895713 0.01911526615777904 0.004677547076475405 -0.02316873249746887 -0.0347319678386492 0.04177370613341003 0.028194865589676633 0.02156363212696825 -0.04704589399798457 -0.006510321956171551 0.07162092471978333 0.15017746971291335
21.0|1.065103442712145e-06 5.337124888291454e-06 -4.78840724878848e-06 7.308512655869833e-05 -4.2916386187228586e-05 -0.00015870497105248058 0.001013301506475126 -0.0004746117823193344 0.0009435989203813296 -0.0006970770492427199 -0.001070995786967286 -0.0002842816299144083 0.0001949496502519227 -0.003969022296445843 -0.0007752627586913253
22.0|-1.0641940545192101e-05 -9.55829766444373e-06 3.242189230405488e-05 -6.212806482553392e-05 0.0003224755801692724 0.00013374066944829777 -0.00031891167392180905 0.002227959947684706 -0.0010773025017782904 0.0003190020428791225 0.0020026349409736567 -0.0012596485178247327 -0.001959731616338497 0.0012461426183398184 -0.003022542607718528
23.0|-2.0609005557504225e-07 5.633842709660582e-07 -1.1334453107034054e-06 6.506287834454748e-07 7.221163657650573e-06 1.1202462760385538e-06 6.17420132205684e-05 3.7706444422479884e-05 0.00010751851340680539 -3.031372623356045e-05 9.580033082265967e-05 -4.391279879370873e-06 0.0001003875962278932 7.983668082272563e-05 0.00013409890748445035
24.0|-2.046574844396005e-08 -6.019396109788769e-08 -6.894807034946255e-08 -1.2697306177458618e-07 2.887876145065752e-07 -1.0108497246805872e-06 7.090267824321688e-06 -5.406219929038169e-06 -6.485346852119741e-06 1.6572200818493363e-06 7.488558097156406e-07 -7.372778354616834e-06 -9.655088693286703e-06 -1.9575800978017346e-05 8.379908019649958e-06
25.0|3.6444097355324222e-09 7.121137996903605e-09 4.973210974405184e-09 1.3763724280699176e-08 -3.304659388586056e-08 1.7967695688448552e-07 -6.178261003575411e-07 -1.9208159507288695e-07 9.924927871694818e-07 -2.3446350166431615e-07 -1.3752693743464812e-07 1.811113117081901e-06 7.168306050792989e-07 3.2114078310926387e-06 -1.8694840727726698e-07
26.0|-8.92164839949749e-09 1.6448650420713646e-07 -1.483917043574151e-07 -2.718255084912884e-08 7.332179478883593e-07 -3.6425206565991217e-07 -2.3480332994587882e-07 -5.64974603360858e-06 8.506492685562528e-06 -8.87787872691565e-06 -2.0191465968301633e-06 -7.789865541753844e-06 1.9158731133026167e-05 -3.815897503278177e-06 -2.945319934437772e-06
27.0|-0.00012290013512141536 5.436379360916305e-06 -0.0011513108023175449 -0.0015490992448471026 0.008101323496777148 -0.00026953688425714593 0.021544139688389908 -0.028315046192294226 0.004374861497423069 -0.046418816337922844 0.06993556307328551 -0.19856648918353692 0.08691029131337605 -0.2088903797451706 0.15102124204246753
28.0|3.7078883494601606e-08 -4.312191522755174e-09 -1.7568644527053523e-07 1.2264374760741567e-06 1.3594085284818877e-06 9.895881992272727e-06 -4.749178756316803e-06 -2.111786626246667e-05 3.5660687444346145e-05 2.052774826104135e-05 2.7353795141607665e-05 0.00011851785339122566 -6.615397011600817e-05 0.000277061945582661 -0.00010551777125934172
29.0|7.253962155323888e-05 -0.0006143653768434364 0.0016977073175287057 0.0012643884633561048 -0.002230931275261065 0.008820584719150523 -0.060136761441501596 -0.002878943498871361 -0.08186257396482813 0.03713430882427769 -0.029315797595589766 0.004417464665728591 -0.04778330916951266 0.07298012269763635 -0.05135960636105284
30.0|0.00011642334233155952 -0.0003091012554030903 0.0015019324988782242 0.001083542603735724 -0.009321728057655444 0.004237042036018603 -0.06214069183758243 0.03373607624447563 -0.05526938246146275 0.052379382795411024 -0.076088405745702 0.163834791147215 -0.15969686906951064 0.2104797775972541 -0.142831239511819
31.0|1.4581893604755733e-08 -4.198557415865716e-08 2.0177578271152175e-07 -2.177969473389893e-07 -1.5444767604097888e-06 1.431747784565717e-07 -1.104774792402203e-05 -9.586793582975098e-06 -8.712212034461024e-06 -1.7154275220440025e-06 -1.990462062811028e-05 4.965052119076553e-06 1.586903772662838e-05 2.4094431753484934e-05 -1.9637899775418678e-05
32.0|-4.013796806358497e-09 2.1133719062540888e-09 -8.659784170467196e-09 -1.6292493294051147e-08 7.440000610156965e-08 3.365323485854369e-09 -2.205888428549674e-07 -1.1597565608680801e-07 2.3814848319919515e-07 -5.079234803618663e-07 2.4738695306797694e-07 -9.539439127922553e-07 9.500228982505303e-07 4.024625226607057e-08 6.204547933943001e-07
33.0|-1.663658374008452e-05 -0.00017611291410425404 -0.00012170199889009173 9.715499486558576e-05 -0.0002931020568635322 -7.106181147240784e-05 -0.002507932518523921 0.00667548112285638 0.0018209616435303326 0.01347396221495482 0.002998454615923503 0.0028291325488628742 -0.021136665469371513 0.0011969471608390555 0.000998715630148576
34.0|-3.252798063769112e-06 -1.1142276918181013e-06 -1.3684116456725817e-05 1.7576345774995275e-05 -0.0003770671384261289 0.0003446754898921626 -0.0027958294586216898 0.002706656528008102 0.001686673685575205 0.0015705820638990669 0.0016079503975653228 0.0007482272434176892 -0.003607964328414075 0.0004911897385210668 -0.000430848692169865
35.0|8.781064762160841e-09 -1.628285117017408e-08 3.802861394469937e-08 -5.2399754610481064e-08 -3.977741517876637e-07 1.6714418839919407e-08 -2.483302022924391e-06 -2.8143239494746957e-06 -2.821794535285144e-06 -6.982822925123402e-07 -6.071865975269001e-06 2.5622011613758388e-06 -4.62740657860143e-06 -1.2341619738990442e-06 -3.2503045050672995e-06
36.0|1.0318926036365186e-05 2.1021705165370208e-07 2.7965277100356926e-05 -4.465594075248667e-06 -0.0005992039335197138 0.00015940894380584195 -0.0016286668243422019 -0.0017861768557595934 -0.0019120767849084527 -0.0008177303886997324 -0.0015102968028578637 0.0027133771038993443 -0.0010005285794661744 0.005354160832727976 -0.0006956815871900178
37.0|3.9650393652328665e-07 3.411826397860069e-07 -3.245004063057709e-06 -6.6028104503013e-07 -3.2232817570988165e-06 1.3863742702859207e-05 -0.00014003201686439923 -6.48549545242907e-05 -8.666073337039684e-05 -0.00025277366802967506 -0.00012842726349461162 -4.1710693167810225e-05 0.00042787634194361193 0.00018302559945146185 0.0006411595511418901
38.0|4.0153093665307e-07 1.8634665895320356e-06 3.8459294524676295e-06 -4.912670770546107e-06 -2.2363811044020778e-05 8.835550629429833e-07 -0.00024041481614772288 -0.00022914313664667465 -8.835987527743656e-05 -3.9346698051629994e-05 -0.0006830902301997194 0.0003099610437607528 -5.831862822312552e-05 0.000377606142168143 -0.0006765820887084579
39.0|-2.551833081182464e-10 1.2121830638183036e-09 4.321497926447417e-10 -3.75663397664385e-09 3.483803227569528e-09 -1.8875658947122364e-08 5.134233004874752e-08 -7.06290068515112e-08 -5.875248725046338e-08 -2.411091086031571e-07 8.597228439681743e-08 -2.925830674617785e-07 2.465242781751865e-07 -1.9736592105710828e-07 3.472333152314455e-07
40.0|-1.1334529740446979e-08 4.535313391723538e-08 -5.478145020114556e-08 -1.2827809955232964e-07 1.56709261636473e-07 -6.485828833956413e-07 2.515986678624695e-06 -3.524408125312118e-07 1.9692221750429554e-06 -5.047942117330027e-06 6.507290021157638e-07 -3.3498079838574484e-06 9.840956826567194e-06 -7.094397439566896e-06 -9.275308593844931e-07
41.0|2.290849317581543e-06 -3.977171478089101e-06 -4.030797060179173e-06 1.2383834387280033e-05 3.5575058259735995e-05 1.4625503215045454e-05 0.0007152600424064398 -0.00011191120700499015 0.0006590857082815926 -4.9701909618426714e-05 0.0014396672684597832 -0.0008274216990230088 0.0006577573191704504 0.0006161580559387661 0.002033386180626785
42.0|-5.830351862859602e-08 -3.2723905124675568e-06 4.197208200956535e-06 8.755210337851742e-07 6.392994824745336e-06 3.41807085614583e-05 1.9634847061385422e-05 0.00015816131031733805 -0.0001136321996293065 0.0002193736970657432 0.00025546487107925414 -8.922869757840878e-05 -0.00022570110691114186 0.0002730926056004408 0.00021973586737176708
43.0|-8.277294426343714e-11 -2.555343848927517e-09 6.818776931226082e-10 3.6626573901498574e-10 2.3496886127078062e-08 -4.747347583059549e-09 1.068240007754776e-07 2.1793406152293016e-08 2.010965301489649e-08 2.0264493148441824e-07 9.01603579637167e-08 -4.661711973538761e-08 -2.462724463739958e-07 -4.771822669597236e-07 2.1952835898768246e-07
44.0|1.4356321325874843e-08 1.2897471828439368e-07 -7.231432783901138e-08 -7.611214838830245e-08 -1.2634772646814327e-06 -1.174431028476218e-06 3.386312148510614e-06 -7.998014889017975e-06 1.1358044068154512e-06 -1.1812597033100893e-05 -1.3456731088269745e-05 1.015827858752034e-06 1.7477630865375275e-05 2.6317254825024257e-06 -1.8285905962089058e-06
45.0|3.2954375360930416e-08 1.083025384344018e-07 -2.0047932755463341e-07 1.3210917897357825e-09 -2.200155875301066e-06 6.749112568846079e-06 -5.396061960539512e-05 2.3099425618261466e-06 1.8320283713396802e-06 4.816680628655013e-06 -5.543152336041469e-05 0.00010175131765426782 -3.809692976710422e-05 0.00013723132787289604 -3.2780786356923676e-05
46.0|3.6098643364042545e-07 2.0867659797620563e-07 1.247319868389804e-06 2.0790211204486784e-08 -1.532611161300115e-05 -5.295918613542425e-06 -2.419803533705136e-05 -0.00011097533277116662 -0.00011679504270707599 -2.3428776083032525e-05 4.077096141884965e-06 -0.00011407229918232793 3.655523079740617e-05 9.715649903399028e-05 -5.0814637758495176e-05
47.0|1.0354660836235277e-08 3.0112569576699574e-08 1.4100852568132896e-07 7.854181289574766e-07 -9.89217969510617e-06 4.437917856162476e-06 -3.790909955995487e-05 -3.575124579883292e-05 -4.1163746616083966e-05 1.2146616512004154e-05 5.471906392597474e-06 5.392058285367864e-05 -1.8481538585971467e-05 3.4191285599576605e-06 -3.316832828379919e-05
48.0|-3.228137424773856e-09 -1.97877217820583e-09 5.525423866001801e-08 -1.6593106144947469e-07 -7.364594613844653e-08 1.8114553009150888e-07 -7.960719148062696e-07 7.107713646791209e-07 -2.6057088252094133e-06 4.1599507354003394e-07 1.4797744924727725e-06 -2.8391184659289775e-06 6.524639333529596e-07 3.032035799749178e-07 -2.5422349471711945e-06
49.0|-2.6638729042379878e-08 9.59008422280281e-08 1.738692358200971e-07 1.5293769580728505e-08 -3.17550368481298e-06 2.2850988784191177e-06 -1.5550402625702772e-05 -8.99310417808661e-06 -7.163882875163786e-06 -5.135871191877284e-06 -5.7551038831631546e-05 2.3237689006424487e-05 -9.11343029467075e-06 1.4827847474259765e-05 -2.7526109696327116e-05
50.0|-4.2012312956386626e-12 1.7513862862333866e-10 -3.565347921612081e-10 3.597663555212345e-10 1.2412959267223757e-09 -2.0742457374795075e-09 2.4362543328970432e-08 -5.0463069513410115e-09 1.917854124298206e-08 -1.776366015477704e-08 3.4786913900484843e-08 -2.220090326912632e-08 1.6601327839824524e-08 -1.682303304620465e-08 5.2964880852040434e-08
51.0|1.990751210887064e-08 2.9021558298308108e-08 1.2202282058210241e-08 -7.506644284877612e-08 -6.629701141527165e-07 -2.9870696944846125e-07 -6.067625665422311e-07 -3.4531006229019727e-06 6.396872741256289e-08 -1.6179872766417486e-06 -4.52040610123586e-06 1.4317567897714796e-06 4.7190379569626615e-06 -4.660495002778642e-06 -3.418087584801788e-06
52.0|-8.594852242619028e-12 -2.3778753639065206e-10 -1.5318161682944177e-10 5.173477814937781e-10 2.1823289530800016e-09 -2.45554678029866e-10 -1.5807589834083363e-09 2.2376109352398607e-09 -3.304588012070149e-09 1.0776052666756597e-08 -1.141026538298028e-08 -1.4977579050503475e-09 -1.6478011460194122e-08 -2.226985455254535e-08 -1.9938777316370537e-08
53.0|-2.7386473276631376e-13 -1.3784440819078765e-13 -3.9495796021094895e-12 -1.1659271853687722e-12 1.6951200248863806e-11 -2.2256058069480627e-11 1.5994193276635096e-10 6.166893580701521e-11 1.4776372553023431e-10 -4.6686209668722985e-11 1.4683661187980977e-10 -2.539203178951908e-10 1.6301118558028412e-10 -4.5751331869042805e-11 2.4809067472507874e-10
54.0|7.878294853062802e-10 3.034721612723571e-09 -1.9150071220317574e-09 -7.542399058330807e-09 -5.091429816287625e-09 -1.735078081832104e-07 8.336028449502166e-07 -1.2144159688049116e-06 -3.378479939148887e-07 -3.487532723199213e-07 3.270093511050013e-07 -5.702922109570044e-07 -1.3618760125140564e-07 -3.3764925794009435e-06 1.4425630645840695e-06
55.0|-7.331412356946596e-11 1.0082856949093782e-09 1.9029208242116955e-10 3.005016834655159e-09 1.2445716225555593e-08 2.1129507470631086e-08 -6.008069081906945e-08 9.524657739347631e-08 1.4170707811048735e-07 6.372527714622303e-08 2.0943304762878634e-08 3.612055093034195e-07 -1.1143057671066065e-07 2.782161892031476e-07 1.773441587297972e-08
56.0|-5.4047093439421463e-08 5.821105851533195e-07 3.1972302120731578e-06 -3.5101926804663048e-06 -1.0537998993306162e-05 4.241108203009972e-05 -0.0002859833962719938 -0.00010284204199863018 -0.00015845455767411754 -0.00019067760675042789 -9.256181476543871e-05 -3.357640313212747e-05 -0.0001804569961564501 0.0011338897925161988 -0.00015575281026640925
57.0|-7.4347817969046885e-09 -4.6135591706466714e-08 5.4861938180866626e-08 -2.9623923039928114e-08 -1.9097520472074902e-07 5.180681489183161e-07 -3.356438684219479e-06 8.163273529184209e-07 -2.730548529601111e-06 2.6294429087324683e-06 1.2700304052756166e-07 2.4480169085496626e-06 -1.2526006606977689e-05 5.82146806267294e-06 2.540365122172663e-07
58.0|-9.307248479806186e-07 -8.292881709138163e-06 3.0824108582547305e-06 1.0935576310213215e-05 9.06174039777608e-05 -9.560009381503332e-06 4.555685506928099e-05 -0.00043086777196423806 -8.275322408374231e-05 8.150781979026408e-05 0.00041463196970013914 -0.0012281136549666294 -0.0001669206365754209 0.00017296967283443097 0.0008608169092095853
59.0|1.8069440621423545e-13 -1.308361886125871e-12 -1.5237931811165579e-12 3.383588143492908e-12 2.1309295009108973e-11 -8.493125886129727e-12 7.88439953035576e-11 -7.98294690854078e-11 5.758426035707952e-11 7.276477092568586e-11 -4.267690140635423e-12 -2.3253581212295625e-10 -7.645862440331046e-11 -3.0940301171110996e-10 5.290646380694418e-10
60.0|6.951451257854694e-11 -3.0291756538962046e-10 2.707470448731503e-10 2.4100324471401427e-10 -3.127263890175543e-09 3.5673317377381447e-09 -2.5052235256712112e-08 -2.7520324331459494e-09 -1.6414642699410325e-08 3.5562308117157974e-08 -1.0760202132799275e-08 3.0751759863019684e-08 -3.474149350318573e-08 2.761397408584394e-08 -3.2043869179194055e-08
61.0|5.293635800692785e-10 -3.228203561761983e-11 8.933658510504426e-10 1.9010832978216137e-09 -3.4528855527497915e-08 1.9634833587896623e-09 -1.8495055425931937e-07 -1.1913199922162492e-07 -1.5034709053571822e-07 9.01437902896227e-08 -4.202825893035646e-07 3.021896280038861e-07 -4.620459320541055e-08 -9.494878949923144e-08 -2.707910232054464e-07
62.0|-3.836885025034367e-09 -6.874632744366443e-09 -6.833009000745026e-09 2.4530007272504483e-08 1.2241318913055763e-07 1.4608464896837533e-07 -9.736642660105765e-07 1.0230571998726623e-06 9.98405190639621e-08 5.792307784270511e-07 -7.058839449035335e-07 -2.138451436579813e-08 1.0470671442583296e-07 1.5929444122453524e-06 -2.4512496711406276e-06
63.0|-1.497231006466115e-10 3.1949025368502736e-10 -9.409797380855096e-10 -5.021253607389093e-09 9.561194928221615e-09 -2.0978979194148642e-08 1.1767850736259113e-07 -1.2001420510620567e-08 -1.0555002959125142e-07 -3.588084053098544e-08 1.927395293087013e-07 -2.651839160463889e-07 2.341706061523482e-07 -3.879234325127803e-07 2.8404732297218104e-07
64.0|-1.988317485026735e-08 1.1389196534280052e-07 -6.409487725488762e-08 -3.2341531332177597e-07 5.746288775990058e-07 -8.233278710106912e-07 9.281152794246932e-06 7.319955832792714e-06 7.672464452143277e-06 -1.3268489514664828e-06 1.1912228379116247e-05 -4.846741959814355e-06 3.9943751156615224e-06 -5.2879929039150965e-06 9.33775708114745e-06
65.0|-6.017932035179968e-07 -7.692015811018985e-06 1.1211640299607745e-06 1.1565624184367318e-05 6.09970363858993e-05 2.4551322195404426e-05 0.00031136518603843197 -8.174305277899793e-05 3.4375322762893874e-05 0.000264875676557017 0.0007363631787297902 -0.0006648704958975603 -0.0005904158609988828 -0.0012437065645468938 0.0016954416347793213
66.0|-1.6312644320023998e-07 -5.61797388589678e-07 -2.6943652406452677e-06 -1.5787244396480425e-06 1.917766429152813e-05 1.2591446798286157e-05 -2.2145866151194515e-05 8.747255077598662e-05 4.084268840566297e-05 -5.2882155235359905e-05 9.306855717390732e-05 -0.00010667772807443053 0.00012033461137723518 0.00025352957290809244 1.92586747790428e-05
67.0|1.5543501244992663e-05 1.5944251170362187e-05 3.82719242753697e-05 5.972092944744086e-06 -0.0004339945452706774 0.0001775079736903086 8.22718345505657e-06 -0.0014552048527442648 -0.0005890264503374599 0.0005469414078289221 0.000384797834341783 0.00320011145683736 -0.001681879302403071 -0.0025622684864096677 0.002376161885142901
68.0|-1.4167184561758694e-08 -3.8638177803071896e-08 3.999634300466378e-08 -5.5506178370700784e-08 5.64442971817507e-07 3.040744510129514e-07 8.715310072584058e-07 2.0313811495615835e-06 4.941445661600785e-07 2.5172987945144e-06 4.491777853618326e-06 -3.655128191378315e-06 -6.377148742641627e-07 6.35211623530633e-06 4.394980359367969e-06
70.0|0.00012376522808010167 -0.00028245634727688796 0.0013721672932565997 -0.0022189646401870773 -0.012220636522787758 0.004585839488966226 -0.034044114418381885 -0.023734316039480452 -0.08900206595035702 0.044104846021788185 0.031099886562549785 -0.09437347604059707 -0.10682493237714671 -0.0109240174776506 -0.007799869187010741
71.0|1.973395673092143e-07 -7.711094964092362e-09 -5.871278690678191e-07 -7.650803939697352e-07 3.0290861089318052e-06 6.407754255787312e-06 3.2059151631427107e-07 4.3982617989842554e-05 1.6175755700601932e-05 8.541194452450554e-06 6.333827025193961e-05 3.553795584187536e-05 -9.09495480908312e-06 7.179455703098584e-05 2.83239097902026e-05
73.0|3.5980095923676935e-13 -8.589284454515387e-13 -1.2548389522890355e-12 5.167328440039225e-12 -1.6645024601177084e-11 -2.3931442887646863e-11 -1.191427566458595e-10 -2.9290133316408405e-10 -1.4410865057266067e-10 5.82235118587964e-11 -3.282029181073587e-10 2.4694304015117276e-10 -1.3393399235768112e-10 -9.409654343695421e-11 -3.1316342813972034e-10
74.0|1.8612852179881976e-13 -3.0291253023996256e-13 -1.2566416030812059e-12 -5.551745133451907e-13 2.2539738692319655e-12 -1.3244660555036324e-11 7.42619226784258e-11 1.2150413534581096e-10 4.652308585257216e-11 1.7843860863885584e-10 1.8248010114151933e-11 1.1886092864851684e-11 -1.3884537994206166e-11 1.2973913610949682e-10 -2.607525742911236e-10
75.0|-1.4505299557533114e-05 5.968638004564291e-06 -5.017226540790335e-05 -0.0001265401874887349 0.0011373852776624825 7.04873705739527e-05 0.009787341433229612 7.481570557053955 -0.053830548254983734 0.01571923702912508 -0.0122258410753737 0.027892706932568456 -0.013156718365699583 0.004347333119164192 -0.006955422264647777
77.0|-1.8901944740660116e-06 -9.293160111520038e-05 0.00027764830401482235 1.3322274258739985e-05 -0.0014098010992516913 0.002083526205704941 7.6763872319615984 -0.008138073234489495 0.04413576155389702 -0.025458010255764697 0.020758281766922116 -0.024147492743784256 0.02308994163246037 -0.02070336118676701 0.009389972294640642
78.0|1.961334171599155e-05 6.379742786056321e-05 -8.415856901700854e-05 8.352933838102065e-05 0.00046086053286266925 -0.0007167028703278736 0.002605323750550974 -0.004105118504687149 0.005945983164149216 -0.005439763386246273 -0.000490382716246319 -0.003766556818288956 0.01245649096624627 -0.0011579109587659198 0.0024157200297463934
79.0|0.00010294437387039438 0.00010136424494898417 0.0004678231416787599 0.00024556475790879 -0.006239632928142936 0.0014812201352825717 -0.0049994617336282035 -0.009512945682219245 -0.005611746347326677 0.006090455535610958 -0.030019908297914115 0.01603274065720544 0.054769767898860275 0.07024962709213617 -0.13407133785510475
80.0|-2.756603681483178e-10 3.972468963478338e-09 -1.7993430579871768e-09 2.3462067154804706e-09 -4.408581987354574e-09 8.976970886996438e-09 -5.655095633020811e-08 -1.7047570170974673e-09 1.904226302468899e-07 -3.1697810171049935e-07 -2.765298339197522e-07 2.476317145311087e-07 3.315070389755883e-07 4.4509300228404557e-07 -3.3713360715859317e-07
81.0|2.0815592072028345e-10 2.4992327678381436e-09 -1.8361571170855858e-09 -5.206442621119113e-09 -1.878479108611966e-08 -2.307391471903598e-09 -6.085641679926196e-08 -1.0523796910176153e-07 2.1043728525755838e-08 -1.9463939186068232e-07 -3.1281082097140165e-07 5.924745737967674e-08 2.0108361036734455e-07 2.662146598687379e-07 -3.7912442737864295e-08
82.0|-4.089571546378044e-15 -4.263228466708643e-12 2.021002887142287e-12 3.915134371157445e-12 8.400247425145159e-14 -6.303030013748737e-12 1.2362663420434398e-10 -1.3601458378344524e-10 -1.485328041221677e-10 1.7072710375137163e-10 4.428032878212902e-10 -5.398794960035391e-10 -3.8345065112368605e-11 -5.987349993028262e-10 6.085696161421945e-10
83.0|-1.3793058908131843e-07 -1.4266914663689597e-06 2.1834593413161633e-07 3.05575708604605e-06 9.227493892559511e-06 1.3479224741974606e-05 -5.798602073227246e-05 8.542493963009572e-05 3.115144408063547e-05 0.00013370570856039723 6.330582785155276e-05 0.00014725296334498127 -0.00029701935423123705 0.00023042420470358488 7.985154423904893e-05
84.0|-2.5622240861827423e-09 -1.2842565226537043e-08 -3.386468401608085e-08 7.327099266662947e-08 3.507971608646951e-07 -6.322872959211294e-07 3.9896719295721185e-06 1.6821928380733876e-06 8.908890728995211e-07 2.708763132796592e-06 4.408917558531389e-06 -1.1606000661191945e-06 -6.214887817327875e-07 -1.3391027349802833e-05 5.3922516175585235e-06
85.0|-0.00018117562993776997 -0.00011755454846654255 -0.0005741817430011599 -0.0006357184660269318 0.010726258325686227 -0.0009903964253284597 0.020629882142656535 -0.01810188967750369 0.044575191707748076 -0.01322181850122458 0.06484779734730793 -0.10409068203832232 0.0856647506907997 -0.3144299414397091 0.9087572905374917
87.0|4.401793205026605e-05 -0.0002452433458749262 0.00048105508958087086 -0.0004775183503507021 -0.0062667368811321076 0.00018401349880737124 -0.0028003263047710505 0.011061543848012508 -0.0170552257230865 0.029989003976230208 -0.00768437924410322 0.011976266970702799 -0.03971451899191157 -0.023477158384552523 -0.011294699508990131
88.0|-2.3583875208948348e-11 -4.4478087742350797e-11 1.9103740031962982e-10 2.0508069477808422e-10 1.6727092039344195e-09 2.298449904170199e-09 -1.0147492059578818e-08 8.042327327080633e-09 1.975480934029685e-09 1.169530640715311e-08 -8.351297408912044e-09 3.446939474660627e-08 -1.6918078798064287e-08 3.837370500913492e-08 -2.1461842792449403e-08
89.0|2.4712559813620255e-06 -0.00018141910693680999 0.00045084476914952786 3.720061993460973e-05 -0.0024015344601126948 0.002077481649677632 -0.03839078059457441 0.018542996068218635 -0.05468803440862534 0.06925340552468791 -0.05000310254209485 0.12907696316647327 6.817763035484614 -0.24105877920295188 0.10531346789970475
90.0|-0.00015193794470552048 -4.40661926781848e-06 -0.00022539541770788698 5.507541821129751e-05 0.009116268732170519 -0.002404770005618907 0.019424964935608347 -0.007623328805813084 0.035145596523050875 -0.0008551030367426868 0.021981565243116515 0.02397529048855461 0.03164922134875006 0.043536952508029615 0.03134016555250483
91.0|-1.11129252431462e-06 -6.270740394972603e-05 -4.217310879820855e-05 7.713092259295891e-05 0.00041639209969036373 -0.0004598997663871417 0.005600306373902517 0.004160251789276088 0.0016276961907530417 0.004734646385964977 0.007826165155164764 -0.005328856127875451 0.0007129144975386857 -0.002700762630914032 0.01105870603983261
92.0|0.00015700967188289768 0.0005966951590658597 -0.0011112196268102704 0.0005628292241283131 -0.001232300121679114 -0.00696595627146488 0.06686524042976921 0.0040321418617836995 0.038074053326646776 -0.07264604060494702 0.04488479658002129 -0.06866767640932787 0.17973942380529356 -0.2373271117402754 0.0645338318695512
93.0|0.0002433490913842819 -6.41529745005738e-05 0.0004177991425979357 0.001516133810850534 -0.011936587345933593 -0.0007411280726456181 -0.020373797852730868 0.058665421288212005 -0.04926258572364807 0.03191992848494625 -0.04335848769662627 0.11496894003290149 -0.14283349278905969 0.02337416466013305 -0.11133597414089996
94.0|3.368301529082726e-05 -0.0003515992201101949 0.001194112158210052 0.00023238730065268195 -0.0064535890895824205 0.004636524553566964 -0.06265447214421477 0.019337253289404537 -0.07318087983455324 0.08189259048255618 -0.06793755067554785 0.14322700484010642 -0.2933104852917842 0.40847173983485485 -0.33264285212051525
95.0|-1.3610063395470365e-06 8.851425597975442e-06 10.488085132961002 9.410185312565902e-06 -6.733565808161724e-05 4.413112314898852e-05 -0.0001310744263989923 1.7211202551002783e-05 -0.00010745593337481741 9.270906303397985e-05 -8.499431169636795e-05 0.00011004253101784024 -0.00012447921601526453 0.00012632306108691346 -8.703817472614287e-05
96.0|-4.825095898546681e-08 -2.4621814698723653e-07 2.505946194461469e-07 4.09505079338051e-07 1.762605253490045e-06 3.4557190065915986e-06 -8.917264243706656e-06 6.120715465281972e-06 1.0888731406298551e-05 2.1913895209997262e-05 5.292246588578752e-05 -2.916655373632592e-05 -4.365066646094872e-05 1.1447947570841967e-05 5.4855116713143154e-05
97.0|6.524712356066233e-05 0.0004882880430486121 -0.000531299374226451 -0.00023139776683532988 -0.0012959843767309353 -0.001463149605564068 0.001079019579491383 -0.02087525860647648 0.006696036807375469 -0.05639566773425646 -0.00723633979329984 -0.005905751111167348 0.100081287492567 0.05631067744284388 -0.00522515811882232
98.0|-8.136442627686644e-08 3.0808726048695383e-06 -1.546468149955869e-06 -4.627337760828178e-06 1.658155000790939e-05 2.8859273156894694e-06 -6.808826846369365e-05 6.820029276160469e-05 9.38681747396896e-05 -0.00027172650842268906 -1.5931503316631988e-05 -2.14016277599948e-05 0.0003960643076233154 0.00044153459784414235 -3.468423143897204e-05
99.0|1.5892684082287494e-06 1.8237547919300997e-05 -6.022027123466396e-05 7.839103510467644e-06 0.002768180396859187 8.944207108340231 -0.001378054530894689 -6.51632666078342e-05 -0.0007268291629705767 0.000726941933125324 -0.0005839277031492061 0.0005429110128580823 -0.0008105486901517464 0.0009274835412432387 -0.00037246272148211515
100.0|0.0004096574398422023 0.0011612752418036574 -0.0014146682688363876 0.0014714228359688371 -0.006206005087100167 -0.011630758250966258 0.10292905812341946 0.003519315146749534 0.04222250316797023 -0.07632140245614553 0.06275021905192645 -0.08244367308399853 0.1890184168770135 -0.22495320997679408 0.0338203020890737
101.0|2.532911373381901e-05 -2.9404697529756728e-05 0.0002489202856329506 0.00020726808999129397 -0.0025525969013137275 0.0011510746656650883 -0.027674557687547854 0.015777332148467323 -0.04093962452783169 0.12133151300238598 7.195670828152954 -0.324784546708753 0.03730356754797608 -0.04533291327744201 0.029598625724848476
102.0|-2.4703420101982968e-06 -1.283695776732933e-06 -1.6106311235939288e-05 8.520398054917768e-05 0.00021721129326996835 1.701385447867454e-07 -0.00017403190684725528 -7.05137977381157e-05 0.000745718573596333 -0.0012058801935297256 -0.0011259520543076401 0.0015433147585744607 -5.983695770261739e-05 -0.002491787011860841 0.0003296910487051201
103.0|-3.2680838291064906e-05 4.9463212016499284e-05 -0.0003317077820191721 -0.00039329621995392043 0.003256207168580496 -0.001117427222483193 0.03190653503965095 -0.03315950592297183 0.04064128864786392 -0.10901327558501071 0.34439482622133266 7.111942296045352 -0.09348037703567742 0.08423210058532554 -0.05403874995664975
105.0|1.3324219234395497e-09 -2.206091784676983e-09 8.151284819605785e-09 -2.739867845729843e-08 -4.886146786867548e-08 7.716913029758526e-08 -3.1078466194845466e-07 1.5923110727095567e-07 -5.927678594261772e-07 3.8192598195435124e-07 2.122988259635602e-07 -2.7573352523834265e-07 -1.2150121632769455e-06 7.754360079759777e-07 -6.572977452254796e-07
106.0|0.00018169223684063554 -5.495171765913467e-05 0.0010443784489110098 0.0010955612824288274 -0.010666423571621751 0.002866648660764329 -0.03290525526663698 0.0214994406414663 -0.04573329908933734 0.03752485630647954 -0.06324465509089562 0.11358529348274168 -0.08595657843890143 0.15556922085948927 -0.18510051481292683
107.0|0.00014891399299521053 0.0002022090416946798 0.00108092805962828 0.0008162845927963461 -0.011254706544206659 0.006036387520416289 -0.004737696230190334 -0.02548945620682194 0.04444528620814406 0.011107722577302866 -0.0649374797470679 0.04113477108665402 0.11017665140480676 0.06641407338324877 -0.06136398859430188
108.0|-5.344399013491045e-07 4.5149549534594483e-07 -2.406104047843263e-07 -3.082149294923021e-06 1.0925290954669128e-05 2.3515445657678825e-05 -2.9777776376419076e-05 0.00013186588202479828 4.751340381584011e-05 4.806044705024785e-05 -1.1787430981531295e-05 0.00011474722844515749 0.0002001425396425075 0.00023051448461906707 -0.00015605309554989305
110.0|4.07241338582333e-09 1.9535570729815604e-08 -1.6898482010915053e-07 2.921512927217248e-07 1.5685978121913132e-06 -1.1111584223327692e-06 1.686915329107985e-05 -9.065536117317951e-06 9.46626526786431e-06 -4.954629339413404e-06 5.287285672549356e-06 -1.2433458714418781e-05 -1.3830809925746712e-06 -2.512989586023735e-05 2.8063759475020442e-05
111.0|-1.121927281560467e-08 -1.4014607986057413e-07 7.499804728430325e-08 -1.511823606216169e-07 -1.5509119446977653e-07 3.065326532545675e-08 1.5246905546021822e-06 2.0891632847801568e-06 -5.636310478490895e-07 1.221151815510132e-05 -1.692323977522142e-06 4.642555925593853e-07 -1.1387548899236806e-05 -2.5678199147189113e-07 4.374430759349643e-07
112.0|-3.4854887120308856e-11 5.951455328340168e-10 -1.7069601412106604e-09 7.532659835630214e-09 4.1373560362724776e-08 -7.79369163596366e-09 2.0507551299718315e-07 -5.167893097448052e-08 1.577150639195802e-07 -1.234689975687637e-07 1.7794194185279184e-07 -3.775581566344384e-08 1.1277325674498484e-07 -3.6883336269860966e-08 5.796395762799352e-07
113.0|6.392925483735344e-06 -3.4301915759078264e-05 -2.6601270183573e-05 0.00017622330751049866 0.00029059426150865086 -0.00023308121728118583 0.0015557386045380304 -0.0007087474803767148 0.0013343903138524206 0.0030204875797851076 -0.0003446781631102795 0.0024079998549038284 -0.0021531652265670102 -0.006577076548219034 -0.00022651486536601505
114.0|8.688352272941527e-08 4.643310512975747e-08 4.177358909298102e-07 -2.400512601473282e-06 -7.97845819487837e-06 -5.02898698249869e-06 -1.027263282907858e-05 -2.102851537800019e-05 -5.126661604718312e-05 -2.864040507097309e-06 -4.699247989077465e-05 -1.820587377581261e-05 0.00010392192636423746 -3.977916196468364e-06 -9.974808255685094e-05
115.0|1.3905537188472709e-06 2.544385264596371e-06 -1.7532260646918397e-06 7.637635675253837e-07 -4.34685971360705e-06 4.374486736338097e-05 -0.0003191291984810656 5.500789674442508e-05 0.00022360450162170863 1.2486300187323904e-05 -0.0004530281088728842 0.000572915185353617 0.0009358782936963815 0.0018588654163248428 -0.0007646506677413279
116.0|1.0346117828824768e-05 -6.637297010733721e-06 -2.988430904801692e-05 6.665874787824541e-05 0.0015784883721566526 5.1703056647489043e-05 0.00021244731237529815 0.0030387227062383085 -0.004836693113293522 -0.0035543895950499774 0.002571527527205965 0.0009518527016072881 0.00025276655991366033 0.02208771782134894 0.00499231563780467
117.0|8.895760059711421e-10 -6.315976561421948e-10 2.1586345695428035e-09 2.482799575430011e-08 1.0445153647382308e-07 1.2580026212517556e-08 9.077010905289088e-08 1.9440094768710928e-07 3.9163926399836995e-07 -1.5736761491411646e-07 3.2958639395973335e-07 5.245744675310548e-07 -7.725110707353254e-07 -8.7178396437781e-07 1.3723632319768125e-06
118.0|-8.017355416379996e-12 1.395935484615976e-10 1.8914632078690646e-11 6.294281626357628e-11 9.08318967838099e-10 -1.4109340945500354e-10 5.4193213433421724e-09 -1.206121271393914e-09 3.5140200781238826e-09 -8.985157262678239e-09 -5.9349849680863e-09 1.1594791517394583e-08 1.586598812873167e-08 -6.5632166493445315e-09 -1.7644380723677926e-08
119.0|-1.4745430512524622e-07 -1.055973640074923e-06 -1.0582870826809322e-06 2.83881048146882e-06 2.5855654834599982e-05 3.104464084061358e-07 6.710813656889933e-05 9.324273510909018e-05 7.826454735191891e-05 5.390027566241188e-05 0.00020650879904637623 -2.984795516651413e-05 -0.00013552132197167766 -2.856229552718352e-05 0.00023515591356134926
120.0|-1.0743160490510014e-08 2.1715811494863204e-09 -1.7876291325687228e-09 6.146293683584981e-08 6.9958925606566e-08 5.4535861794008815e-08 3.6705699323018587e-07 2.1615187881061954e-06 4.7593276039996356e-08 -2.842423943053758e-06 6.519309904817081e-07 -4.120449197744909e-06 -1.1347388646055704e-06 2.9615759853093578e-06 5.626271604786179e-06
122.0|3.6195970322149246e-11 1.1627276720077074e-10 -1.0097913991834947e-10 1.1293657208895583e-11 -1.52629276607033e-09 -2.2918272422552948e-09 1.2794747578733114e-08 -7.48728222386645e-09 1.1029300266122327e-11 -9.914460201337701e-09 -6.768358506082561e-09 1.3267153279387385e-09 1.0381273359605917e-08 -3.65671157633565e-08 8.704058403599685e-10
123.0|-7.679251889166479e-11 -3.866332139461809e-10 2.6296073950519186e-10 -7.626919598447633e-10 1.1305974768146027e-09 2.2330593256226543e-09 2.601613309926103e-09 2.575306181422087e-08 1.027978537766929e-08 3.5798129641664765e-08 5.513642068105049e-08 -2.9245028422105006e-08 -2.33359742082056e-08 -1.5415358291646647e-08 2.9945189021827945e-08
124.0|-6.569470128643892e-07 1.0563789247054941e-06 8.403182346422413e-06 5.358173361265366e-06 -7.640572621488116e-05 2.1818866868453322e-05 -0.0003468382155125944 -9.47761863038925e-05 -0.0004538674592490915 -0.00015459439267266303 -0.0011507555138148347 0.0007860527254423838 -0.00011911049213355196 0.0006231652976894528 -0.0005402088121674474
125.0|6.698967431238989e-09 4.953039501565842e-08 -1.1547713203293534e-09 9.847479202407012e-08 4.1554116691229045e-08 -4.829017322758303e-07 3.1695954112269045e-06 -3.4082329269916838e-06 1.1335532896570016e-06 -4.33657006976222e-06 -4.386980865697868e-06 3.6941946997000173e-06 1.9217301737551966e-06 -4.8663413926792684e-06 1.7857936395749808e-06
126.0|1.5720185274568419e-09 8.138913086972339e-09 -1.355532912293798e-08 4.3010414145476306e-08 1.1059516855559619e-07 -1.200880115105848e-07 1.5451450521286037e-06 -5.157194120965439e-07 7.018315734375309e-07 -9.385233921134527e-07 1.4974197209754796e-07 -1.0232961024476792e-06 3.0680709586959945e-06 -3.6940171796723475e-07 7.229932386608419e-07
127.0|2.2082130935043353e-11 -8.134237070810185e-11 2.8152604059140553e-11 4.016734480449337e-10 2.5018858340507454e-09 -6.043896458423438e-10 1.5440086581532358e-08 1.0316431950423662e-09 3.9869945502842485e-09 7.823548515111109e-10 3.188195292736327e-08 -1.4201090904536717e-08 5.284631177644661e-09 -9.263254997043913e-09 3.062513609164135e-08
128.0|-2.338218055230273e-11 2.2737527561515474e-10 -5.271480586460219e-11 -3.17988858310393e-10 -1.2420800458432742e-09 -2.1930499172418614e-09 2.2447329658278085e-08 -8.233226326371348e-09 1.8650789219888878e-08 -5.318516937614717e-09 9.887030049058017e-09 -1.859247542504595e-08 2.7977099675759892e-08 -3.4237181698158806e-08 2.4067982773769704e-08
129.0|-1.7153423659147738e-12 -1.8455558729650604e-11 -9.056255045388099e-12 5.487812690220322e-10 2.6469246286120475e-10 1.7646424888478548e-09 -2.3242877819786744e-09 1.5902796638393677e-09 1.1761338580125721e-08 7.775752622073775e-09 -6.357106023664408e-09 1.6038477697758823e-08 -2.9479102512667302e-08 4.406053264577225e-09 -2.1270482304298128e-09
130.0|-2.0290793931694752e-07 -5.860029395436057e-08 5.745811352945805e-07 3.238337588864107e-07 -2.2232689944809245e-05 2.563365115783916e-05 -0.0003100638701037244 -0.00011904207659318552 -4.208512160485425e-05 5.5502110356181406e-05 -0.00044287537906268973 0.00022858941139012869 -0.00040623022976466464 0.00033744984692761417 -0.0007975310914298103
131.0|3.534288458884847e-11 3.9473202638711575e-11 -7.207412221317179e-11 1.1105367896583889e-10 7.101316146492565e-10 9.299745740948712e-10 -9.918422560651768e-09 9.757097565871242e-09 1.3827637990603301e-08 3.2735758705505046e-09 -5.6849280319050464e-09 2.917652012477682e-08 1.36648283031451e-08 3.052751508420259e-08 -3.375596131752325e-08
132.0|-2.3246290742095081e-10 -2.0522785211185234e-09 1.108220308979712e-09 5.938890476561451e-09 7.561430415834828e-09 9.789871029771745e-09 1.1474337286933007e-07 3.982712061925884e-08 1.0326034863800235e-07 2.3894952979103935e-07 2.042097783735143e-07 3.815369717383991e-08 -2.5789114966394834e-07 -2.3699262230044062e-07 1.1200014152971687e-07
133.0|-4.028584418154917e-07 1.2811430934488515e-06 -2.614663603073387e-07 -2.1298787555293065e-06 -5.830759520636632e-06 -4.802882144128367e-06 0.00010361079709474399 4.2883028873608944e-05 3.565105258939045e-05 -4.916703761446589e-05 3.372020092129204e-05 -8.898875109327544e-06 9.233834610117963e-05 4.4276355220024606e-05 0.00016485220321637317
134.0|2.1559145526578995e-11 1.2030272744189567e-10 -1.6996330579944456e-10 9.507673931872212e-11 -2.2791562517126173e-09 -3.1630035808968885e-09 4.146231911493296e-09 1.1087124864828406e-09 -3.4914520649382336e-09 -8.600253199085624e-09 -2.2532688101936617e-08 -1.1234199929447948e-08 2.3042233218658565e-08 -4.4496426672468106e-08 -3.13239009097631e-08
135.0|3.096884070659343e-14 1.3795099484572036e-12 5.490824800484337e-13 -1.119610645613977e-12 3.981441216221588e-11 -1.112370732894195e-11 -5.636741899099953e-12 -6.00474969914302e-11 -5.784599763896494e-11 -2.694526700543976e-10 -1.8450024007430172e-11 8.3475310972784e-11 1.1703582724351977e-10 4.4061118403575964e-10 -8.479165176764245e-11
136.0|-7.731254230848398e-08 -3.623889492604833e-07 -7.511305338414307e-08 5.882732314206354e-07 3.1960130083830954e-06 4.6047303769752967e-07 3.273909010041969e-05 3.841080926634498e-06 1.5237152945252617e-05 3.6518935253687116e-06 4.223781630514576e-05 -5.013474071418208e-05 -2.623573650205383e-05 -2.9979779864176582e-05 0.00012412430876633317
137.0|-2.1931912839886495e-05 -9.778511253090915e-05 -0.00011747839849302675 0.0005290438629871894 0.0007019731425800686 0.0009051841214018194 -0.0015289520223902 0.008017950609589939 0.006206455299884324 0.015618661399500116 0.018298080474947194 0.014985563895221132 -0.021205672259216185 0.025872911969064327 -0.0011644533069262832
138.0|-8.214731622062493e-12 9.816376954938967e-12 -8.796196035992696e-11 1.3947944725695517e-10 1.5399760154268734e-10 -3.173249354087927e-11 1.3600704048701958e-08 3.027604717962307e-10 6.42443131235982e-09 -4.312185273996521e-09 1.4846645513456806e-08 -1.3982310716709654e-08 1.0624984501618786e-10 -9.172459924873872e-09 4.692347955998562e-08
140.0|-5.009449816416621e-10 1.1229498524082533e-09 -1.3063594821054067e-09 -8.174688924188874e-10 3.020603335429152e-08 -1.089785356571102e-08 2.3494992428271142e-07 1.4990426450000566e-07 1.9467384826760917e-07 -1.331901861053144e-07 2.2707056376666631e-07 -4.960716404008048e-08 -1.3080901821283087e-08 -2.998064708645785e-07 3.0687166696376664e-07
141.0|2.9622012785665004e-09 1.8434432563664107e-09 -9.184861893824744e-09 1.6548250105796007e-08 -9.520720163895253e-08 -7.961713559893838e-08 5.654766083006891e-07 -8.38766151542921e-07 1.910618385338406e-07 -4.68731681335011e-07 -7.630676009109984e-07 8.536100219705251e-07 8.338482050750147e-07 -7.644999692887242e-07 2.0687229172379373e-08
142.0|8.282231242071504e-08 -4.643911920411304e-07 -1.711680737008496e-07 8.187502559330179e-08 1.951811302309927e-06 1.7640675127629498e-06 1.3102307650530283e-05 1.6630081993347233e-05 -2.4747375880458734e-06 2.6037417722153774e-05 7.442222226252853e-05 -2.8179744170552724e-05 -1.140482995731997e-05 -3.4869061272069444e-05 7.045127521722788e-05
143.0|-1.3758352834918764e-08 -2.3776323849175273e-08 2.2006007012017595e-08 -3.450026925667013e-08 2.8414889723472716e-07 4.110349589603868e-08 2.770392021160065e-06 1.8610375033491366e-06 1.4144223992625014e-06 3.828865175669015e-06 3.748312978631235e-06 -5.080316974078379e-06 -2.927202616235166e-06 -5.773364445697193e-06 1.4091635079280835e-06
144.0|2.1440844667275455e-09 1.2286643877703869e-09 -3.840407581636873e-10 -2.1337272626456805e-08 -2.0549044166415221e-07 -1.8346551753554688e-07 3.649725609619318e-07 -1.282626798592845e-06 -8.221836935999314e-07 -4.1662019993284857e-07 -1.9520746234258978e-06 -1.2202360989731958e-06 1.6702169667094755e-06 -1.3433851267735939e-06 -1.2050427456977964e-06
145.0|-1.502002535905194e-13 -1.8740789510678946e-13 -4.109170327755007e-12 7.562094098710937e-12 3.4183831225227917e-11 -1.81413782146367e-12 -8.479249774805083e-12 5.2464705583552407e-11 1.9072546728922918e-10 1.3249242766856809e-11 -8.958762945338324e-11 -3.573616908653374e-11 -2.174800086981609e-10 1.1157124176529381e-10 3.1481397468164e-10
146.0|6.931301261610512e-08 1.8110252049911505e-07 4.292454381375844e-08 1.6069326875015518e-07 -2.05920282274925e-06 -3.7514714151660447e-07 1.1449336047523268e-06 -1.1692338186828916e-05 -5.764941159651139e-07 -7.385068613263793e-06 -1.6727134071032035e-05 2.1827703568386015e-05 -4.807890944897406e-06 -1.8907652277728732e-06 2.694132770817518e-06
148.0|-5.931336717678284e-13 1.2005722615058108e-12 3.4638327458700756e-12 -3.864269165047255e-12 -2.949567101446003e-11 -2.2261638911815333e-11 -9.359579347610857e-11 -6.215844222410726e-11 -2.4959083710121196e-10 -7.830000590779937e-11 -1.8524359357424587e-10 5.521705517223354e-11 2.0155128805426394e-10 2.7073402598150816e-10 -3.4585220135887244e-10
149.0|-4.107116338842855e-11 9.83772782843317e-12 -9.165888520715253e-12 -3.685914399324139e-10 -9.734352274467579e-10 -2.8896515715491475e-10 -8.4964867466861e-09 1.678323883535701e-09 7.163556522671744e-09 -2.9377351986975524e-09 -7.654104715702585e-09 -5.981761606948789e-09 1.8426569106677654e-08 -1.8074522271929093e-08 -3.062943700361601e-08
150.0|2.937935047914123e-11 -7.403575090483749e-11 6.367120368719151e-11 1.8420845430850733e-10 2.3982490122312668e-09 -4.550029122037636e-12 1.520480045637047e-08 1.08081065481398e-08 1.3100651716085734e-08 6.03992747467438e-09 3.895262776667445e-08 -1.9623501981440004e-08 -6.830233168031557e-09 -2.028275995219311e-09 3.8723904848519985e-08
151.0|-4.5832202455696375e-08 -4.8002238952914486e-08 4.3942729453030434e-07 -4.98837628149777e-08 -3.02522631644624e-06 4.139338106059084e-06 -5.040406531000689e-05 -2.030412157175114e-05 -3.2776737555945334e-05 2.0054346708967923e-05 -6.433614997775826e-05 6.791660834639183e-05 -5.4347990843451626e-05 9.832393685002806e-05 -3.9085685106164e-05
152.0|-3.01420054723275e-08 -1.5410491622871475e-07 7.447046229910073e-07 -6.489974404955663e-07 -5.029355182791733e-06 1.1448123145482252e-06 -1.8790942128809315e-05 -2.696856589569543e-06 -4.012443729323084e-05 2.5433124940626792e-05 -3.2091376018780506e-05 7.245154854151564e-06 -4.120057349742408e-05 2.7257403594277813e-05 -4.2484190391350724e-05
153.0|-1.4232560440729994e-08 -1.1934545635792362e-07 3.0163858800425074e-07 -3.9767918649347283e-07 -1.8857466016027795e-06 1.056984089864906e-06 -1.7162477436203988e-05 -5.74515740359676e-06 -2.760889857795723e-05 4.877802969921961e-06 -1.9109412330527275e-05 -6.720298246645768e-06 -2.352687583397153e-06 1.3855029238943916e-05 -2.315856293772703e-05
155.0|1.2397596101572284e-11 7.2981667786039e-12 1.820595950135512e-10 2.0412781033017047e-10 -1.6068625788893352e-10 2.742278660677634e-09 -2.308818182014116e-09 1.7172641279475508e-09 3.2590857157635487e-09 5.318577208795762e-09 5.938439833715938e-11 2.5869835503463622e-08 -2.616678806074696e-08 3.38864662694368e-08 -5.979357336951058e-09
156.0|-1.512403560868679e-09 -2.5452592474496828e-09 -1.1781085835357869e-08 2.1194516546703963e-08 1.232486777163484e-07 -2.7899929816882937e-08 6.429619542973653e-07 2.5213898835008164e-07 4.5464150717772e-07 2.433025186200119e-07 9.264358882288337e-07 -1.938670784415321e-07 -7.573508198093378e-08 1.8740673809094906e-07 7.021947667017564e-07
158.0|5.561637623671744e-13 -8.973609260986975e-13 -1.286781914928885e-12 3.6058345425284944e-13 6.252470659908578e-12 7.509238088624644e-12 -1.4131602389207073e-10 1.1416639654888573e-10 -2.70881071377595e-11 1.0826294725024462e-10 -2.5799855228923045e-10 3.857698977796346e-10 -7.850394504467826e-12 7.056908722270378e-10 -3.547342167986848e-10
159.0|-5.58724864535058e-12 4.3132059071103673e-11 -3.6514807835461984e-11 3.3747534420114026e-11 -2.2115222372539046e-09 3.75750796280197e-11 -8.582612747331368e-09 -1.2424495353554625e-09 -3.1946890458354727e-09 -6.513988677957633e-09 -1.44542292190117e-08 -4.4091045804073895e-09 -1.7569091010487866e-09 2.3950365134266e-08 -2.0347120042545854e-09
160.0|4.1483806673151205e-10 -3.2396732587981383e-09 3.231207166595831e-10 8.416163305853145e-09 1.620617703580742e-08 7.826636989562484e-09 -1.9652900031580117e-07 6.788294073084723e-08 -1.82285819515512e-07 2.1595844519926914e-07 -1.3984026365423598e-07 3.508739287558123e-07 -3.457020509524957e-07 -6.838648247283298e-09 -3.163131021964198e-07
161.0|-5.745257342114439e-13 -9.026112408544689e-13 -5.604079820380965e-13 4.358001344801067e-12 2.692058631632546e-11 -7.944209799169892e-13 -1.5656426317411802e-11 2.0057703611290438e-10 1.959812038088795e-11 1.3264321946129898e-10 -2.944685930226086e-11 -6.776775053476354e-11 1.2611466708072405e-11 2.658431048022321e-10 -2.9858638381012077e-10
162.0|-2.582479131572505e-11 -2.377905028103874e-10 2.820529602541546e-10 -1.691451462524868e-10 8.501798403019802e-11 1.1031924788982464e-09 -3.3485979728784074e-09 1.2703697416440968e-08 -1.633768927156125e-08 2.514589358141664e-08 1.6794553624148257e-08 -6.474123608351856e-09 -5.0747242132597676e-08 6.8171116887490615e-09 1.7214001134510766e-08
163.0|-3.118404148943192e-12 6.609690994946492e-11 1.0772033873913958e-10 -7.262111493583985e-11 -1.2131123554044113e-09 6.491027489580423e-10 -8.144308221548967e-09 4.516372837903644e-09 -5.67012911861057e-09 1.238071260211455e-09 -7.541393559826315e-10 1.6894412468881128e-08 -9.25072249770058e-09 3.8400822542178714e-09 -1.1780049552800665e-08
164.0|-4.801111174555085e-08 4.591158848518862e-07 -3.831158268855456e-07 -9.371985160294339e-07 -9.867605478946503e-07 -5.841313806646669e-06 4.740677744308535e-06 -3.2019983830946714e-06 -2.0125719467116386e-06 -2.9460723906041752e-05 -4.434548763918672e-05 -1.2380166190276794e-05 8.002260125046393e-05 -3.115664685723268e-05 -6.587190093525662e-05
165.0|-1.415877325515515e-10 6.192487280258884e-10 2.686758998323703e-09 -8.802371040720912e-10 -3.5580707603053e-08 2.1539371375702418e-08 -2.011473149291453e-07 -2.349975967624702e-10 -4.5183599751791495e-08 5.713666656630165e-08 -2.943532234781891e-07 2.6623912459320166e-07 -6.908407115242133e-08 3.5980492310178117e-07 -4.5403124712169436e-07
166.0|-4.658465170620391e-13 -2.472470623685222e-12 2.218542787732975e-12 6.591432121736878e-12 1.1261487163592197e-11 2.0655722504399534e-11 -1.8139981813091663e-10 9.44105163232252e-11 -1.4130320386421218e-10 2.604266172940626e-10 -2.343014547259621e-10 4.053162266949227e-10 -6.832405280489181e-10 1.3003847084996875e-10 -4.6507344725643856e-10
167.0|-2.7546006159686373e-11 -1.800693568322814e-10 -6.720042355223867e-11 1.2789235989872844e-10 2.9897177570567804e-09 1.9113780197227005e-09 -6.987394488681987e-10 1.351866982821687e-08 5.657171270750618e-09 1.2717260372846912e-08 1.6335395418873897e-08 2.49273072024511e-09 -7.851816010843703e-09 2.0815884858430085e-08 8.058564930759171e-09
168.0|-6.336660893697711e-13 -3.2680531249310323e-13 -1.871895831139038e-12 -6.9962962267598165e-12 2.3094081473455485e-11 4.338330024553241e-13 -4.959962547883212e-11 1.4128831565831022e-10 6.540094173598122e-11 1.0347771316024079e-10 -2.38656623612006e-11 2.649033691245331e-10 -2.1212844389256067e-10 1.5135081945756148e-10 -2.3901209671290986e-10
172.0|-4.0366201052605646e-11 4.68059807097485e-11 -1.4143781602137144e-10 6.593442780770213e-11 4.5540979692556293e-10 -7.360156862640908e-10 -1.8977672970912465e-11 -7.132283965155111e-09 -5.977600091771006e-09 -3.0745773971811897e-09 -8.240883124788705e-10 -1.1259825380856392e-08 1.0595467830115363e-08 8.393148629538858e-10 8.953570810320624e-09
173.0|1.081082997576235e-09 2.0449560522960726e-08 -2.877118151354493e-08 7.537298901036814e-08 -4.28958750318933e-07 1.28589248300271e-07 6.168087224029618e-07 1.487920283351855e-08 1.9411202149258225e-06 -1.337913081803004e-08 -9.93507433811622e-07 3.4299324602523883e-06 -1.5852425833411125e-06 4.008746631157109e-06 2.135143999884202e-06
174.0|4.376214361522735e-11 8.314920833042134e-11 -2.7343039996542404e-11 -2.3476098300411453e-10 3.2913207797121266e-11 -7.487758014726223e-10 6.571196283660987e-09 -8.8884830916172e-10 -1.133716897944035e-08 -8.488016995591175e-09 6.78711731517206e-09 -2.9432927294720346e-08 3.607549012303985e-08 1.2793606727858085e-08 -7.280320972184458e-09
175.0|-1.1784500109484946e-08 -1.3916927243009848e-07 2.1537728598686725e-07 -1.487833878467342e-07 3.911088562559954e-07 9.474163203465631e-07 -4.887803769755411e-06 8.929924707428294e-06 -7.500446986861082e-06 1.3912587806868582e-05 1.3723144118627181e-06 -6.673150543533118e-09 -1.4041765711104773e-06 1.0963071796428649e-05 -1.5761282293852997e-05
177.0|-8.046406915413063e-14 2.23644094222685e-12 2.0615704692642884e-12 -2.4023579651383595e-12 -3.5493960625856325e-11 3.7748348718275895e-11 -2.887956332495087e-10 -1.2585719895144898e-10 1.806955469141508e-10 -8.171536715217324e-11 -2.1929573261887686e-10 3.121894818831534e-10 4.261152771189368e-11 2.1189479947789092e-10 -5.03985556689726e-10
179.0|-7.404294114549981e-10 1.4201239851503272e-09 8.956830568376562e-09 -1.3649862350598435e-08 -9.565927574195864e-08 -9.024621328258782e-08 -3.0361471716391884e-08 -6.760751517201221e-07 -1.0418396917853948e-06 2.2654668715952604e-08 -1.3462651146534012e-06 -3.482287165545815e-07 3.4742712450894465e-07 -9.345018003220681e-08 -6.884244714325443e-07
181.0|7.041676334896616e-10 1.0226906748128309e-09 1.9801716878476364e-09 1.0037221835535238e-09 -5.1390210630818026e-08 2.168564060361018e-09 -3.0390426449880206e-07 -1.763859419924773e-07 -2.474943100896575e-07 -1.1357308160975141e-07 -5.625779993244007e-07 2.684436219539606e-07 3.536404081167559e-08 1.3214666484098592e-07 -6.73934874948597e-07
182.0|7.431474048056842e-09 -3.4635719181524104e-08 -8.447880428518551e-08 3.941108481415946e-07 2.3444714277160583e-06 3.6341327256233496e-07 1.225429329415228e-05 -2.6863632615552774e-06 1.614857195356167e-05 4.3793715097794785e-06 2.677335793210083e-05 -3.5622029368233423e-06 6.296910939667932e-08 -2.937478447458455e-06 3.877863908881253e-05
183.0|-5.493981552764709e-13 5.188185653144851e-13 -6.04209242048352e-12 7.374082528571113e-12 5.871266244815085e-11 -8.417128128619772e-13 1.1064611343503426e-10 -1.9842401499097798e-11 9.629852031345949e-11 -1.69609427948242e-10 2.3134321909084175e-10 -4.70666783288536e-11 -2.3043949864742136e-10 1.550339629584648e-10 4.0604752536477067e-10
185.0|2.6073240470827187e-13 2.6876033568456917e-12 -1.38030777415588e-12 5.356423690318253e-12 1.6867167514873168e-11 -1.3441185709697874e-11 1.3314816498246175e-10 -6.030116263277182e-11 1.9946104194999067e-10 -1.5097719514141836e-10 4.236931799601414e-11 1.7561469281238168e-10 -5.7409940550276134e-11 -4.006289069045259e-10 7.814584443010589e-11
187.0|-9.928702092931515e-13 5.441950410366004e-12 -2.897255785066307e-12 3.6121823940926863e-12 4.522181981078841e-11 -7.80998793402953e-12 2.554875315242986e-12 8.360462105083937e-11 1.7739443602291277e-10 -4.5290565272227435e-10 -5.0073678298731314e-11 2.1962785314118636e-10 5.852210000915214e-10 2.5486482163091055e-10 6.593327232612534e-11
188.0|-3.925397375455687e-09 3.411352348241925e-08 -5.236242695672694e-08 1.259643975257094e-07 6.144311557763396e-07 -1.2544298705024644e-07 3.387966048364663e-07 1.1664472523222463e-06 4.461308498298432e-06 -2.0293491416067827e-06 -8.549570157268391e-08 2.5800054284110724e-06 7.066475046467912e-08 2.2020010036588428e-06 -6.120157584327868e-06
189.0|-2.090922889943239e-08 7.78693173228278e-08 -4.804072367024413e-07 1.4350135254894166e-09 -3.23393129348848e-07 -1.7338215375912965e-06 5.228880968153799e-06 1.0208178348251294e-05 1.638215735964246e-05 -8.381320369093623e-07 1.0808224597925416e-05 -3.391584225936899e-05 -1.8843972640594803e-06 2.04484321638311e-06 -1.0094387325279402e-05
191.0|1.7170728534299545e-10 -4.499287977538456e-09 1.401903070217961e-09 4.542948817745005e-08 1.7808267649696114e-08 -7.740587234550617e-09 4.5651362093941894e-07 -4.2131868566587125e-07 -8.66569735531147e-08 1.1373684598763753e-07 6.308840984190875e-07 4.3431392059398483e-07 -8.577242824745254e-07 -1.2834965334987467e-06 1.023240255035032e-06
192.0|3.058276640277033e-12 -1.0135169480295296e-11 -6.237360318842423e-11 3.2636010444869674e-10 -3.61683965621061e-10 -1.8548587651301636e-09 1.6420499606221352e-08 -1.4049143561046904e-08 -3.933514917584305e-09 -1.203181905980466e-08 1.4223652498908605e-08 -1.5961075574180008e-08 8.974987766122507e-09 -5.097068726306177e-08 2.971083667470721e-08
194.0|-2.3512647613213925e-06 -9.262211272731769e-06 9.739271543284372e-06 -1.1956649957601502e-05 2.5518471720451453e-05 1.3463162161517575e-05 -8.098032770355585e-06 0.00037262414957284294 -0.0003686212417461646 0.0006069183894392585 0.0004745982959223143 -0.0007446481659884507 -0.0013914856274938872 -0.0015729200214314944 0.0009413491124208799
195.0|2.8316688175491703e-13 -1.192684396047735e-12 1.6749755389784879e-12 6.975548271069298e-12 2.3609449766383123e-11 8.56713688620811e-12 -9.71854062777793e-12 6.935226137356661e-11 -4.040403312786697e-11 7.225576801234728e-11 -1.0625489637858613e-10 3.25027343524731e-10 -2.3086574306595572e-10 -1.2775075161862302e-10 -2.821093872489215e-11
196.0|-7.409349181290227e-13 1.1404809124651345e-13 -1.40643349257677e-12 4.705037993469736e-13 3.6200966563444534e-11 -1.8752822162132842e-11 2.00192502403784e-10 -1.4548535822030948e-10 -4.782836545132031e-11 -2.2035693678038108e-10 1.7286687652381312e-11 -2.5308761574556475e-10 5.3169778617384393e-11 -2.637762727872625e-10 3.7462562007874207e-10
198.0|-7.2133603670748105e-12 6.198717235072605e-11 4.849322041997238e-11 2.6319652010950195e-10 -1.030320380944439e-10 1.7203696938553929e-09 -1.5438535267707597e-09 2.6321676508437802e-11 -1.6043495314137932e-09 2.2098508666374117e-09 -8.789612015430904e-09 1.3827850103686233e-08 -1.203494621260018e-09 3.836299669947631e-08 -1.0374324254106332e-08
199.0|2.7528332043652238e-11 8.816764494727033e-11 -2.501256278657066e-10 2.6761287247190026e-10 2.1464405863224694e-09 -1.5179114468558419e-09 1.9707144522019356e-08 1.2543646204664762e-09 1.864463375353516e-08 -3.993509434314416e-09 3.249835554458164e-08 -2.37227462541286e-08 3.9258451126292826e-08 -4.130792885025053e-08 3.618748247848618e-08
200.0|-3.6068792535923303e-14 3.739070500860464e-13 -4.2587179037386663e-13 1.6686272648822981e-12 1.9793102284070444e-11 1.3048690901144451e-11 -3.54554683455396e-11 1.733449982600634e-10 2.0557230225257683e-10 3.9042886782680306e-11 3.5863009230457773e-10 -1.6063475981789963e-10 5.351983476326046e-11 8.597593001141451e-11 -2.5958153057897664e-11
204.0|-3.0850897849167485e-13 1.6974990568972792e-12 -2.5102723043632767e-13 -4.9703851753813596e-12 -2.3425815379776418e-11 4.430128340413574e-11 -4.313662606183703e-10 2.836876692073364e-11 1.0167024032538749e-10 -7.511505845054337e-11 -3.6566177906815253e-10 4.391058594079085e-10 -3.0964101218897114e-11 1.15456765984528e-09 -6.65407255204147e-10
205.0|-6.932682371864965e-13 -6.757366953916268e-13 -1.6976563493480954e-12 -5.153109517374652e-12 2.2603107089891847e-12 5.2049927170546366e-12 4.524721220513777e-11 1.6897437486048137e-10 3.0041172419063765e-11 1.5930627571901208e-10 2.6697235807592333e-10 1.724519084187187e-11 -2.581291464527497e-10 -2.1224084892660869e-10 3.641661679948914e-10
210.0|1.9213347235670022e-11 1.8968192373608175e-10 -1.184226602646848e-10 -4.371219959103674e-10 -1.8854660278594013e-09 -1.8481050472967399e-09 2.2372935394887795e-09 -6.237792413753237e-09 1.3236420514201798e-10 -1.3456324604713153e-08 -1.434872834586795e-08 -1.5173734374203035e-08 4.465235289732364e-08 -7.005564558822206e-09 -2.8900735226078457e-08
213.0|8.452156816617484e-13 1.0424794626565188e-12 -4.0304156425693163e-13 4.7748868388438e-12 -2.5303131320938527e-11 1.8755135807637205e-11 -1.871262525503561e-10 -6.718405457054004e-11 -4.927059109505864e-11 6.02301391212453e-11 -2.371190475226406e-10 3.6855686462837894e-10 1.1318778373092735e-10 5.602988949395772e-10 -3.0588272585051995e-10
214.0|5.337798036420931e-13 5.318863403377703e-13 -1.615947028233566e-12 8.897645347592498e-12 -1.6895069826518385e-11 1.8824519007437084e-11 -9.49594588884594e-11 1.1856615997719741e-10 8.013135557370131e-11 9.645216871633103e-11 8.619247846932824e-11 3.2892231645861117e-10 -2.4398352576407036e-10 1.9965651661511696e-10 -9.100444332904484e-11
216.0|-4.293486240078571e-09 3.805589144226443e-09 -1.6664453714073886e-08 1.780691508014824e-09 9.929019159614564e-08 9.816765733188169e-08 -1.8481794765281038e-07 7.63175213999857e-08 9.846460016284387e-07 -2.939218755468792e-07 4.0498417728995534e-07 -2.5378940146053075e-07 9.12220861679059e-07 2.0507861621964544e-06 7.102564664533681e-07
218.0|-5.085386118752892e-10 -4.959926558345236e-08 -4.961294045932413e-08 2.0017271974465773e-07 8.390095704366613e-07 3.495706170386086e-08 3.7019899246749177e-06 1.215409101974972e-06 3.4522710545582504e-06 3.1433230406859177e-06 3.2270834497764395e-06 5.013532088904693e-07 -2.324777618921178e-06 -3.5963178019949505e-07 4.383380356181912e-06
220.0|1.751240480083229e-09 2.5733803984326517e-08 -1.4120890627296076e-08 -4.3530237682954664e-08 -5.650699305800821e-07 -2.1615220574971147e-07 -2.570307378385547e-07 3.8218055688014485e-07 9.14701202143108e-08 1.0656134057931587e-08 -3.619469138262216e-06 9.194320488537166e-07 2.1317802525581435e-06 -1.4308678678119833e-05 -4.4166322653275026e-06
222.0|-8.191477383947135e-14 5.767240948623774e-13 1.70305116250962e-12 -4.8375619900549426e-12 1.6524079182030442e-11 -5.099705869769065e-12 8.980837879585482e-11 -8.850780853551819e-11 4.2557507756767265e-11 -9.459037819613015e-11 2.781776842883703e-10 -1.4775047230775727e-10 2.73821593931254e-10 -2.0058838599730087e-10 2.976396859857051e-10
223.0|-1.4583555547871634e-11 -1.4373508781987508e-10 1.9840791703508295e-10 3.1603509612089086e-11 2.875442193226823e-10 1.7134397800982088e-09 -6.188256147249041e-09 9.688575807010224e-10 -4.811371470932027e-10 1.86221631690408e-08 7.504191915370421e-09 -4.788976529955092e-10 -3.179676054791285e-08 -5.55903857253309e-09 -6.160943856206336e-09
224.0|-6.830989065489591e-14 -3.186481961364822e-13 -2.513080639294063e-13 -4.260783813743794e-12 -8.099664104879075e-12 6.220285358184186e-12 -2.559640932032549e-10 -5.104970971934888e-11 -1.53598184301775e-10 3.3449815097839945e-11 -2.665884594632634e-10 2.485843907932557e-10 -1.5965668322984568e-10 6.086086333264198e-10 -3.0492627038021546e-10
226.0|1.0548237290608195e-13 -6.305070207742463e-13 2.5825629443802035e-12 1.7679575107703418e-12 1.8791027745938716e-12 -1.352161199087665e-11 6.580064186345145e-11 -1.9802458260703433e-10 7.739070081878636e-11 1.3333996726253548e-10 -1.2114482589353564e-10 2.0034660592345723e-10 -3.070871807644899e-10 -3.6823033751245334e-10 1.867477993572646e-10
227.0|-4.34436452967292e-14 -9.418798708569235e-13 1.9278442398826748e-12 2.103429606498715e-12 -3.597736456257624e-11 4.7164058616401976e-12 -8.43675052483968e-11 5.468221092652337e-11 -1.1696106202970078e-10 7.957909424675257e-11 -1.3031722477191752e-10 2.509425868679707e-11 -2.316465153006417e-10 -2.0103450503320718e-10 -1.8316524662102648e-10
228.0|2.616922138459767e-13 3.3779332026295362e-12 5.048800473967796e-14 1.1145487355575717e-11 -2.5921186190673023e-13 -6.097622936233506e-12 -5.775300195159891e-11 6.810011711871712e-11 4.4786520768709156e-11 -4.481009791663129e-11 -5.84236899993648e-10 8.475865937399649e-10 6.504779802034002e-11 1.8041249276568864e-10 -3.986838302853405e-10
231.0|6.321420635175373e-13 -2.9189385801721633e-12 -1.5668765434271004e-12 7.720553451223998e-12 1.5988997853659614e-11 -1.3683581605814131e-11 1.3025090303122423e-10 1.9338250352368817e-11 2.0088434850154542e-11 1.7099458130906344e-10 2.519738332772533e-10 -1.0200031043763334e-10 -2.9626625053079104e-10 -6.116132042290627e-10 3.1156711363868484e-10
234.0|-3.6313027572532354e-13 -2.1033280807982083e-12 3.1380284024306864e-12 -2.2453663470805703e-12 -8.790117895807522e-12 6.458177432919527e-12 -2.236415701237017e-11 2.5522290206928998e-11 -1.9462350314313772e-10 1.3139680198531117e-10 6.170134493841344e-11 -1.8289596202123297e-10 -4.3856929240992004e-11 -8.803871812430854e-11 -1.2084126945656712e-10
237.0|1.6461456448865386e-09 -1.08192924725459e-08 7.600079662178094e-09 -3.273533335653875e-08 6.041143569706255e-08 -5.993254265365352e-08 -3.905564714493207e-08 -2.272315497428678e-07 -7.109636841495255e-07 1.0269125677878849e-06 1.0151767124391892e-07 -4.9897454859528376e-08 4.521233291328491e-07 -1.636486393135189e-07 -1.7965270373384975e-06
238.0|2.8967719822272554e-13 1.8001218697143267e-12 -2.9755362758309045e-12 -4.943360797166585e-12 3.8109885729169135e-11 -2.9219315166054e-11 2.8192986504097816e-10 -5.595734496365933e-11 1.3534695744061422e-10 -2.1254789893606014e-10 2.4972678744087187e-10 -2.0879285893163604e-10 5.027692778613745e-10 3.9621963550902867e-11 3.3184132210480946e-10
246.0|-1.836063448401714e-12 -6.136063770349479e-12 5.423244272024983e-11 -4.6409639343724e-10 -3.181641067717931e-09 6.103515485059094e-10 -1.7346857827470083e-08 -3.4411405250013278e-09 -4.731144590905924e-09 -9.529399451790834e-10 -2.144516202272902e-08 8.702685120872487e-09 1.073496899632635e-08 2.3106394061766237e-08 -4.8857786681185886e-08
249.0|-7.270115863417757e-13 -3.2559762693947874e-12 1.2558645088447477e-12 1.482516237751069e-12 -6.239025300563547e-12 1.1460654680820725e-11 -6.225087804206315e-11 -3.006668882653093e-11 -1.947171816787633e-10 8.925991690096635e-11 -5.7427515030401326e-11 -3.3526954397235025e-11 -1.5133498695010185e-10 -2.509541576387776e-11 -2.784998319501982e-11
250.0|-1.0777273404186719e-13 -2.7724172892551166e-12 3.3629526855070015e-12 -2.499651874798386e-12 -9.38282406524843e-12 6.579174384303127e-12 -7.680324760347825e-11 6.237327955687838e-11 -1.9066150887775072e-10 2.714679451362354e-10 -1.4563997967536727e-10 1.3719274378631955e-10 -5.76327413989548e-10 -2.590083860891402e-10 8.490958200233731e-11
254.0|2.3402312402587985e-13 -3.936983503101761e-12 2.1340810639869625e-12 1.3273477951857163e-12 3.7063097054511825e-12 7.648166837743947e-12 -5.710292578433909e-11 9.261088778114132e-11 1.370564578285714e-11 4.46438834673648e-10 3.4679082575515304e-10 -1.782884865270059e-10 -5.121684225750565e-10 2.083886106154555e-10 3.5058458371433824e-10
258.0|4.897566311142372e-13 2.4190776301554456e-12 3.835755960932433e-12 -1.1862753416568885e-11 -4.051145576851588e-11 -1.0717922390067833e-11 -6.478429548866979e-11 -1.4680916894716535e-10 -8.659142120360736e-11 -1.6602116024627817e-10 -1.1451604071929257e-10 -3.233799740623407e-11 7.977243171204435e-11 -3.758052754737405e-10 3.093955493687982e-11
259.0|9.257881396177963e-14 2.468986849322791e-12 4.0048616607770285e-12 -1.1145154475723147e-11 -5.502101076583567e-11 -9.398997352017394e-12 5.754243688648093e-11 -2.380106905971281e-10 -9.507674408882806e-11 -1.5572448184676748e-10 6.237809057105502e-11 -4.3509902387798014e-10 2.2373761454907882e-10 1.5268605076197872e-10 5.96073411229004e-10
264.0|-1.367966627024207e-13 4.880770269905526e-13 9.32972101312877e-13 5.522077585819429e-12 -2.7999742060618375e-12 3.808424077606845e-12 -4.581520296682838e-11 6.277408488469679e-11 4.310905679649857e-11 9.259596694814619e-11 -3.0840831592306085e-11 2.0589372538837683e-10 -2.618601654874194e-10 -4.8035744434173954e-11 5.0384648065591945e-11
266.0|1.0734416179440777e-12 2.411888262550459e-12 3.8438792740727295e-13 -1.8981293943365966e-12 -2.7359016034819283e-11 2.272330620406484e-12 -7.475447600614728e-11 -9.164494280317565e-11 8.736456562254401e-11 -6.368319597672894e-11 -2.3365779785250825e-10 4.625497661654273e-10 -2.5722350576269053e-10 1.2833674548464088e-10 -2.2716634093843347e-10
286.0|1.455877519238278e-14 3.8784608714228014e-12 -2.69816171398935e-12 1.323822927758024e-11 -5.843748539033405e-12 1.939655923762269e-11 -1.1620604860477868e-10 -1.164507209497381e-10 2.5540194487990986e-10 -2.5484046037965176e-10 -2.39623373651603e-10 3.2886640816312334e-10 3.490509627048174e-10 3.6865331563337545e-10 -1.9848474908480252e-10
