1472003|-2.3709429003652858e-08 0.0883883423266819 -6.105489560204656e-08 1.8090428817349584e-08 -4.7769681682731734e-08 -9.192532506970492e-08 3.0983130269442167e-07 -2.4358570429150975e-08 1.9597592941774507e-07 -2.769155681207603e-07 7.401037837010948e-08 -1.2844438608279104e-07 4.085350119200442e-07 -2.3018344177673758e-07 4.0219687959376656e-08
1472007|-7.291779022358843e-12 -7.186793573248146e-11 9.92032778877948e-11 1.580178681522141e-11 1.4377206181388266e-10 8.567198500655397e-10 -3.0941280587046835e-09 4.844287854058373e-10 -2.4056857797626185e-10 9.311081562987096e-09 3.752095955748992e-09 -2.394488261114816e-10 -1.5898380296728056e-08 -2.7795192845997115e-09 -3.0804719309739695e-09
1472689|-5.745257342114439e-13 -9.026112408544689e-13 -5.604079820380965e-13 4.358001344801067e-12 2.692058631632546e-11 -7.944209799169892e-13 -1.5656426317411802e-11 2.0057703611290438e-10 1.959812038088795e-11 1.3264321946129898e-10 -2.944685930226086e-11 -6.776775053476354e-11 1.2611466708072405e-11 2.658431048022321e-10 -2.9858638381012077e-10
1472695|7.546870409205746e-08 1.8059778378837371e-06 -4.552675585877485e-06 -4.133799295844359e-07 2.198925619909534e-05 -2.5521445609290764e-05 0.0006016030169876428 -0.0003335948439851115 0.0014717802339397142 0.13722610712170535 -0.002074020215112814 0.0019341857673253195 -0.0009849101883517995 0.0005150451401202 -0.0002808692695787997
1472699|4.115364192259017e-10 -2.704823138522171e-09 1.9000198862141812e-09 -8.183833416322264e-09 1.510285889235439e-08 -1.4983135668531142e-08 -9.763911783965597e-09 -5.6807887493884763e-08 -1.777409210687964e-07 2.567281419621852e-07 2.537941784847159e-08 -1.2474363700895696e-08 1.1303083227112049e-07 -4.091215980448487e-08 -4.4913175935779315e-07
1472725|7.546870399277399e-08 1.8059778380451124e-06 -4.5526755855673e-06 -4.13379928931216e-07 2.1989256198786726e-05 -2.5521445609051115e-05 0.0006016030169879003 -0.000333594843984688 0.0014717802339396953 0.13722610712170577 -0.002074020215112615 0.0019341857673255327 -0.0009849101883517071 0.0005150451401202183 -0.00028086926957900625
1472774|4.014598011444375e-06 -1.0658663979412312e-05 5.179077582337415e-05 3.73635380599726e-05 -0.000321438898539525 0.00014610489779364353 -0.002142782477157791 0.0011633129739464499 -0.0019058407745343902 0.0018061856136345278 -0.0026237381291621563 0.005649475556800454 -0.005506788588604041 0.007257923365422466 -0.0049252151555800325
1472775|-3.3138624742591915e-09 1.898199421452987e-08 -1.0682479545836347e-08 -5.3902552250616574e-08 9.577147954465133e-08 -1.3722131189964772e-07 1.546858798935447e-06 1.21999263884316e-06 1.2787440745959742e-06 -2.21141491277285e-07 1.9853713960298178e-06 -8.077903269515722e-07 6.657291862206627e-07 -8.813321507180766e-07 1.5562928470254866e-06
1472779|5.360211197979644e-10 3.071660940257972e-10 -9.601018755893963e-11 -5.334318165237265e-09 -5.1372610405331504e-08 -4.5866379412913626e-08 9.124314046754686e-08 -3.206566995209435e-07 -2.055459234714233e-07 -1.0415504963486475e-07 -4.880186558678693e-07 -3.050590245990656e-07 4.175542417696072e-07 -3.35846281653462e-07 -3.012606866278199e-07
1472783|-2.2669059432371433e-09 9.070626781411103e-09 -1.0956290038779827e-08 -2.5655619889912173e-08 3.134185232111538e-08 -1.2971657669846572e-07 5.031973361523354e-07 -7.048816259041632e-08 3.938444355191695e-07 -1.009588423276424e-06 1.3014580060545184e-07 -6.699615960174798e-07 1.9681913644904266e-06 -1.418879487905793e-06 -1.8550617256391638e-07
1472938|0.0842151909214623 1.9912085038628753e-08 7.74482430796777e-09 1.1875497925745329e-08 -8.035462191506627e-08 -6.660360775897902e-09 8.917799071199326e-09 3.054203795437715e-08 -5.149028692710212e-08 -1.4341471935973849e-08 -4.428337338038291e-08 5.409400405759248e-08 1.1550360872199495e-08 -1.3240529460271563e-09 -7.804733439161223e-08
1473075|-1.9640833491250124e-09 -2.3194878736984026e-08 3.5896214330050777e-08 -2.4797231308441007e-08 6.518480935381234e-08 1.5790272005797895e-07 -8.146339615212039e-07 1.4883207848122144e-06 -1.2500744975697159e-06 2.318764635093351e-06 2.287190695802281e-07 -1.112191859624161e-09 -2.3402942820542283e-07 1.8271786327138286e-06 -2.626880382694515e-06
1473078|7.743069450232388e-06 7.5475567298035924e-06 5.570865947907878e-06 3.643252977054201e-06 -0.00039393626511979315 6.570661228030988e-05 -0.0007195729410291633 0.00015287616284640274 -0.0007170907729217699 -0.0005831146457796948 -0.0014421357874071473 8.739007199691856e-05 -6.807972054087132e-05 0.00014891182771979066 -0.0014353091380067157
1473088|-2.148632099350342e-09 4.3431623153214613e-10 -3.5752582644019943e-10 1.2292587359934555e-08 1.3991785175542087e-08 1.0907172328045392e-08 7.341139871055165e-08 4.323037577718233e-07 9.518655052368778e-09 -5.684847887630083e-07 1.3038619810342118e-07 -8.240898398690714e-07 -2.2694777238998754e-07 5.923151972144522e-07 1.1252543209247907e-06
1473091|-6.5474574943402285e-09 -6.857462706010497e-09 6.277532778889726e-08 -7.126251832488332e-09 -4.3217518801762147e-07 5.913340151305687e-07 -7.200580758577767e-06 -2.9005887958703674e-06 -4.682391079524622e-06 2.864906672557842e-06 -9.190878568328696e-06 9.702372620752357e-06 -7.763998691479732e-06 1.4046276693207098e-05 -5.583669301096319e-06
1473554|-2.3709429078396283e-08 0.088388342326682 -6.10548954336603e-08 1.809042889978135e-08 -4.776968169292108e-08 -9.192532502294801e-08 3.098313027028267e-07 -2.435857046908224e-08 1.95975929449622e-07 -2.7691556807523636e-07 7.401037842892079e-08 -1.2844438609647468e-07 4.085350117382883e-07 -2.301834418374069e-07 4.021968799827855e-08
1473595|4.010960373776775e-08 2.3186288664253642e-08 1.385910964873397e-07 2.3100234680244328e-09 -1.7029012903271487e-06 -5.884354015066163e-07 -2.6886705929953453e-06 -1.2330592530144037e-05 -1.2977226967436473e-05 -2.6031973425869585e-06 4.530106824688843e-07 -1.2674699909174255e-05 4.0616923108329145e-06 1.0795166559261135e-05 -5.646070861966947e-06
1473603|-4.604180142591722e-06 -1.3353391720690116e-07 -6.830164172966447e-06 1.6689520670077136e-06 0.00027625056764153736 -7.287181835208771e-05 0.0005886353010790184 -0.00023100996381248946 0.0010650180764560774 -2.5912213234597285e-05 0.0006661080376702587 0.0007265239541986906 0.0009590673135984469 0.001319301591152267 0.0009497019864396685
1473608|-2.3709429078651792e-08 0.088388342326682 -6.105489543379321e-08 1.8090428897822706e-08 -4.7769681682604865e-08 -9.192532502596853e-08 3.0983130268969375e-07 -2.435857043645856e-08 1.9597592941349217e-07 -2.7691556811088655e-07 7.401037837062976e-08 -1.2844438603704197e-07 4.0853501187821756e-07 -2.3018344180455856e-07 4.0219687969825284e-08
1473614|0.0842151909214623 1.9912085038909392e-08 7.744824308264354e-09 1.1875497916644664e-08 -8.035462190538548e-08 -6.660360785435774e-09 8.917799068893257e-09 3.054203802530776e-08 -5.1490286990431924e-08 -1.4341471921076455e-08 -4.428337315392969e-08 5.4094003737208924e-08 1.1550360994504732e-08 -1.3240533015443419e-09 -7.804733407601306e-08
1473621|-3.9132973851905226e-07 2.8069914243786786e-06 -1.2436301877402988e-05 -5.560670011089994e-06 6.7592530843148e-05 -5.853611870635537e-05 0.0008681748302504042 -0.00019272507489135504 0.0007311786135671209 -0.0009497204363868413 0.0015004726621103304 -0.002939817198068055 0.006775035914739541 0.14732497404080397 -0.010090192326472788
1474363|1.9865855102894125e-08 2.2796934899122047e-07 -7.527533904331376e-07 9.798879388085118e-08 3.460225496073815e-05 0.11180258885425291 -1.7225681636185655e-05 -8.145408325962295e-07 -9.0853645371384e-06 9.086774164070043e-06 -7.299096289382888e-06 6.7863876607102164e-06 -1.0131858626881971e-05 1.1593544265613273e-05 -4.655784018577226e-06
1474364|-1.237278490497811e-08 8.04675054361557e-08 0.09534622848146367 8.55471392051866e-08 -6.121423461961955e-07 4.0119202862678485e-07 -1.191585694535785e-06 1.5646547773592314e-07 -9.768721215899048e-07 8.428096639441234e-07 -7.726755608754268e-07 1.0003866456236688e-06 -1.131629236507274e-06 1.1483914644124905e-06 -7.912561338673485e-07
1474366|2.0008150931939066e-06 -1.1147424812496619e-05 2.1866140435494106e-05 -2.1705379561395504e-05 -0.00028485167641509535 8.364249945789165e-06 -0.00012728755930777435 0.0005027974476369315 -0.0007752375328675683 0.0013631365443740984 -0.0003492899656410546 0.0005443757713955908 -0.0018052054087232575 -0.001067143562934223 -0.0005133954322268154
1474367|-1.0965956419943233e-06 -4.8892556265454525e-06 -5.873919924651346e-06 2.645219314935946e-05 3.509865712900347e-05 4.525920607009104e-05 -7.644760111950996e-05 0.0004008975304794968 0.0003103227649942167 0.0007809330699750051 0.0009149040237473598 0.0007492781947610566 -0.0010602836129608073 0.0012936455984532168 -5.82226653463139e-05
1474369|2.9657783436664696e-06 2.2194911047664187e-05 -2.4149971555747775e-05 -1.0518080310696812e-05 -5.8908380760497065e-05 -6.650680025291218e-05 4.9046344522335585e-05 -0.0009488753912034764 0.0003043653094261577 -0.002563439442466203 -0.00032892453605908365 -0.00026844323232578854 0.004549149431480318 0.0025595762474019948 -0.00023750718721919636
1474370|-2.370942907869017e-08 0.088388342326682 -6.105489543392258e-08 1.809042889823334e-08 -4.776968168066092e-08 -9.19253250272103e-08 3.0983130270305643e-07 -2.435857043855484e-08 1.959759294202359e-07 -2.769155681196362e-07 7.40103783811629e-08 -1.284443860711802e-07 4.085350118912259e-07 -2.3018344179777822e-07 4.0219687983113503e-08
1474371|1.2385790080094736e-09 -5.772619863587351e-09 -1.4079800714197586e-08 6.568514135693244e-08 3.907452379526764e-07 6.056887876038916e-08 2.0423822156920468e-06 -4.477272102592129e-07 2.6914286589269447e-06 7.298952516299131e-07 4.462226322016805e-06 -5.937004894705571e-07 1.0494851566113219e-08 -4.895797412430758e-07 6.463106514802088e-06
1474374|2.7899854443553414e-06 -2.3629437570901398e-05 6.52964352895656e-05 4.8630325513696334e-05 -8.58050490485025e-05 0.0003392532584288663 -0.002312952363134677 -0.00011072859611043697 -0.003148560537108774 0.0014282426470876037 -0.0011275306767534526 0.00016990248714340733 -0.0018378195834427946 0.0028069277960629363 -0.0019753694754251093
1474375|-4.213386742738837e-06 -2.733826708524245e-06 -1.335306379072465e-05 -1.4784150372719347e-05 0.0002494478680392146 -2.30324750076386e-05 0.00047976470099201247 -0.0004209741785465975 0.001036632365296467 -0.0003074841511912693 0.0015080883104025102 -0.0024207135357749376 0.001992203504437202 -0.007312324219528119 0.021133890477616084
1474378|-1.096595641994325e-06 -4.889255626545458e-06 -5.873919924651337e-06 2.645219314935947e-05 3.509865712900343e-05 4.525920607009097e-05 -7.644760111951e-05 0.0004008975304794969 0.0003103227649942161 0.0007809330699750058 0.0009149040237473598 0.0007492781947610565 -0.0010602836129608095 0.0012936455984532164 -5.8222665346314176e-05
1474385|2.394119327696472e-07 1.211697574008368e-07 1.1421814069405659e-06 1.2819008702130097e-06 0.11110746910983636 -3.3702038867966486e-05 1.0534007007877749e-05 -7.315310598240893e-06 1.751316968122078e-05 -7.031054590874352e-06 1.4080479418004404e-05 -1.768776680112285e-05 9.748287238803252e-06 -8.115497916516514e-06 1.6892555486910908e-05
1474387|1.9865855102858944e-08 2.27969348991263e-07 -7.527533904333015e-07 9.798879388084573e-08 3.460225496073985e-05 0.11180258885425291 -1.722568163618359e-05 -8.145408325979516e-07 -9.085364537132128e-06 9.086774164066504e-06 -7.299096289364854e-06 6.786387660726231e-06 -1.0131858626897021e-05 1.1593544265539568e-05 -4.655784018525803e-06
1474398|-1.265005657976333e-05 -1.73475309616379e-05 -2.4955207477981274e-06 -3.505103312748809e-05 0.0005309796154938623 0.00012993186323542792 -0.0006435759027074685 -0.0009647768844069222 0.0011603807259280563 0.000783190710824351 0.0005989897813046737 -0.0013068303888329046 -0.00018084227656032086 0.0019894701311050926 0.00417159638091426
1474462|4.583897336300062e-06 -1.0461346195440296e-05 5.0821010861355537e-05 -8.218387556248435e-05 -0.00045261616751065767 0.00016984590699874912 -0.0012608931266067363 -0.0008790487422029796 -0.0032963728129761856 0.001633512815621785 0.001151847650464807 -0.003495313927429521 -0.00395647897693136 -0.00040459323991298517 -0.0002888840439633608
1474466|-8.136442627686643e-09 3.0808726048695386e-07 -1.5464681499558692e-07 -4.6273377608281775e-07 1.6581550007909391e-06 2.885927315689469e-07 -6.808826846369366e-06 6.82002927616047e-06 9.386817473968959e-06 -2.7172650842268903e-05 -1.5931503316631988e-06 -2.14016277599948e-06 3.960643076233154e-05 4.415345978441424e-05 -3.4684231438972043e-06
1474778|8.215369583128601e-07 -8.575590734394996e-06 2.9124686785611028e-05 5.667982942748341e-06 -0.00015740461194103464 0.00011308596472114548 -0.0015281578571759702 0.000471640324131818 -0.0017848995081598351 0.001997380255672102 -0.0016570134311109234 0.00349334158146601 -0.007153914275409372 0.009962725361825728 -0.008113240295622324
1474784|-4.213386742738837e-06 -2.733826708524245e-06 -1.335306379072465e-05 -1.4784150372719347e-05 0.0002494478680392146 -2.30324750076386e-05 0.00047976470099201247 -0.0004209741785465975 0.001036632365296467 -0.0003074841511912693 0.0015080883104025102 -0.0024207135357749376 0.001992203504437202 -0.007312324219528119 0.021133890477616084
1474875|4.583897336300062e-06 -1.0461346195440296e-05 5.0821010861355537e-05 -8.218387556248435e-05 -0.00045261616751065767 0.00016984590699874912 -0.0012608931266067363 -0.0008790487422029796 -0.0032963728129761856 0.001633512815621785 0.001151847650464807 -0.003495313927429521 -0.00395647897693136 -0.00040459323991298517 -0.0002888840439633608
1474962|4.4491888641203576e-07 -1.1208052459295852e-06 4.738006960479097e-06 7.586617904637933e-07 -4.8374192743925056e-05 2.2642941804680495e-05 -0.0009218407154449374 0.001028706260583509 0.13471733045600143 -0.001284586007936256 0.0006228065441498386 -0.0006148925962070511 0.000686710068531868 -0.00031908866639422786 0.00027114467775845474
1474967|7.74306945022518e-06 7.5475567298080995e-06 5.570865947910534e-06 3.643252977046401e-06 -0.00039393626511977553 6.570661228029939e-05 -0.000719572941029636 0.0001528761628456361 -0.0007170907729224675 -0.0005831146457808782 -0.0014421357874091134 8.739007199668051e-05 -6.80797205414787e-05 0.00014891182771734762 -0.001435309138005768
1474969|1.9865855102858944e-08 2.27969348991263e-07 -7.527533904333015e-07 9.798879388084573e-08 3.460225496073985e-05 0.11180258885425291 -1.722568163618359e-05 -8.145408325979516e-07 -9.085364537132128e-06 9.086774164066504e-06 -7.299096289364854e-06 6.786387660726231e-06 -1.0131858626897021e-05 1.1593544265539568e-05 -4.655784018525803e-06
1476466|1.909041097984619e-07 -3.314309565074251e-07 -3.358997550149311e-07 1.0319861989400028e-06 2.9645881883113328e-06 1.2187919345871211e-06 5.9605003533869984e-05 -9.325933917082513e-06 5.492380902346605e-05 -4.141825801535559e-06 0.0001199722723716486 -6.89518082519174e-05 5.481310993087087e-05 5.134650466156384e-05 0.0001694488483855654
1476467|-5.4708473047090616e-08 -6.992741646380895e-07 1.0192400272370676e-07 1.051420380397029e-06 5.545185125990846e-06 2.231938381400402e-06 2.8305926003493815e-05 -7.4311866162725395e-06 3.125029342081261e-06 2.4079606959728816e-05 6.694210715725365e-05 -6.0442772354323674e-05 -5.367416918171662e-05 -0.00011306423314062672 0.00015413105770721103
1476918|8.215369583128601e-07 -8.575590734394996e-06 2.9124686785611028e-05 5.667982942748341e-06 -0.00015740461194103464 0.00011308596472114548 -0.0015281578571759702 0.000471640324131818 -0.0017848995081598351 0.001997380255672102 -0.0016570134311109234 0.00349334158146601 -0.007153914275409372 0.009962725361825728 -0.008113240295622324
1476923|5.973234549434213e-08 2.8537705793341166e-06 -2.9482647874329927e-06 1.1737106921421921e-05 -1.1275410717451497e-06 2.121848789587097e-06 0.00011876145078583182 0.000174365779204702 0.00026368045567065325 -6.912146340143366e-06 8.255098521625836e-05 0.0003190970616729343 0.0002296852347313162 -5.083473987259142e-05 0.00028270334475592805
1476953|1.764545266897595e-10 -1.076067853920661e-11 2.977886170168142e-10 6.336944326072045e-10 -1.1509618509165971e-08 6.544944529298874e-10 -6.165018475310646e-08 -3.971066640720831e-08 -5.01156968452394e-08 3.00479300965409e-08 -1.4009419643452153e-07 1.0072987600129535e-07 -1.5401531068470184e-08 -3.164959649974381e-08 -9.026367440181547e-08
1478097|-2.7386473276631376e-13 -1.3784440819078765e-13 -3.9495796021094895e-12 -1.1659271853687722e-12 1.6951200248863806e-11 -2.2256058069480627e-11 1.5994193276635096e-10 6.166893580701521e-11 1.4776372553023431e-10 -4.6686209668722985e-11 1.4683661187980977e-10 -2.539203178951908e-10 1.6301118558028412e-10 -4.5751331869042805e-11 2.4809067472507874e-10
1478098|4.243504645483721e-06 1.612689619096918e-05 -3.0032962886764066e-05 1.5211600652116568e-05 -3.330540869403011e-05 -0.00018826908841796972 0.0018071686602640327 0.00010897680707523513 0.0010290284682877508 -0.0019634065028364058 0.0012131026102708458 -0.0018558831461980506 0.004857822265007934 -0.006414246263250687 0.001744157618095978
1478100|-1.096595641994325e-06 -4.889255626545458e-06 -5.873919924651337e-06 2.645219314935947e-05 3.509865712900343e-05 4.525920607009097e-05 -7.644760111951e-05 0.0004008975304794969 0.0003103227649942161 0.0007809330699750058 0.0009149040237473598 0.0007492781947610565 -0.0010602836129608095 0.0012936455984532164 -5.8222665346314176e-05
1478103|-8.996547665723145e-09 -1.150718162910253e-08 -8.12110988966309e-08 2.1444647378846733e-08 6.403699815830013e-07 7.535145126022779e-07 5.995131923447467e-07 5.8495314711872315e-06 7.780527344243134e-06 1.5519796609192093e-06 1.2332686086144272e-05 -5.806548204490524e-06 1.9481556032944353e-06 1.5085754967428465e-05 8.28453578549412e-06
1478165|-1.2372784904973013e-08 8.046750543614024e-08 0.09534622848146367 8.554713920514419e-08 -6.121423461965233e-07 4.0119202862717173e-07 -1.1915856945362984e-06 1.5646547773639321e-07 -9.768721215892432e-07 8.428096639452819e-07 -7.726755608760783e-07 1.0003866456166657e-06 -1.1316292365023605e-06 1.1483914644266143e-06 -7.912561338740875e-07
1478166|-3.964520487787593e-06 1.7536707615859048e-07 -3.713905813927564e-05 -4.997094338216461e-05 0.0002613330160250693 -8.694738201843417e-06 0.0006949722480125777 -0.0009133885868482008 0.00014112456443300222 -0.0014973811721910595 0.002255985905589855 -0.006405370618823771 0.0028035577843024528 -0.006738399346618407 0.004871652969111856
1478168|-1.2372784904973013e-08 8.046750543614024e-08 0.09534622848146367 8.554713920514419e-08 -6.121423461965233e-07 4.0119202862717173e-07 -1.1915856945362984e-06 1.5646547773639321e-07 -9.768721215892432e-07 8.428096639452819e-07 -7.726755608760783e-07 1.0003866456166657e-06 -1.1316292365023605e-06 1.1483914644266143e-06 -7.912561338740875e-07
1478170|-4.213386742738837e-06 -2.733826708524245e-06 -1.335306379072465e-05 -1.4784150372719347e-05 0.0002494478680392146 -2.30324750076386e-05 0.00047976470099201247 -0.0004209741785465975 0.001036632365296467 -0.0003074841511912693 0.0015080883104025102 -0.0024207135357749376 0.001992203504437202 -0.007312324219528119 0.021133890477616084
1478173|-1.559202074471596e-12 3.304845497473246e-11 5.386016936956979e-11 -3.6310557467919923e-11 -6.065561777022056e-10 3.2455137447902113e-10 -4.0721541107744836e-09 2.258186418951822e-09 -2.835064559305285e-09 6.190356301057275e-10 -3.7706967799131575e-10 8.447206234440564e-09 -4.62536124885029e-09 1.9200411271089357e-09 -5.8900247764003326e-09
1478970|4.910600995692852e-06 -1.485181558354991e-06 2.8226444565162427e-05 2.9609764389968308e-05 -0.0002882817181519392 7.747699083146835e-05 -0.000889331223422621 0.0005810659632828729 -0.0012360351105226309 0.001014185305580528 -0.0017093150024566383 0.003069872796830856 -0.0023231507686189575 0.004204573536742953 -0.005002716616565589
1478971|-1.2372784904973013e-08 8.046750543614024e-08 0.09534622848146367 8.554713920514419e-08 -6.121423461965233e-07 4.0119202862717173e-07 -1.1915856945362984e-06 1.5646547773639321e-07 -9.768721215892432e-07 8.428096639452819e-07 -7.726755608760783e-07 1.0003866456166657e-06 -1.1316292365023605e-06 1.1483914644266143e-06 -7.912561338740875e-07
1479144|0.0842151909214623 1.9912085039171102e-08 7.744824308234248e-09 1.1875497917464586e-08 -8.035462191095403e-08 -6.660360783119639e-09 8.917799045820244e-09 3.054203803173886e-08 -5.149028701724865e-08 -1.4341471955447414e-08 -4.428337334177516e-08 5.409400383047398e-08 1.1550361066104643e-08 -1.3240530163545995e-09 -7.804733437437951e-08
1479482|2.51083838708279e-06 2.472298657292297e-06 1.141032052875024e-05 5.989384339238781e-06 -0.000152186168979096 3.6127320372745654e-05 -0.00012193809106410252 -0.00023202306541998164 -0.00013687186212991897 0.00014854769599051117 -0.0007321928853149784 0.0003910424550537912 0.0013358479975331774 0.0017134055388325895 -0.0032700326306123106
1479509|3.0331535931846437e-07 3.07189175139337e-07 -1.0359082520311602e-07 8.315739152603387e-09 -1.2071121802987648e-05 -1.639575641828602e-06 -3.80563025503246e-05 -3.2559513327413235e-05 -4.593495530395469e-05 -3.717772650069491e-05 -0.00017854893367338283 3.943567032915037e-05 6.159106688653597e-05 -1.6313666037854116e-05 -0.0001357281634977728
1479511|-2.3232368792765072e-08 -2.945345030646209e-08 -1.0601465858896303e-07 0.10050374361838803 -8.29068102793505e-07 -6.352914959695806e-08 -2.9298608788264902e-08 5.954799925363712e-07 -8.515210819575461e-08 2.853778593303772e-08 -7.63223132384797e-07 1.5941143854208412e-06 2.9605601774930246e-08 5.778602865367824e-07 -8.691824975964628e-07
1479514|5.257991449706437e-08 -3.859980998655532e-06 9.592441896798464e-06 7.915025518002072e-07 -5.109647787473818e-05 4.420173722718365e-05 -0.000816825119033498 0.0003945318312386943 -0.0011635752001835178 0.001473476713291232 -0.0010638957987679754 0.0027463183652441125 0.14505878798903432 -0.005128910195807487 0.0022407120829724416
1479515|-6.45206226590447e-11 1.995516641688798e-09 -4.2086241087631536e-10 -5.002308542407071e-09 1.46309826848357e-08 -1.82605167164591e-08 6.217683117576451e-08 -6.129088340593915e-09 4.1714121605604894e-08 -7.539947256697223e-08 -1.1211909358645476e-07 -4.4909273232853863e-08 3.0441986564338384e-07 -3.7576422476272876e-07 9.363488349286582e-08
1479842|4.4491888641203576e-07 -1.1208052459295852e-06 4.738006960479097e-06 7.586617904637933e-07 -4.8374192743925056e-05 2.2642941804680495e-05 -0.0009218407154449374 0.001028706260583509 0.13471733045600143 -0.001284586007936256 0.0006228065441498386 -0.0006148925962070511 0.000686710068531868 -0.00031908866639422786 0.00027114467775845474
1479934|4.897566311142372e-13 2.4190776301554456e-12 3.835755960932433e-12 -1.1862753416568885e-11 -4.051145576851588e-11 -1.0717922390067833e-11 -6.478429548866979e-11 -1.4680916894716535e-10 -8.659142120360736e-11 -1.6602116024627817e-10 -1.1451604071929257e-10 -3.233799740623407e-11 7.977243171204435e-11 -3.758052754737405e-10 3.093955493687982e-11
1479935|3.9300463186421047e-10 2.0347282717430846e-09 -3.388832280734495e-09 1.0752603536369077e-08 2.7648792138899048e-08 -3.00220028776462e-08 3.8628626303215093e-07 -1.2892985302413597e-07 1.7545789335938273e-07 -2.3463084802836317e-07 3.743549302438699e-08 -2.558240256119198e-07 7.670177396739986e-07 -9.235042949180869e-08 1.8074830966521048e-07
1479936|7.546870399710095e-08 1.8059778380601146e-06 -4.552675585568791e-06 -4.133799288813701e-07 2.1989256198948614e-05 -2.5521445609030817e-05 0.0006016030169877193 -0.00033359484398523163 0.0014717802339397294 0.1372261071217053 -0.0020740202151127724 0.0019341857673253555 -0.0009849101883517705 0.0005150451401202385 -0.00028086926957885777
1479937|-2.3232368792765072e-08 -2.945345030646209e-08 -1.0601465858896303e-07 0.10050374361838803 -8.29068102793505e-07 -6.352914959695806e-08 -2.9298608788264902e-08 5.954799925363712e-07 -8.515210819575461e-08 2.853778593303772e-08 -7.63223132384797e-07 1.5941143854208412e-06 2.9605601774930246e-08 5.778602865367824e-07 -8.691824975964628e-07
1479938|-3.913297385190357e-07 2.8069914243788213e-06 -1.2436301877403064e-05 -5.560670011089661e-06 6.759253084314853e-05 -5.853611870635639e-05 0.0008681748302504088 -0.00019272507489135918 0.0007311786135671205 -0.0009497204363868559 0.0015004726621103122 -0.002939817198068036 0.006775035914739548 0.14732497404080394 -0.010090192326472801
1479939|-1.8698788026007785e-09 -2.3357679976762356e-08 1.2499674547383875e-08 -2.5197060103602816e-08 -2.584853241162942e-08 5.1088775542427925e-09 2.5411509243369705e-07 3.4819388079669276e-07 -9.393850797484825e-08 2.03525302585022e-06 -2.8205399625369034e-07 7.737593209323089e-08 -1.8979248165394678e-06 -4.279699857864852e-08 7.290717932249405e-08
1479940|1.9865855102858944e-08 2.27969348991263e-07 -7.527533904333015e-07 9.798879388084573e-08 3.460225496073985e-05 0.11180258885425291 -1.722568163618359e-05 -8.145408325979516e-07 -9.085364537132128e-06 9.086774164066504e-06 -7.299096289364854e-06 6.786387660726231e-06 -1.0131858626897021e-05 1.1593544265539568e-05 -4.655784018525803e-06
1479941|-1.9593873011011605e-07 -7.718509393943142e-07 8.116059619403643e-07 -9.963874964667919e-07 2.126539310037621e-06 1.1219301801264646e-06 -6.748360641962987e-07 3.1052012464403574e-05 -3.071843681218038e-05 5.057653245327154e-05 3.954985799352619e-05 -6.205401383237089e-05 -0.0001159571356244906 -0.00013107666845262451 7.844575936840665e-05
1479942|-1.265005657976333e-05 -1.73475309616379e-05 -2.4955207477981274e-06 -3.505103312748809e-05 0.0005309796154938623 0.00012993186323542792 -0.0006435759027074685 -0.0009647768844069222 0.0011603807259280563 0.000783190710824351 0.0005989897813046737 -0.0013068303888329046 -0.00018084227656032086 0.0019894701311050926 0.00417159638091426
1479943|0.0842151909214623 1.9912085039171102e-08 7.744824308234248e-09 1.1875497917464586e-08 -8.035462191095403e-08 -6.660360783119639e-09 8.917799045820244e-09 3.054203803173886e-08 -5.149028701724865e-08 -1.4341471955447414e-08 -4.428337334177516e-08 5.409400383047398e-08 1.1550361066104643e-08 -1.3240530163545995e-09 -7.804733437437951e-08
1479945|-4.306000781761071e-09 -2.2014988032673533e-08 1.0638637471300105e-07 -9.271392007079519e-08 -7.184793118273904e-07 1.6354461636403217e-07 -2.6844203041156162e-06 -3.852652270813633e-07 -5.732062470461548e-06 3.6333035629466843e-06 -4.584482288397215e-06 1.035022122021652e-06 -5.885796213917726e-06 3.893914799182545e-06 -6.0691700559072466e-06
1479946|9.111024338831056e-10 1.7802844992259012e-09 1.243302743601296e-09 3.440931070174794e-09 -8.26164847146514e-09 4.491923922112138e-08 -1.5445652508938528e-07 -4.8020398768221736e-08 2.4812319679237044e-07 -5.861587541607904e-08 -3.438173435866203e-08 4.5277827927047526e-07 1.7920765126982473e-07 8.028519577731597e-07 -4.6737101819316745e-08
1479947|1.9865855102858944e-08 2.27969348991263e-07 -7.527533904333015e-07 9.798879388084573e-08 3.460225496073985e-05 0.11180258885425291 -1.722568163618359e-05 -8.145408325979516e-07 -9.085364537132128e-06 9.086774164066504e-06 -7.299096289364854e-06 6.786387660726231e-06 -1.0131858626897021e-05 1.1593544265539568e-05 -4.655784018525803e-06
1479950|7.74306945022518e-06 7.5475567298080995e-06 5.570865947910534e-06 3.643252977046401e-06 -0.00039393626511977553 6.570661228029939e-05 -0.000719572941029636 0.0001528761628456361 -0.0007170907729224675 -0.0005831146457808782 -0.0014421357874091134 8.739007199668051e-05 -6.80797205414787e-05 0.00014891182771734762 -0.001435309138005768
1479951|-4.604180142591524e-06 -1.3353391720661185e-07 -6.830164172966266e-06 1.668952067009056e-06 0.0002762505676415307 -7.28718183520881e-05 0.0005886353010790416 -0.0002310099638125186 0.0010650180764560874 -2.59122132346278e-05 0.0006661080376701955 0.0007265239541986225 0.0009590673135984881 0.001319301591152417 0.0009497019864395363
1480911|1.2796421479783467e-05 8.426067579302279e-06 3.742946271034072e-05 4.217417860427663e-05 -0.0006428776360064649 3.6077445564723145e-05 -0.0007654122079658486 0.0008351224583283617 -0.002162365037897339 0.0005946248624725958 -0.0021157463066654413 0.0032862043824587596 -0.0021070619167821093 0.0034234640348099732 -0.007126506383471017
1480914|1.1537259832936206e-06 3.752789874150777e-06 -4.950504059824032e-06 4.913490493001215e-06 2.710944310956878e-05 -4.215899237222786e-05 0.00015325433826770437 -0.0002414775590992441 0.0003497637155381892 -0.0003199860815438984 -2.884604213213641e-05 -0.0002215621657817033 0.0007327347627203688 -6.811240933917174e-05 0.00014210117822037607
1480915|1.2796421479783467e-05 8.426067579302279e-06 3.742946271034072e-05 4.217417860427663e-05 -0.0006428776360064649 3.6077445564723145e-05 -0.0007654122079658486 0.0008351224583283617 -0.002162365037897339 0.0005946248624725958 -0.0021157463066654413 0.0032862043824587596 -0.0021070619167821093 0.0034234640348099732 -0.007126506383471017
1480916|2.394119327696472e-07 1.211697574008368e-07 1.1421814069405659e-06 1.2819008702130097e-06 0.11110746910983636 -3.3702038867966486e-05 1.0534007007877749e-05 -7.315310598240893e-06 1.751316968122078e-05 -7.031054590874352e-06 1.4080479418004404e-05 -1.768776680112285e-05 9.748287238803252e-06 -8.115497916516514e-06 1.6892555486910908e-05
1480921|-3.913297385190357e-07 2.8069914243788213e-06 -1.2436301877403064e-05 -5.560670011089661e-06 6.759253084314853e-05 -5.853611870635639e-05 0.0008681748302504088 -0.00019272507489135918 0.0007311786135671205 -0.0009497204363868559 0.0015004726621103122 -0.002939817198068036 0.006775035914739548 0.14732497404080394 -0.010090192326472801
1481103|7.546870399710095e-08 1.8059778380601146e-06 -4.552675585568791e-06 -4.133799288813701e-07 2.1989256198948614e-05 -2.5521445609030817e-05 0.0006016030169877193 -0.00033359484398523163 0.0014717802339397294 0.1372261071217053 -0.0020740202151127724 0.0019341857673253555 -0.0009849101883517705 0.0005150451401202385 -0.00028086926957885777
1481106|2.394119327696472e-07 1.211697574008368e-07 1.1421814069405659e-06 1.2819008702130097e-06 0.11110746910983636 -3.3702038867966486e-05 1.0534007007877749e-05 -7.315310598240893e-06 1.751316968122078e-05 -7.031054590874352e-06 1.4080479418004404e-05 -1.768776680112285e-05 9.748287238803252e-06 -8.115497916516514e-06 1.6892555486910908e-05
1481178|3.9815024217741274e-09 5.804311659661622e-09 2.4404564116420482e-09 -1.5013288569755222e-08 -1.3259402283054328e-07 -5.974139388969225e-08 -1.2135251330844622e-07 -6.906201245803945e-07 1.2793745482512578e-08 -3.235974553283497e-07 -9.040812202471721e-07 2.863513579542959e-07 9.438075913925323e-07 -9.320990005557284e-07 -6.836175169603576e-07
1481196|2.9657783436664696e-06 2.2194911047664187e-05 -2.4149971555747775e-05 -1.0518080310696812e-05 -5.8908380760497065e-05 -6.650680025291218e-05 4.9046344522335585e-05 -0.0009488753912034764 0.0003043653094261577 -0.002563439442466203 -0.00032892453605908365 -0.00026844323232578854 0.004549149431480318 0.0025595762474019948 -0.00023750718721919636
1481204|6.879284024243457e-07 1.4014470110246804e-08 1.8643518066904618e-06 -2.9770627168324447e-07 -3.994692890131425e-05 1.0627262920389465e-05 -0.00010857778828948012 -0.00011907845705063956 -0.0001274717856605635 -5.451535924664882e-05 -0.00010068645352385758 0.00018089180692662296 -6.670190529774496e-05 0.0003569440555151984 -4.637877247933452e-05
1481205|-2.0290793931694754e-08 -5.860029395436057e-09 5.7458113529458045e-08 3.238337588864107e-08 -2.2232689944809245e-06 2.563365115783916e-06 -3.100638701037244e-05 -1.1904207659318552e-05 -4.208512160485426e-06 5.55021103561814e-06 -4.428753790626897e-05 2.2858941139012866e-05 -4.062302297646647e-05 3.374498469276141e-05 -7.975310914298102e-05
1481206|-3.964520487787593e-06 1.7536707615859048e-07 -3.713905813927564e-05 -4.997094338216461e-05 0.0002613330160250693 -8.694738201843417e-06 0.0006949722480125777 -0.0009133885868482008 0.00014112456443300222 -0.0014973811721910595 0.002255985905589855 -0.006405370618823771 0.0028035577843024528 -0.006738399346618407 0.004871652969111856
1481207|-2.3232368792765072e-08 -2.945345030646209e-08 -1.0601465858896303e-07 0.10050374361838803 -8.29068102793505e-07 -6.352914959695806e-08 -2.9298608788264902e-08 5.954799925363712e-07 -8.515210819575461e-08 2.853778593303772e-08 -7.63223132384797e-07 1.5941143854208412e-06 2.9605601774930246e-08 5.778602865367824e-07 -8.691824975964628e-07
1481269|1.4630622851507221e-05 4.147411577870205e-05 -5.05238667441567e-05 5.255081557031561e-05 -0.00022164303882500595 -0.0004153842232487949 0.0036760377901221236 0.0001256898266696262 0.0015079465417132225 -0.002725764373433769 0.002241079251854516 -0.00294441689585709 0.006750657745607625 -0.008034043213456932 0.0012078679317526324
1481273|-7.094627030128068e-07 -6.372198442962487e-07 2.161459486936992e-06 -4.141870988368928e-06 2.1498372011284828e-05 8.916044629886518e-06 -2.1260778261453936e-05 0.00014853066317898042 -7.182016678521936e-05 2.1266802858608164e-05 0.00013350899606491044 -8.397656785498218e-05 -0.00013064877442256647 8.307617455598788e-05 -0.00020150284051456853
1481277|0.0842151909214623 1.9912085039171102e-08 7.744824308234248e-09 1.1875497917464586e-08 -8.035462191095403e-08 -6.660360783119639e-09 8.917799045820244e-09 3.054203803173886e-08 -5.149028701724865e-08 -1.4341471955447414e-08 -4.428337334177516e-08 5.409400383047398e-08 1.1550361066104643e-08 -1.3240530163545995e-09 -7.804733437437951e-08
1481278|3.0331535931846437e-07 3.07189175139337e-07 -1.0359082520311602e-07 8.315739152603387e-09 -1.2071121802987648e-05 -1.639575641828602e-06 -3.80563025503246e-05 -3.2559513327413235e-05 -4.593495530395469e-05 -3.717772650069491e-05 -0.00017854893367338283 3.943567032915037e-05 6.159106688653597e-05 -1.6313666037854116e-05 -0.0001357281634977728
1481636|7.74306945022518e-06 7.5475567298080995e-06 5.570865947910534e-06 3.643252977046401e-06 -0.00039393626511977553 6.570661228029939e-05 -0.000719572941029636 0.0001528761628456361 -0.0007170907729224675 -0.0005831146457808782 -0.0014421357874091134 8.739007199668051e-05 -6.80797205414787e-05 0.00014891182771734762 -0.001435309138005768
1481637|3.604581241120788e-08 3.101660361690972e-08 -2.9500036936888263e-07 -6.002554954819364e-08 -2.930256142817106e-07 1.2603402457144734e-06 -1.2730183351309021e-05 -5.8959049567537004e-06 -7.878248488217895e-06 -2.2979424366334094e-05 -1.167520577223742e-05 -3.7918811970736567e-06 3.8897849267601086e-05 1.6638690859223804e-05 5.8287231921990015e-05
1481638|-3.203719447569511e-08 -1.5751118833084811e-06 4.705903457878345e-06 2.258012586227116e-07 -2.389493388562189e-05 3.5314003486524425e-05 0.13010825816884064 -0.00013793344465236432 0.0007480637551507969 -0.0004314916992502491 0.0003518352841851206 -0.0004092795380302416 0.00039135494292305713 -0.00035090442689435605 0.00015915207279051935
1481639|-4.476204909061019e-08 1.4234923260542794e-07 -2.9051817811926527e-08 -2.3665319505881184e-07 -6.478621689596258e-07 -5.336535715698185e-07 1.1512310788304887e-05 4.764780985956549e-06 3.961228065487828e-06 -5.463004179385099e-06 3.7466889912546702e-06 -9.887639010363938e-07 1.0259816233464403e-05 4.919595024447178e-06 1.8316911468485908e-05
1481686|4.4491888641203576e-07 -1.1208052459295852e-06 4.738006960479097e-06 7.586617904637933e-07 -4.8374192743925056e-05 2.2642941804680495e-05 -0.0009218407154449374 0.001028706260583509 0.13471733045600143 -0.001284586007936256 0.0006228065441498386 -0.0006148925962070511 0.000686710068531868 -0.00031908866639422786 0.00027114467775845474
1481687|-4.604180142591524e-06 -1.3353391720661185e-07 -6.830164172966266e-06 1.668952067009056e-06 0.0002762505676415307 -7.28718183520881e-05 0.0005886353010790416 -0.0002310099638125186 0.0010650180764560874 -2.59122132346278e-05 0.0006661080376701955 0.0007265239541986225 0.0009590673135984881 0.001319301591152417 0.0009497019864395363
1481688|2.51083838708279e-06 2.472298657292297e-06 1.141032052875024e-05 5.989384339238781e-06 -0.000152186168979096 3.6127320372745654e-05 -0.00012193809106410252 -0.00023202306541998164 -0.00013687186212991897 0.00014854769599051117 -0.0007321928853149784 0.0003910424550537912 0.0013358479975331774 0.0017134055388325895 -0.0032700326306123106
1481696|4.014598011432684e-06 -1.0658663979417072e-05 5.1790775823387505e-05 3.7363538059848264e-05 -0.00032143889853985424 0.00014610489779374856 -0.002142782477158023 0.0011633129739474707 -0.0019058407745331557 0.001806185613634875 -0.0026237381291621376 0.005649475556800519 -0.0055067885886038075 0.007257923365422559 -0.004925215155579964
1481866|1.2796421479783467e-05 8.426067579302279e-06 3.742946271034072e-05 4.217417860427663e-05 -0.0006428776360064649 3.6077445564723145e-05 -0.0007654122079658486 0.0008351224583283617 -0.002162365037897339 0.0005946248624725958 -0.0021157463066654413 0.0032862043824587596 -0.0021070619167821093 0.0034234640348099732 -0.007126506383471017
1482012|-2.590232063845199e-07 1.0658282151007663e-07 -8.95933310855417e-07 -2.2596462051559804e-06 2.0310451386830044e-05 1.258703045963441e-06 0.0001747739541648145 0.13359947423310634 -0.0009612597902675667 0.00028070066123437644 -0.00021831859063167321 0.0004980840523672939 -0.00023494139938749257 7.763094855650342e-05 -0.00012420396901156744
1482034|-1.265005657976333e-05 -1.73475309616379e-05 -2.4955207477981274e-06 -3.505103312748809e-05 0.0005309796154938623 0.00012993186323542792 -0.0006435759027074685 -0.0009647768844069222 0.0011603807259280563 0.000783190710824351 0.0005989897813046737 -0.0013068303888329046 -0.00018084227656032086 0.0019894701311050926 0.00417159638091426
1482274|5.973234549434213e-08 2.8537705793341166e-06 -2.9482647874329927e-06 1.1737106921421921e-05 -1.1275410717451497e-06 2.121848789587097e-06 0.00011876145078583182 0.000174365779204702 0.00026368045567065325 -6.912146340143366e-06 8.255098521625836e-05 0.0003190970616729343 0.0002296852347313162 -5.083473987259142e-05 0.00028270334475592805
1482275|2.394119327696472e-07 1.211697574008368e-07 1.1421814069405659e-06 1.2819008702130097e-06 0.11110746910983636 -3.3702038867966486e-05 1.0534007007877749e-05 -7.315310598240893e-06 1.751316968122078e-05 -7.031054590874352e-06 1.4080479418004404e-05 -1.768776680112285e-05 9.748287238803252e-06 -8.115497916516514e-06 1.6892555486910908e-05
1482278|-1.6468946734655313e-07 -8.557971844886219e-08 -1.0737540823959526e-06 5.680265369945178e-06 1.4480752884664557e-05 1.1342569652449694e-08 -1.1602127123150351e-05 -4.700919849207713e-06 4.9714571573088866e-05 -8.03920129019817e-05 -7.5063470287176e-05 0.00010288765057163071 -3.989130513507826e-06 -0.00016611913412405607 2.1979403247008004e-05
1482279|4.4491888641203576e-07 -1.1208052459295852e-06 4.738006960479097e-06 7.586617904637933e-07 -4.8374192743925056e-05 2.2642941804680495e-05 -0.0009218407154449374 0.001028706260583509 0.13471733045600143 -0.001284586007936256 0.0006228065441498386 -0.0006148925962070511 0.000686710068531868 -0.00031908866639422786 0.00027114467775845474
1482280|2.7899854443553414e-06 -2.3629437570901398e-05 6.52964352895656e-05 4.8630325513696334e-05 -8.58050490485025e-05 0.0003392532584288663 -0.002312952363134677 -0.00011072859611043697 -0.003148560537108774 0.0014282426470876037 -0.0011275306767534526 0.00016990248714340733 -0.0018378195834427946 0.0028069277960629363 -0.0019753694754251093
1482315|-1.4869413999162482e-09 2.7414417367856076e-08 -2.4731950726235848e-08 -4.530425141521474e-09 1.2220299131472655e-07 -6.070867760998536e-08 -3.9133888324313135e-08 -9.416243389347634e-07 1.417748780927088e-06 -1.4796464544859417e-06 -3.3652443280502724e-07 -1.2983109236256406e-06 3.193121855504361e-06 -6.359829172130294e-07 -4.908866557396288e-07
1482860|4.014598011432684e-06 -1.0658663979417072e-05 5.1790775823387505e-05 3.7363538059848264e-05 -0.00032143889853985424 0.00014610489779374856 -0.002142782477158023 0.0011633129739474707 -0.0019058407745331557 0.001806185613634875 -0.0026237381291621376 0.005649475556800519 -0.0055067885886038075 0.007257923365422559 -0.004925215155579964
1482861|0.0842151909214623 1.9912085039171102e-08 7.744824308234248e-09 1.1875497917464586e-08 -8.035462191095403e-08 -6.660360783119639e-09 8.917799045820244e-09 3.054203803173886e-08 -5.149028701724865e-08 -1.4341471955447414e-08 -4.428337334177516e-08 5.409400383047398e-08 1.1550361066104643e-08 -1.3240530163545995e-09 -7.804733437437951e-08
1482965|-2.3232368792765072e-08 -2.945345030646209e-08 -1.0601465858896303e-07 0.10050374361838803 -8.29068102793505e-07 -6.352914959695806e-08 -2.9298608788264902e-08 5.954799925363712e-07 -8.515210819575461e-08 2.853778593303772e-08 -7.63223132384797e-07 1.5941143854208412e-06 2.9605601774930246e-08 5.778602865367824e-07 -8.691824975964628e-07
1483192|-1.1791937604474174e-11 -2.2239043871175398e-11 9.551870015981491e-11 1.0254034738904211e-10 8.363546019672098e-10 1.1492249520850994e-09 -5.073746029789409e-09 4.0211636635403164e-09 9.877404670148424e-10 5.847653203576555e-09 -4.175648704456022e-09 1.7234697373303134e-08 -8.459039399032143e-09 1.918685250456746e-08 -1.0730921396224701e-08
1483209|2.8316688175491703e-13 -1.192684396047735e-12 1.6749755389784879e-12 6.975548271069298e-12 2.3609449766383123e-11 8.56713688620811e-12 -9.71854062777793e-12 6.935226137356661e-11 -4.040403312786697e-11 7.225576801234728e-11 -1.0625489637858613e-10 3.25027343524731e-10 -2.3086574306595572e-10 -1.2775075161862302e-10 -2.821093872489215e-11
1483258|2.0747785797236104e-06 1.643351416011176e-07 9.917673991327627e-06 9.545744932827296e-06 -0.00013650877393371537 2.4346096886834737e-05 -0.00043100734518547646 0.0003314216174779356 -0.0007265103278954381 0.0005206966416542966 -0.0011144387496619937 0.002091679202101379 -0.002986570281613518 0.01260124580588518 0.1482481398458994
1483267|-3.913297385190357e-07 2.8069914243788213e-06 -1.2436301877403064e-05 -5.560670011089661e-06 6.759253084314853e-05 -5.853611870635639e-05 0.0008681748302504088 -0.00019272507489135918 0.0007311786135671205 -0.0009497204363868559 0.0015004726621103122 -0.002939817198068036 0.006775035914739548 0.14732497404080394 -0.010090192326472801
1483335|-3.913297385190357e-07 2.8069914243788213e-06 -1.2436301877403064e-05 -5.560670011089661e-06 6.759253084314853e-05 -5.853611870635639e-05 0.0008681748302504088 -0.00019272507489135918 0.0007311786135671205 -0.0009497204363868559 0.0015004726621103122 -0.002939817198068036 0.006775035914739548 0.14732497404080394 -0.010090192326472801
1483337|0.0842151909214623 1.9912085039171102e-08 7.744824308234248e-09 1.1875497917464586e-08 -8.035462191095403e-08 -6.660360783119639e-09 8.917799045820244e-09 3.054203803173886e-08 -5.149028701724865e-08 -1.4341471955447414e-08 -4.428337334177516e-08 5.409400383047398e-08 1.1550361066104643e-08 -1.3240530163545995e-09 -7.804733437437951e-08
1483357|2.394119327696472e-07 1.211697574008368e-07 1.1421814069405659e-06 1.2819008702130097e-06 0.11110746910983636 -3.3702038867966486e-05 1.0534007007877749e-05 -7.315310598240893e-06 1.751316968122078e-05 -7.031054590874352e-06 1.4080479418004404e-05 -1.768776680112285e-05 9.748287238803252e-06 -8.115497916516514e-06 1.6892555486910908e-05
1483462|-7.756040399838488e-08 -6.910734757615136e-07 2.568675715212275e-07 9.112980258511012e-07 7.551450331480067e-06 -7.966674484586111e-07 3.7964045891067492e-06 -3.5905647663686505e-05 -6.896102006978525e-06 6.79231831585534e-06 3.455266414167826e-05 -0.00010234280458055245 -1.3910053047951742e-05 1.4414139402869247e-05 7.17347424341321e-05
1483463|3.577565123434371e-06 1.163993887573334e-05 3.950254853788118e-06 1.650368269569881e-05 8.043342938030175e-05 1.5888876881447886e-05 -0.0008411643344750369 -0.0004989057111810522 0.00012611448254518762 -0.0012041585898138595 -0.0008173770446090249 2.041648398926968e-05 0.0006232658353121104 0.0027777187475938 0.0001317031859407791
1483465|-6.408007508051942e-07 9.698669022842996e-07 -6.504074157238669e-06 -7.711690587331774e-06 6.38471993839313e-05 -2.1910337695748882e-05 0.0006256183341108029 -0.0006501863906465065 0.0007968880127032142 -0.0021375152075492295 0.006752839729830052 0.13944984894206572 -0.0018329485693270083 0.00165160981539854 -0.0010595833324833284
1483472|-2.3232368792765072e-08 -2.945345030646209e-08 -1.0601465858896303e-07 0.10050374361838803 -8.29068102793505e-07 -6.352914959695806e-08 -2.9298608788264902e-08 5.954799925363712e-07 -8.515210819575461e-08 2.853778593303772e-08 -7.63223132384797e-07 1.5941143854208412e-06 2.9605601774930246e-08 5.778602865367824e-07 -8.691824975964628e-07
1483495|-2.3232368792765072e-08 -2.945345030646209e-08 -1.0601465858896303e-07 0.10050374361838803 -8.29068102793505e-07 -6.352914959695806e-08 -2.9298608788264902e-08 5.954799925363712e-07 -8.515210819575461e-08 2.853778593303772e-08 -7.63223132384797e-07 1.5941143854208412e-06 2.9605601774930246e-08 5.778602865367824e-07 -8.691824975964628e-07
1483496|-6.408007508051942e-07 9.698669022842996e-07 -6.504074157238669e-06 -7.711690587331774e-06 6.38471993839313e-05 -2.1910337695748882e-05 0.0006256183341108029 -0.0006501863906465065 0.0007968880127032142 -0.0021375152075492295 0.006752839729830052 0.13944984894206572 -0.0018329485693270083 0.00165160981539854 -0.0010595833324833284
1483500|-5.830351862859602e-09 -3.272390512467557e-07 4.197208200956535e-07 8.755210337851742e-08 6.392994824745336e-07 3.41807085614583e-06 1.963484706138542e-06 1.5816131031733805e-05 -1.1363219962930651e-05 2.193736970657432e-05 2.5546487107925412e-05 -8.922869757840878e-06 -2.2570110691114185e-05 2.7309260560044077e-05 2.197358673717671e-05
1483594|-2.3232368792765072e-08 -2.945345030646209e-08 -1.0601465858896303e-07 0.10050374361838803 -8.29068102793505e-07 -6.352914959695806e-08 -2.9298608788264902e-08 5.954799925363712e-07 -8.515210819575461e-08 2.853778593303772e-08 -7.63223132384797e-07 1.5941143854208412e-06 2.9605601774930246e-08 5.778602865367824e-07 -8.691824975964628e-07
1483781|1.9865855102858944e-08 2.27969348991263e-07 -7.527533904333015e-07 9.798879388084573e-08 3.460225496073985e-05 0.11180258885425291 -1.722568163618359e-05 -8.145408325979516e-07 -9.085364537132128e-06 9.086774164066504e-06 -7.299096289364854e-06 6.786387660726231e-06 -1.0131858626897021e-05 1.1593544265539568e-05 -4.655784018525803e-06
1483898|9.251226426180324e-07 4.378954131742513e-06 1.0973789266591179e-05 -7.568470898404934e-06 2.4894669479306823e-05 1.2745629972869786e-05 -1.4183994884473937e-05 -0.0001215806041016183 0.0001248995830531294 -0.00044152871530910443 0.0004168198202346753 -0.0011567867766475732 0.0010193542268107398 0.0007221523591990093 -0.0002907642657123905
1483899|7.546870399710095e-08 1.8059778380601146e-06 -4.552675585568791e-06 -4.133799288813701e-07 2.1989256198948614e-05 -2.5521445609030817e-05 0.0006016030169877193 -0.00033359484398523163 0.0014717802339397294 0.1372261071217053 -0.0020740202151127724 0.0019341857673253555 -0.0009849101883517705 0.0005150451401202385 -0.00028086926957885777
1483900|-4.476204909061019e-08 1.4234923260542794e-07 -2.9051817811926527e-08 -2.3665319505881184e-07 -6.478621689596258e-07 -5.336535715698185e-07 1.1512310788304887e-05 4.764780985956549e-06 3.961228065487828e-06 -5.463004179385099e-06 3.7466889912546702e-06 -9.887639010363938e-07 1.0259816233464403e-05 4.919595024447178e-06 1.8316911468485908e-05
1483901|2.3927202209791404e-09 2.149578638073228e-08 -1.2052387973168563e-08 -1.2685358064717075e-08 -2.105795441135721e-07 -1.9573850474603634e-07 5.643853580851023e-07 -1.3330024815029959e-06 1.8930073446924185e-07 -1.9687661721834824e-06 -2.242788514711624e-06 1.69304643125339e-07 2.912938477562546e-06 4.386209137504043e-07 -3.0476509936815096e-07
1483913|1.2796421479783467e-05 8.426067579302279e-06 3.742946271034072e-05 4.217417860427663e-05 -0.0006428776360064649 3.6077445564723145e-05 -0.0007654122079658486 0.0008351224583283617 -0.002162365037897339 0.0005946248624725958 -0.0021157463066654413 0.0032862043824587596 -0.0021070619167821093 0.0034234640348099732 -0.007126506383471017
1483915|1.9865855102858944e-08 2.27969348991263e-07 -7.527533904333015e-07 9.798879388084573e-08 3.460225496073985e-05 0.11180258885425291 -1.722568163618359e-05 -8.145408325979516e-07 -9.085364537132128e-06 9.086774164066504e-06 -7.299096289364854e-06 6.786387660726231e-06 -1.0131858626897021e-05 1.1593544265539568e-05 -4.655784018525803e-06
1484114|5.257991449706437e-08 -3.859980998655532e-06 9.592441896798464e-06 7.915025518002072e-07 -5.109647787473818e-05 4.420173722718365e-05 -0.000816825119033498 0.0003945318312386943 -0.0011635752001835178 0.001473476713291232 -0.0010638957987679754 0.0027463183652441125 0.14505878798903432 -0.005128910195807487 0.0022407120829724416
1484115|1.9865855102858944e-08 2.27969348991263e-07 -7.527533904333015e-07 9.798879388084573e-08 3.460225496073985e-05 0.11180258885425291 -1.722568163618359e-05 -8.145408325979516e-07 -9.085364537132128e-06 9.086774164066504e-06 -7.299096289364854e-06 6.786387660726231e-06 -1.0131858626897021e-05 1.1593544265539568e-05 -4.655784018525803e-06
1484116|-7.756040399838488e-08 -6.910734757615136e-07 2.568675715212275e-07 9.112980258511012e-07 7.551450331480067e-06 -7.966674484586111e-07 3.7964045891067492e-06 -3.5905647663686505e-05 -6.896102006978525e-06 6.79231831585534e-06 3.455266414167826e-05 -0.00010234280458055245 -1.3910053047951742e-05 1.4414139402869247e-05 7.17347424341321e-05
1484118|-2.0329987898556953e-07 -6.963923073863133e-08 -8.552572785453636e-07 1.0985216109372047e-06 -2.3566696151633055e-05 2.1542218118260163e-05 -0.0001747393411638556 0.00016916603300050638 0.00010541710534845031 9.816137899369167e-05 0.00010049689984783268 4.6764202713605574e-05 -0.00022549777052587969 3.069935865756668e-05 -2.6928043260616562e-05
1484161|-1.096595641994325e-06 -4.889255626545458e-06 -5.873919924651337e-06 2.645219314935947e-05 3.509865712900343e-05 4.525920607009097e-05 -7.644760111951e-05 0.0004008975304794969 0.0003103227649942161 0.0007809330699750058 0.0009149040237473598 0.0007492781947610565 -0.0010602836129608095 0.0012936455984532164 -5.8222665346314176e-05
1484274|2.9657783436664696e-06 2.2194911047664187e-05 -2.4149971555747775e-05 -1.0518080310696812e-05 -5.8908380760497065e-05 -6.650680025291218e-05 4.9046344522335585e-05 -0.0009488753912034764 0.0003043653094261577 -0.002563439442466203 -0.00032892453605908365 -0.00026844323232578854 0.004549149431480318 0.0025595762474019948 -0.00023750718721919636
1484496|-2.1486320977899183e-09 4.343162294885436e-10 -3.5752582653213083e-10 1.2292587368978815e-08 1.399178510775598e-08 1.0907172366490856e-08 7.341139862990857e-08 4.3230375758359304e-07 9.518655246906895e-09 -5.684847885726874e-07 1.3038619809457172e-07 -8.240898394689593e-07 -2.2694777305389567e-07 5.923151970237263e-07 1.1252543209653473e-06
1484587|-7.409349181290227e-13 1.1404809124651345e-13 -1.40643349257677e-12 4.705037993469736e-13 3.6200966563444534e-11 -1.8752822162132842e-11 2.00192502403784e-10 -1.4548535822030948e-10 -4.782836545132031e-11 -2.2035693678038108e-10 1.7286687652381312e-11 -2.5308761574556475e-10 5.3169778617384393e-11 -2.637762727872625e-10 3.7462562007874207e-10
1484934|5.257991449706437e-08 -3.859980998655532e-06 9.592441896798464e-06 7.915025518002072e-07 -5.109647787473818e-05 4.420173722718365e-05 -0.000816825119033498 0.0003945318312386943 -0.0011635752001835178 0.001473476713291232 -0.0010638957987679754 0.0027463183652441125 0.14505878798903432 -0.005128910195807487 0.0022407120829724416
1484936|1.0734416179440777e-12 2.411888262550459e-12 3.8438792740727295e-13 -1.8981293943365966e-12 -2.7359016034819283e-11 2.272330620406484e-12 -7.475447600614728e-11 -9.164494280317565e-11 8.736456562254401e-11 -6.368319597672894e-11 -2.3365779785250825e-10 4.625497661654273e-10 -2.5722350576269053e-10 1.2833674548464088e-10 -2.2716634093843347e-10
1484978|1.9865855102858944e-08 2.27969348991263e-07 -7.527533904333015e-07 9.798879388084573e-08 3.460225496073985e-05 0.11180258885425291 -1.722568163618359e-05 -8.145408325979516e-07 -9.085364537132128e-06 9.086774164066504e-06 -7.299096289364854e-06 6.786387660726231e-06 -1.0131858626897021e-05 1.1593544265539568e-05 -4.655784018525803e-06
1484984|-1.8698788026007785e-09 -2.3357679976762356e-08 1.2499674547383875e-08 -2.5197060103602816e-08 -2.584853241162942e-08 5.1088775542427925e-09 2.5411509243369705e-07 3.4819388079669276e-07 -9.393850797484825e-08 2.03525302585022e-06 -2.8205399625369034e-07 7.737593209323089e-08 -1.8979248165394678e-06 -4.279699857864852e-08 7.290717932249405e-08
1485248|6.879284024243457e-07 1.4014470110246804e-08 1.8643518066904618e-06 -2.9770627168324447e-07 -3.994692890131425e-05 1.0627262920389465e-05 -0.00010857778828948012 -0.00011907845705063956 -0.0001274717856605635 -5.451535924664882e-05 -0.00010068645352385758 0.00018089180692662296 -6.670190529774496e-05 0.0003569440555151984 -4.637877247933452e-05
1485249|2.0008150931939117e-06 -1.1147424812496646e-05 2.1866140435494133e-05 -2.170537956139555e-05 -0.00028485167641509584 8.364249945789624e-06 -0.00012728755930777505 0.0005027974476369321 -0.000775237532867568 0.0013631365443741005 -0.0003492899656410555 0.0005443757713955814 -0.001805205408723253 -0.0010671435629342047 -0.0005133954322268246
1485251|-6.408007508051942e-07 9.698669022842996e-07 -6.504074157238669e-06 -7.711690587331774e-06 6.38471993839313e-05 -2.1910337695748882e-05 0.0006256183341108029 -0.0006501863906465065 0.0007968880127032142 -0.0021375152075492295 0.006752839729830052 0.13944984894206572 -0.0018329485693270083 0.00165160981539854 -0.0010595833324833284
1485253|1.0362334163328441e-06 1.062950078024146e-06 2.55146161835798e-06 3.9813952964960574e-07 -2.8932969684711827e-05 1.183386491268724e-05 5.484788970037714e-07 -9.701365684961765e-05 -3.926843002249733e-05 3.646276052192814e-05 2.5653188956118865e-05 0.00021334076378915731 -0.00011212528682687139 -0.00017081789909397785 0.00015841079234286007
1485256|8.215369583128601e-07 -8.575590734394996e-06 2.9124686785611028e-05 5.667982942748341e-06 -0.00015740461194103464 0.00011308596472114548 -0.0015281578571759702 0.000471640324131818 -0.0017848995081598351 0.001997380255672102 -0.0016570134311109234 0.00349334158146601 -0.007153914275409372 0.009962725361825728 -0.008113240295622324
1485264|-2.370942907869017e-08 0.088388342326682 -6.105489543392258e-08 1.809042889823334e-08 -4.776968168066092e-08 -9.19253250272103e-08 3.0983130270305643e-07 -2.435857043855484e-08 1.959759294202359e-07 -2.769155681196362e-07 7.40103783811629e-08 -1.284443860711802e-07 4.085350118912259e-07 -2.3018344179777822e-07 4.0219687983113503e-08
1485724|-2.3232368792765072e-08 -2.945345030646209e-08 -1.0601465858896303e-07 0.10050374361838803 -8.29068102793505e-07 -6.352914959695806e-08 -2.9298608788264902e-08 5.954799925363712e-07 -8.515210819575461e-08 2.853778593303772e-08 -7.63223132384797e-07 1.5941143854208412e-06 2.9605601774930246e-08 5.778602865367824e-07 -8.691824975964628e-07
1485802|8.215369583128601e-07 -8.575590734394996e-06 2.9124686785611028e-05 5.667982942748341e-06 -0.00015740461194103464 0.00011308596472114548 -0.0015281578571759702 0.000471640324131818 -0.0017848995081598351 0.001997380255672102 -0.0016570134311109234 0.00349334158146601 -0.007153914275409372 0.009962725361825728 -0.008113240295622324
1485826|-1.2372784904973013e-08 8.046750543614024e-08 0.09534622848146367 8.554713920514419e-08 -6.121423461965233e-07 4.0119202862717173e-07 -1.1915856945362984e-06 1.5646547773639321e-07 -9.768721215892432e-07 8.428096639452819e-07 -7.726755608760783e-07 1.0003866456166657e-06 -1.1316292365023605e-06 1.1483914644266143e-06 -7.912561338740875e-07
1485828|1.1552168769350853e-08 3.018375341651918e-08 7.154090635626407e-09 2.6782211458359196e-08 -3.4320047045820836e-07 -6.252452358610074e-08 1.9082226745872112e-07 -1.9487230311381526e-06 -9.608235266085232e-08 -1.2308447688772988e-06 -2.787855678505339e-06 3.6379505947310024e-06 -8.013151574829011e-07 -3.151275379621455e-07 4.4902212846958635e-07
1485829|4.4491888641203576e-07 -1.1208052459295852e-06 4.738006960479097e-06 7.586617904637933e-07 -4.8374192743925056e-05 2.2642941804680495e-05 -0.0009218407154449374 0.001028706260583509 0.13471733045600143 -0.001284586007936256 0.0006228065441498386 -0.0006148925962070511 0.000686710068531868 -0.00031908866639422786 0.00027114467775845474
1485830|-2.590232063845199e-07 1.0658282151007663e-07 -8.95933310855417e-07 -2.2596462051559804e-06 2.0310451386830044e-05 1.258703045963441e-06 0.0001747739541648145 0.13359947423310634 -0.0009612597902675667 0.00028070066123437644 -0.00021831859063167321 0.0004980840523672939 -0.00023494139938749257 7.763094855650342e-05 -0.00012420396901156744
1485831|2.51083838708279e-06 2.472298657292297e-06 1.141032052875024e-05 5.989384339238781e-06 -0.000152186168979096 3.6127320372745654e-05 -0.00012193809106410252 -0.00023202306541998164 -0.00013687186212991897 0.00014854769599051117 -0.0007321928853149784 0.0003910424550537912 0.0013358479975331774 0.0017134055388325895 -0.0032700326306123106
1485998|4.014598011432684e-06 -1.0658663979417072e-05 5.1790775823387505e-05 3.7363538059848264e-05 -0.00032143889853985424 0.00014610489779374856 -0.002142782477158023 0.0011633129739474707 -0.0019058407745331557 0.001806185613634875 -0.0026237381291621376 0.005649475556800519 -0.0055067885886038075 0.007257923365422559 -0.004925215155579964
1485999|-3.964520487787593e-06 1.7536707615859048e-07 -3.713905813927564e-05 -4.997094338216461e-05 0.0002613330160250693 -8.694738201843417e-06 0.0006949722480125777 -0.0009133885868482008 0.00014112456443300222 -0.0014973811721910595 0.002255985905589855 -0.006405370618823771 0.0028035577843024528 -0.006738399346618407 0.004871652969111856
1486000|-1.2372784904973013e-08 8.046750543614024e-08 0.09534622848146367 8.554713920514419e-08 -6.121423461965233e-07 4.0119202862717173e-07 -1.1915856945362984e-06 1.5646547773639321e-07 -9.768721215892432e-07 8.428096639452819e-07 -7.726755608760783e-07 1.0003866456166657e-06 -1.1316292365023605e-06 1.1483914644266143e-06 -7.912561338740875e-07
1486001|2.51083838708279e-06 2.472298657292297e-06 1.141032052875024e-05 5.989384339238781e-06 -0.000152186168979096 3.6127320372745654e-05 -0.00012193809106410252 -0.00023202306541998164 -0.00013687186212991897 0.00014854769599051117 -0.0007321928853149784 0.0003910424550537912 0.0013358479975331774 0.0017134055388325895 -0.0032700326306123106
1486002|8.111636379476063e-06 -2.13843248335246e-06 1.3926638086597857e-05 5.0537793695017804e-05 -0.0003978862448644531 -2.470426908818727e-05 -0.0006791265950910289 0.0019555140429404 -0.0016420861907882691 0.0010639976161648749 -0.0014452829232208756 0.0038322980010967165 -0.0047611164263019895 0.0007791388220044349 -0.003711199138029999
1486003|-2.3232368792765072e-08 -2.945345030646209e-08 -1.0601465858896303e-07 0.10050374361838803 -8.29068102793505e-07 -6.352914959695806e-08 -2.9298608788264902e-08 5.954799925363712e-07 -8.515210819575461e-08 2.853778593303772e-08 -7.63223132384797e-07 1.5941143854208412e-06 2.9605601774930246e-08 5.778602865367824e-07 -8.691824975964628e-07
1486004|-7.094627030128068e-07 -6.372198442962487e-07 2.161459486936992e-06 -4.141870988368928e-06 2.1498372011284828e-05 8.916044629886518e-06 -2.1260778261453936e-05 0.00014853066317898042 -7.182016678521936e-05 2.1266802858608164e-05 0.00013350899606491044 -8.397656785498218e-05 -0.00013064877442256647 8.307617455598788e-05 -0.00020150284051456853
1486005|-6.537014848909529e-08 -3.688670820572119e-06 -2.4807711057769737e-06 4.537113093703465e-06 2.4493652922962574e-05 -2.7052927434537745e-05 0.0003294297867001481 0.00024472069348682875 9.574683475017892e-05 0.0002785086109391163 0.00046036265618616267 -0.0003134621251691442 4.193614691404034e-05 -0.00015886839005376663 0.0006505121199901535
1486006|-7.756040399838488e-08 -6.910734757615136e-07 2.568675715212275e-07 9.112980258511012e-07 7.551450331480067e-06 -7.966674484586111e-07 3.7964045891067492e-06 -3.5905647663686505e-05 -6.896102006978525e-06 6.79231831585534e-06 3.455266414167826e-05 -0.00010234280458055245 -1.3910053047951742e-05 1.4414139402869247e-05 7.17347424341321e-05
1486007|7.607881733658179e-08 3.812232063065324e-07 -3.4202908919917713e-07 5.220366182764166e-06 -3.065456156230613e-06 -1.1336069360891469e-05 7.237867903393756e-05 -3.390084159423817e-05 6.739992288438069e-05 -4.979121780305142e-05 -7.649969906909185e-05 -2.0305830708172023e-05 1.3924975017994478e-05 -0.0002835015926032745 -5.537591133509466e-05
1486008|4.707767908704346e-09 1.5471791204914542e-08 -2.8639903936376205e-08 1.8872739853368322e-10 -3.1430798218586656e-07 9.641589384065827e-07 -7.708659943627874e-06 3.299917945465924e-07 2.6171833876281145e-07 6.880972326650018e-07 -7.918789051487814e-06 1.453590252203826e-05 -5.442418538157745e-06 1.960447541041372e-05 -4.682969479560525e-06
1486009|-4.213386742738837e-06 -2.733826708524245e-06 -1.335306379072465e-05 -1.4784150372719347e-05 0.0002494478680392146 -2.30324750076386e-05 0.00047976470099201247 -0.0004209741785465975 0.001036632365296467 -0.0003074841511912693 0.0015080883104025102 -0.0024207135357749376 0.001992203504437202 -0.007312324219528119 0.021133890477616084
1486010|-2.370942907869017e-08 0.088388342326682 -6.105489543392258e-08 1.809042889823334e-08 -4.776968168066092e-08 -9.19253250272103e-08 3.0983130270305643e-07 -2.435857043855484e-08 1.959759294202359e-07 -2.769155681196362e-07 7.40103783811629e-08 -1.284443860711802e-07 4.085350118912259e-07 -2.3018344179777822e-07 4.0219687983113503e-08
1486011|3.0331535931846437e-07 3.07189175139337e-07 -1.0359082520311602e-07 8.315739152603387e-09 -1.2071121802987648e-05 -1.639575641828602e-06 -3.80563025503246e-05 -3.2559513327413235e-05 -4.593495530395469e-05 -3.717772650069491e-05 -0.00017854893367338283 3.943567032915037e-05 6.159106688653597e-05 -1.6313666037854116e-05 -0.0001357281634977728
1486058|-1.265005657976333e-05 -1.73475309616379e-05 -2.4955207477981274e-06 -3.505103312748809e-05 0.0005309796154938623 0.00012993186323542792 -0.0006435759027074685 -0.0009647768844069222 0.0011603807259280563 0.000783190710824351 0.0005989897813046737 -0.0013068303888329046 -0.00018084227656032086 0.0019894701311050926 0.00417159638091426
1486193|0.0842151909214623 1.9912085039171102e-08 7.744824308234248e-09 1.1875497917464586e-08 -8.035462191095403e-08 -6.660360783119639e-09 8.917799045820244e-09 3.054203803173886e-08 -5.149028701724865e-08 -1.4341471955447414e-08 -4.428337334177516e-08 5.409400383047398e-08 1.1550361066104643e-08 -1.3240530163545995e-09 -7.804733437437951e-08
1486197|-6.408007508051942e-07 9.698669022842996e-07 -6.504074157238669e-06 -7.711690587331774e-06 6.38471993839313e-05 -2.1910337695748882e-05 0.0006256183341108029 -0.0006501863906465065 0.0007968880127032142 -0.0021375152075492295 0.006752839729830052 0.13944984894206572 -0.0018329485693270083 0.00165160981539854 -0.0010595833324833284
1486201|1.9865855102858944e-08 2.27969348991263e-07 -7.527533904333015e-07 9.798879388084573e-08 3.460225496073985e-05 0.11180258885425291 -1.722568163618359e-05 -8.145408325979516e-07 -9.085364537132128e-06 9.086774164066504e-06 -7.299096289364854e-06 6.786387660726231e-06 -1.0131858626897021e-05 1.1593544265539568e-05 -4.655784018525803e-06
1486203|-4.604180142591524e-06 -1.3353391720661185e-07 -6.830164172966266e-06 1.668952067009056e-06 0.0002762505676415307 -7.28718183520881e-05 0.0005886353010790416 -0.0002310099638125186 0.0010650180764560874 -2.59122132346278e-05 0.0006661080376701955 0.0007265239541986225 0.0009590673135984881 0.001319301591152417 0.0009497019864395363
1486239|1.9865855102858944e-08 2.27969348991263e-07 -7.527533904333015e-07 9.798879388084573e-08 3.460225496073985e-05 0.11180258885425291 -1.722568163618359e-05 -8.145408325979516e-07 -9.085364537132128e-06 9.086774164066504e-06 -7.299096289364854e-06 6.786387660726231e-06 -1.0131858626897021e-05 1.1593544265539568e-05 -4.655784018525803e-06
1486240|-4.213386742738837e-06 -2.733826708524245e-06 -1.335306379072465e-05 -1.4784150372719347e-05 0.0002494478680392146 -2.30324750076386e-05 0.00047976470099201247 -0.0004209741785465975 0.001036632365296467 -0.0003074841511912693 0.0015080883104025102 -0.0024207135357749376 0.001992203504437202 -0.007312324219528119 0.021133890477616084
1486242|8.111636379476063e-06 -2.13843248335246e-06 1.3926638086597857e-05 5.0537793695017804e-05 -0.0003978862448644531 -2.470426908818727e-05 -0.0006791265950910289 0.0019555140429404 -0.0016420861907882691 0.0010639976161648749 -0.0014452829232208756 0.0038322980010967165 -0.0047611164263019895 0.0007791388220044349 -0.003711199138029999
1487310|-2.370942907869017e-08 0.088388342326682 -6.105489543392258e-08 1.809042889823334e-08 -4.776968168066092e-08 -9.19253250272103e-08 3.0983130270305643e-07 -2.435857043855484e-08 1.959759294202359e-07 -2.769155681196362e-07 7.40103783811629e-08 -1.284443860711802e-07 4.085350118912259e-07 -2.3018344179777822e-07 4.0219687983113503e-08
1487311|4.4491888641203576e-07 -1.1208052459295852e-06 4.738006960479097e-06 7.586617904637933e-07 -4.8374192743925056e-05 2.2642941804680495e-05 -0.0009218407154449374 0.001028706260583509 0.13471733045600143 -0.001284586007936256 0.0006228065441498386 -0.0006148925962070511 0.000686710068531868 -0.00031908866639422786 0.00027114467775845474
1487312|-5.830351862859602e-09 -3.272390512467557e-07 4.197208200956535e-07 8.755210337851742e-08 6.392994824745336e-07 3.41807085614583e-06 1.963484706138542e-06 1.5816131031733805e-05 -1.1363219962930651e-05 2.193736970657432e-05 2.5546487107925412e-05 -8.922869757840878e-06 -2.2570110691114185e-05 2.7309260560044077e-05 2.197358673717671e-05
1487313|-2.590232063845199e-07 1.0658282151007663e-07 -8.95933310855417e-07 -2.2596462051559804e-06 2.0310451386830044e-05 1.258703045963441e-06 0.0001747739541648145 0.13359947423310634 -0.0009612597902675667 0.00028070066123437644 -0.00021831859063167321 0.0004980840523672939 -0.00023494139938749257 7.763094855650342e-05 -0.00012420396901156744
1487314|-1.8431788140655778e-08 -1.3199670500936538e-07 -1.3228588533511652e-07 3.548513101836025e-07 3.2319568543249978e-06 3.8805801050766976e-08 8.388517071112417e-06 1.1655341888636272e-05 9.783068418989864e-06 6.737534457801485e-06 2.581359988079703e-05 -3.7309943958142664e-06 -1.6940165246459708e-05 -3.57028694089794e-06 2.9394489195168657e-05
1487315|-5.830351862859602e-09 -3.272390512467557e-07 4.197208200956535e-07 8.755210337851742e-08 6.392994824745336e-07 3.41807085614583e-06 1.963484706138542e-06 1.5816131031733805e-05 -1.1363219962930651e-05 2.193736970657432e-05 2.5546487107925412e-05 -8.922869757840878e-06 -2.2570110691114185e-05 2.7309260560044077e-05 2.197358673717671e-05
1487386|8.215369583128601e-07 -8.575590734394996e-06 2.9124686785611028e-05 5.667982942748341e-06 -0.00015740461194103464 0.00011308596472114548 -0.0015281578571759702 0.000471640324131818 -0.0017848995081598351 0.001997380255672102 -0.0016570134311109234 0.00349334158146601 -0.007153914275409372 0.009962725361825728 -0.008113240295622324
1487768|2.2239400149278553e-10 -1.578994140355487e-10 5.396586423857009e-10 6.206998938575027e-09 2.611288411845577e-08 3.145006553129389e-09 2.269252726322272e-08 4.860023692177732e-08 9.790981599959249e-08 -3.9341903728529115e-08 8.239659848993334e-08 1.311436168827637e-07 -1.9312776768383136e-07 -2.179459910944525e-07 3.430908079942031e-07
1487769|-1.161829570676962e-11 1.9838184427800563e-10 -5.689867137368868e-10 2.5108866118767378e-09 1.3791186787574926e-08 -2.5978972119878867e-09 6.835850433239439e-08 -1.722631032482684e-08 5.25716879731934e-08 -4.115633252292123e-08 5.9313980617597276e-08 -1.2585271887814613e-08 3.7591085581661614e-08 -1.2294445423286988e-08 1.9321319209331172e-07
1487770|5.257991449706437e-08 -3.859980998655532e-06 9.592441896798464e-06 7.915025518002072e-07 -5.109647787473818e-05 4.420173722718365e-05 -0.000816825119033498 0.0003945318312386943 -0.0011635752001835178 0.001473476713291232 -0.0010638957987679754 0.0027463183652441125 0.14505878798903432 -0.005128910195807487 0.0022407120829724416
1487771|-3.6068792535923303e-14 3.739070500860464e-13 -4.2587179037386663e-13 1.6686272648822981e-12 1.9793102284070444e-11 1.3048690901144451e-11 -3.54554683455396e-11 1.733449982600634e-10 2.0557230225257683e-10 3.9042886782680306e-11 3.5863009230457773e-10 -1.6063475981789963e-10 5.351983476326046e-11 8.597593001141451e-11 -2.5958153057897664e-11
1487828|2.394119327696472e-07 1.211697574008368e-07 1.1421814069405659e-06 1.2819008702130097e-06 0.11110746910983636 -3.3702038867966486e-05 1.0534007007877749e-05 -7.315310598240893e-06 1.751316968122078e-05 -7.031054590874352e-06 1.4080479418004404e-05 -1.768776680112285e-05 9.748287238803252e-06 -8.115497916516514e-06 1.6892555486910908e-05
1488830|0.0842151909214623 1.9912085039171102e-08 7.744824308234248e-09 1.1875497917464586e-08 -8.035462191095403e-08 -6.660360783119639e-09 8.917799045820244e-09 3.054203803173886e-08 -5.149028701724865e-08 -1.4341471955447414e-08 -4.428337334177516e-08 5.409400383047398e-08 1.1550361066104643e-08 -1.3240530163545995e-09 -7.804733437437951e-08
1489066|-3.203719447569511e-08 -1.5751118833084811e-06 4.705903457878345e-06 2.258012586227116e-07 -2.389493388562189e-05 3.5314003486524425e-05 0.13010825816884064 -0.00013793344465236432 0.0007480637551507969 -0.0004314916992502491 0.0003518352841851206 -0.0004092795380302416 0.00039135494292305713 -0.00035090442689435605 0.00015915207279051935
1489069|-2.0290793931694754e-08 -5.860029395436057e-09 5.7458113529458045e-08 3.238337588864107e-08 -2.2232689944809245e-06 2.563365115783916e-06 -3.100638701037244e-05 -1.1904207659318552e-05 -4.208512160485426e-06 5.55021103561814e-06 -4.428753790626897e-05 2.2858941139012866e-05 -4.062302297646647e-05 3.374498469276141e-05 -7.975310914298102e-05
1489199|-2.370942907869017e-08 0.088388342326682 -6.105489543392258e-08 1.809042889823334e-08 -4.776968168066092e-08 -9.19253250272103e-08 3.0983130270305643e-07 -2.435857043855484e-08 1.959759294202359e-07 -2.769155681196362e-07 7.40103783811629e-08 -1.284443860711802e-07 4.085350118912259e-07 -2.3018344179777822e-07 4.0219687983113503e-08
1489356|2.7899854443553414e-06 -2.3629437570901398e-05 6.52964352895656e-05 4.8630325513696334e-05 -8.58050490485025e-05 0.0003392532584288663 -0.002312952363134677 -0.00011072859611043697 -0.003148560537108774 0.0014282426470876037 -0.0011275306767534526 0.00016990248714340733 -0.0018378195834427946 0.0028069277960629363 -0.0019753694754251093
1489359|1.9865855102858944e-08 2.27969348991263e-07 -7.527533904333015e-07 9.798879388084573e-08 3.460225496073985e-05 0.11180258885425291 -1.722568163618359e-05 -8.145408325979516e-07 -9.085364537132128e-06 9.086774164066504e-06 -7.299096289364854e-06 6.786387660726231e-06 -1.0131858626897021e-05 1.1593544265539568e-05 -4.655784018525803e-06
1489361|1.9865855102858944e-08 2.27969348991263e-07 -7.527533904333015e-07 9.798879388084573e-08 3.460225496073985e-05 0.11180258885425291 -1.722568163618359e-05 -8.145408325979516e-07 -9.085364537132128e-06 9.086774164066504e-06 -7.299096289364854e-06 6.786387660726231e-06 -1.0131858626897021e-05 1.1593544265539568e-05 -4.655784018525803e-06
1489399|9.251226426180324e-07 4.378954131742513e-06 1.0973789266591179e-05 -7.568470898404934e-06 2.4894669479306823e-05 1.2745629972869786e-05 -1.4183994884473937e-05 -0.0001215806041016183 0.0001248995830531294 -0.00044152871530910443 0.0004168198202346753 -0.0011567867766475732 0.0010193542268107398 0.0007221523591990093 -0.0002907642657123905
1489401|-1.2372784904973013e-08 8.046750543614024e-08 0.09534622848146367 8.554713920514419e-08 -6.121423461965233e-07 4.0119202862717173e-07 -1.1915856945362984e-06 1.5646547773639321e-07 -9.768721215892432e-07 8.428096639452819e-07 -7.726755608760783e-07 1.0003866456166657e-06 -1.1316292365023605e-06 1.1483914644266143e-06 -7.912561338740875e-07
1489402|4.4491888641203576e-07 -1.1208052459295852e-06 4.738006960479097e-06 7.586617904637933e-07 -4.8374192743925056e-05 2.2642941804680495e-05 -0.0009218407154449374 0.001028706260583509 0.13471733045600143 -0.001284586007936256 0.0006228065441498386 -0.0006148925962070511 0.000686710068531868 -0.00031908866639422786 0.00027114467775845474
1489403|-6.8587302493644064e-09 6.558798355026946e-08 -5.47308324122208e-08 -1.3388550228991913e-07 -1.4096579255637863e-07 -8.34473400949524e-07 6.772396777583621e-07 -4.574283404420959e-07 -2.8751027810166266e-07 -4.20867484372025e-06 -6.33506966274096e-06 -1.768595170039542e-06 1.1431800178637705e-05 -4.45094955103324e-06 -9.410271562179517e-06
1489404|4.4491888641203576e-07 -1.1208052459295852e-06 4.738006960479097e-06 7.586617904637933e-07 -4.8374192743925056e-05 2.2642941804680495e-05 -0.0009218407154449374 0.001028706260583509 0.13471733045600143 -0.001284586007936256 0.0006228065441498386 -0.0006148925962070511 0.000686710068531868 -0.00031908866639422786 0.00027114467775845474
1489405|4.870983410349811e-07 -5.654749524953217e-07 4.786928569864433e-06 3.985924807524884e-06 -4.908840194834091e-05 2.2136051262790158e-05 -0.0005322030324528433 0.0003034102336243716 -0.0007873004716890709 0.002333298326968961 0.13837828515678757 -0.006245856667476019 0.0007173762989995399 -0.0008717867937969617 0.0005692043408624708
1489406|1.2796421479783467e-05 8.426067579302279e-06 3.742946271034072e-05 4.217417860427663e-05 -0.0006428776360064649 3.6077445564723145e-05 -0.0007654122079658486 0.0008351224583283617 -0.002162365037897339 0.0005946248624725958 -0.0021157463066654413 0.0032862043824587596 -0.0021070619167821093 0.0034234640348099732 -0.007126506383471017
1489408|4.243504645483721e-06 1.612689619096918e-05 -3.0032962886764066e-05 1.5211600652116568e-05 -3.330540869403011e-05 -0.00018826908841796972 0.0018071686602640327 0.00010897680707523513 0.0010290284682877508 -0.0019634065028364058 0.0012131026102708458 -0.0018558831461980506 0.004857822265007934 -0.006414246263250687 0.001744157618095978
1489409|4.4491888641203576e-07 -1.1208052459295852e-06 4.738006960479097e-06 7.586617904637933e-07 -4.8374192743925056e-05 2.2642941804680495e-05 -0.0009218407154449374 0.001028706260583509 0.13471733045600143 -0.001284586007936256 0.0006228065441498386 -0.0006148925962070511 0.000686710068531868 -0.00031908866639422786 0.00027114467775845474
1489410|1.3397934862477977e-09 9.906079003131684e-09 -2.3095426406587069e-10 1.9694958404814024e-08 8.31082333824581e-09 -9.658034645516608e-08 6.339190822453808e-07 -6.816465853983368e-07 2.267106579314003e-07 -8.67314013952444e-07 -8.773961731395736e-07 7.388389399400035e-07 3.843460347510393e-07 -9.732682785358538e-07 3.5715872791499616e-07
1489411|7.74306945022518e-06 7.5475567298080995e-06 5.570865947910534e-06 3.643252977046401e-06 -0.00039393626511977553 6.570661228029939e-05 -0.000719572941029636 0.0001528761628456361 -0.0007170907729224675 -0.0005831146457808782 -0.0014421357874091134 8.739007199668051e-05 -6.80797205414787e-05 0.00014891182771734762 -0.001435309138005768
1489412|-2.7516705669837526e-09 -4.755264769835054e-09 4.401201402403519e-09 -6.900053851334025e-09 5.682977944694543e-08 8.220699179207736e-09 5.540784042320129e-07 3.7220750066982736e-07 2.828844798525003e-07 7.657730351338031e-07 7.496625957262469e-07 -1.0160633948156759e-06 -5.854405232470332e-07 -1.1546728891394385e-06 2.818327015856167e-07
1489413|-1.6468946734655313e-07 -8.557971844886219e-08 -1.0737540823959526e-06 5.680265369945178e-06 1.4480752884664557e-05 1.1342569652449694e-08 -1.1602127123150351e-05 -4.700919849207713e-06 4.9714571573088866e-05 -8.03920129019817e-05 -7.5063470287176e-05 0.00010288765057163071 -3.989130513507826e-06 -0.00016611913412405607 2.1979403247008004e-05
1489414|-1.2372784904973013e-08 8.046750543614024e-08 0.09534622848146367 8.554713920514419e-08 -6.121423461965233e-07 4.0119202862717173e-07 -1.1915856945362984e-06 1.5646547773639321e-07 -9.768721215892432e-07 8.428096639452819e-07 -7.726755608760783e-07 1.0003866456166657e-06 -1.1316292365023605e-06 1.1483914644266143e-06 -7.912561338740875e-07
1489415|-1.6468946734655313e-07 -8.557971844886219e-08 -1.0737540823959526e-06 5.680265369945178e-06 1.4480752884664557e-05 1.1342569652449694e-08 -1.1602127123150351e-05 -4.700919849207713e-06 4.9714571573088866e-05 -8.03920129019817e-05 -7.5063470287176e-05 0.00010288765057163071 -3.989130513507826e-06 -0.00016611913412405607 2.1979403247008004e-05
1489422|0.0842151909214623 1.9912085039171102e-08 7.744824308234248e-09 1.1875497917464586e-08 -8.035462191095403e-08 -6.660360783119639e-09 8.917799045820244e-09 3.054203803173886e-08 -5.149028701724865e-08 -1.4341471955447414e-08 -4.428337334177516e-08 5.409400383047398e-08 1.1550361066104643e-08 -1.3240530163545995e-09 -7.804733437437951e-08
1489423|8.215369583128601e-07 -8.575590734394996e-06 2.9124686785611028e-05 5.667982942748341e-06 -0.00015740461194103464 0.00011308596472114548 -0.0015281578571759702 0.000471640324131818 -0.0017848995081598351 0.001997380255672102 -0.0016570134311109234 0.00349334158146601 -0.007153914275409372 0.009962725361825728 -0.008113240295622324
1489424|2.394119327696472e-07 1.211697574008368e-07 1.1421814069405659e-06 1.2819008702130097e-06 0.11110746910983636 -3.3702038867966486e-05 1.0534007007877749e-05 -7.315310598240893e-06 1.751316968122078e-05 -7.031054590874352e-06 1.4080479418004404e-05 -1.768776680112285e-05 9.748287238803252e-06 -8.115497916516514e-06 1.6892555486910908e-05
1489425|-1.4869563593809377e-09 -9.227118341293343e-09 1.0972387636173325e-08 -5.924784607985623e-09 -3.81950409441498e-08 1.036136297836632e-07 -6.712877368438958e-07 1.6326547058368417e-07 -5.461097059202222e-07 5.258885817464937e-07 2.5400608105512334e-08 4.896033817099325e-07 -2.505201321395538e-06 1.164293612534588e-06 5.080730244345326e-08
1489427|3.0331535931846437e-07 3.07189175139337e-07 -1.0359082520311602e-07 8.315739152603387e-09 -1.2071121802987648e-05 -1.639575641828602e-06 -3.80563025503246e-05 -3.2559513327413235e-05 -4.593495530395469e-05 -3.717772650069491e-05 -0.00017854893367338283 3.943567032915037e-05 6.159106688653597e-05 -1.6313666037854116e-05 -0.0001357281634977728
1489430|4.4491888641203576e-07 -1.1208052459295852e-06 4.738006960479097e-06 7.586617904637933e-07 -4.8374192743925056e-05 2.2642941804680495e-05 -0.0009218407154449374 0.001028706260583509 0.13471733045600143 -0.001284586007936256 0.0006228065441498386 -0.0006148925962070511 0.000686710068531868 -0.00031908866639422786 0.00027114467775845474
1489431|2.51083838708279e-06 2.472298657292297e-06 1.141032052875024e-05 5.989384339238781e-06 -0.000152186168979096 3.6127320372745654e-05 -0.00012193809106410252 -0.00023202306541998164 -0.00013687186212991897 0.00014854769599051117 -0.0007321928853149784 0.0003910424550537912 0.0013358479975331774 0.0017134055388325895 -0.0032700326306123106
1489433|-2.0329987898556953e-07 -6.963923073863133e-08 -8.552572785453636e-07 1.0985216109372047e-06 -2.3566696151633055e-05 2.1542218118260163e-05 -0.0001747393411638556 0.00016916603300050638 0.00010541710534845031 9.816137899369167e-05 0.00010049689984783268 4.6764202713605574e-05 -0.00022549777052587969 3.069935865756668e-05 -2.6928043260616562e-05
1489435|0.0842151909214623 1.9912085039171102e-08 7.744824308234248e-09 1.1875497917464586e-08 -8.035462191095403e-08 -6.660360783119639e-09 8.917799045820244e-09 3.054203803173886e-08 -5.149028701724865e-08 -1.4341471955447414e-08 -4.428337334177516e-08 5.409400383047398e-08 1.1550361066104643e-08 -1.3240530163545995e-09 -7.804733437437951e-08
1489436|4.4491888641203576e-07 -1.1208052459295852e-06 4.738006960479097e-06 7.586617904637933e-07 -4.8374192743925056e-05 2.2642941804680495e-05 -0.0009218407154449374 0.001028706260583509 0.13471733045600143 -0.001284586007936256 0.0006228065441498386 -0.0006148925962070511 0.000686710068531868 -0.00031908866639422786 0.00027114467775845474
1489438|-8.31829187004226e-07 -8.805645705212702e-06 -6.085099944504586e-06 4.857749743279288e-06 -1.4655102843176611e-05 -3.5530905736203923e-06 -0.00012539662592619605 0.000333774056142819 9.104808217651662e-05 0.000673698110747741 0.00014992273079617515 0.0001414566274431437 -0.0010568332734685756 5.9847358041952774e-05 4.99357815074288e-05
1489440|2.466744591365179e-08 -9.638868705115452e-10 -7.339098363347739e-08 -9.56350492462169e-08 3.7863576361647565e-07 8.00969281973414e-07 4.0073939539283884e-08 5.497827248730319e-06 2.0219694625752415e-06 1.0676493065563193e-06 7.917283781492451e-06 4.44224448023442e-06 -1.13686935113539e-06 8.974319628873232e-06 3.540488723775325e-06
1489443|8.215369583128601e-07 -8.575590734394996e-06 2.9124686785611028e-05 5.667982942748341e-06 -0.00015740461194103464 0.00011308596472114548 -0.0015281578571759702 0.000471640324131818 -0.0017848995081598351 0.001997380255672102 -0.0016570134311109234 0.00349334158146601 -0.007153914275409372 0.009962725361825728 -0.008113240295622324
1489447|5.973234549434213e-08 2.8537705793341166e-06 -2.9482647874329927e-06 1.1737106921421921e-05 -1.1275410717451497e-06 2.121848789587097e-06 0.00011876145078583182 0.000174365779204702 0.00026368045567065325 -6.912146340143366e-06 8.255098521625836e-05 0.0003190970616729343 0.0002296852347313162 -5.083473987259142e-05 0.00028270334475592805
1489450|-2.1006156478193313e-12 8.756931431166933e-11 -1.7826739608060404e-10 1.7988317776061725e-10 6.206479633611879e-10 -1.0371228687397537e-09 1.2181271664485216e-08 -2.5231534756705058e-09 9.58927062149103e-09 -8.88183007738852e-09 1.7393456950242422e-08 -1.110045163456316e-08 8.300663919912262e-09 -8.411516523102325e-09 2.6482440426020217e-08
1489822|5.257991449706437e-08 -3.859980998655532e-06 9.592441896798464e-06 7.915025518002072e-07 -5.109647787473818e-05 4.420173722718365e-05 -0.000816825119033498 0.0003945318312386943 -0.0011635752001835178 0.001473476713291232 -0.0010638957987679754 0.0027463183652441125 0.14505878798903432 -0.005128910195807487 0.0022407120829724416
1489910|-5.124448172365485e-10 -2.5685130453074085e-09 -6.77293680321617e-09 1.4654198533325893e-08 7.015943217293901e-08 -1.2645745918422588e-07 7.979343859144238e-07 3.364385676146775e-07 1.7817781457990423e-07 5.417526265593184e-07 8.817835117062779e-07 -2.3212001322383887e-07 -1.242977563465575e-07 -2.6782054699605666e-06 1.0784503235117047e-06
1489912|-2.370942907869017e-08 0.088388342326682 -6.105489543392258e-08 1.809042889823334e-08 -4.776968168066092e-08 -9.19253250272103e-08 3.0983130270305643e-07 -2.435857043855484e-08 1.959759294202359e-07 -2.769155681196362e-07 7.40103783811629e-08 -1.284443860711802e-07 4.085350118912259e-07 -2.3018344179777822e-07 4.0219687983113503e-08
1489913|7.546870399710095e-08 1.8059778380601146e-06 -4.552675585568791e-06 -4.133799288813701e-07 2.1989256198948614e-05 -2.5521445609030817e-05 0.0006016030169877193 -0.00033359484398523163 0.0014717802339397294 0.1372261071217053 -0.0020740202151127724 0.0019341857673253555 -0.0009849101883517705 0.0005150451401202385 -0.00028086926957885777
1489914|1.581005527408839e-08 -2.073355685881172e-07 2.117414438064749e-07 -4.6224617839116183e-07 -1.5646468090774426e-06 1.6983210069785787e-06 -1.9985276030809567e-05 3.815453678222695e-06 -1.9426986773642754e-05 1.9239893395537003e-05 -1.2396872377278283e-05 1.396563455941073e-05 -1.736873570295717e-05 3.328432067542367e-05 -3.849737589424973e-05
1489915|4.014598011432684e-06 -1.0658663979417072e-05 5.1790775823387505e-05 3.7363538059848264e-05 -0.00032143889853985424 0.00014610489779374856 -0.002142782477158023 0.0011633129739474707 -0.0019058407745331557 0.001806185613634875 -0.0026237381291621376 0.005649475556800519 -0.0055067885886038075 0.007257923365422559 -0.004925215155579964
1489917|1.2943326045294096e-09 3.764071197087447e-09 1.762606571016612e-08 9.817726611968457e-08 -1.2365224618882712e-06 5.547397320203095e-07 -4.738637444994359e-06 -4.468905724854115e-06 -5.145468327010496e-06 1.5183270640005193e-06 6.839882990746842e-07 6.74007285670983e-06 -2.3101923232464334e-06 4.273910699947076e-07 -4.146041035474899e-06
1489918|-4.658465170620391e-13 -2.472470623685222e-12 2.218542787732975e-12 6.591432121736878e-12 1.1261487163592197e-11 2.0655722504399534e-11 -1.8139981813091663e-10 9.44105163232252e-11 -1.4130320386421218e-10 2.604266172940626e-10 -2.343014547259621e-10 4.053162266949227e-10 -6.832405280489181e-10 1.3003847084996875e-10 -4.6507344725643856e-10
1489919|4.870983410349811e-07 -5.654749524953217e-07 4.786928569864433e-06 3.985924807524884e-06 -4.908840194834091e-05 2.2136051262790158e-05 -0.0005322030324528433 0.0003034102336243716 -0.0007873004716890709 0.002333298326968961 0.13837828515678757 -0.006245856667476019 0.0007173762989995399 -0.0008717867937969617 0.0005692043408624708
1489921|1.4630622851507221e-05 4.147411577870205e-05 -5.05238667441567e-05 5.255081557031561e-05 -0.00022164303882500595 -0.0004153842232487949 0.0036760377901221236 0.0001256898266696262 0.0015079465417132225 -0.002725764373433769 0.002241079251854516 -0.00294441689585709 0.006750657745607625 -0.008034043213456932 0.0012078679317526324
1489924|7.546870399710095e-08 1.8059778380601146e-06 -4.552675585568791e-06 -4.133799288813701e-07 2.1989256198948614e-05 -2.5521445609030817e-05 0.0006016030169877193 -0.00033359484398523163 0.0014717802339397294 0.1372261071217053 -0.0020740202151127724 0.0019341857673253555 -0.0009849101883517705 0.0005150451401202385 -0.00028086926957885777
1490072|-2.3232368792765072e-08 -2.945345030646209e-08 -1.0601465858896303e-07 0.10050374361838803 -8.29068102793505e-07 -6.352914959695806e-08 -2.9298608788264902e-08 5.954799925363712e-07 -8.515210819575461e-08 2.853778593303772e-08 -7.63223132384797e-07 1.5941143854208412e-06 2.9605601774930246e-08 5.778602865367824e-07 -8.691824975964628e-07
1490073|-3.203719447569511e-08 -1.5751118833084811e-06 4.705903457878345e-06 2.258012586227116e-07 -2.389493388562189e-05 3.5314003486524425e-05 0.13010825816884064 -0.00013793344465236432 0.0007480637551507969 -0.0004314916992502491 0.0003518352841851206 -0.0004092795380302416 0.00039135494292305713 -0.00035090442689435605 0.00015915207279051935
1490074|-2.3232368792765072e-08 -2.945345030646209e-08 -1.0601465858896303e-07 0.10050374361838803 -8.29068102793505e-07 -6.352914959695806e-08 -2.9298608788264902e-08 5.954799925363712e-07 -8.515210819575461e-08 2.853778593303772e-08 -7.63223132384797e-07 1.5941143854208412e-06 2.9605601774930246e-08 5.778602865367824e-07 -8.691824975964628e-07
1490075|-2.590232063845199e-07 1.0658282151007663e-07 -8.95933310855417e-07 -2.2596462051559804e-06 2.0310451386830044e-05 1.258703045963441e-06 0.0001747739541648145 0.13359947423310634 -0.0009612597902675667 0.00028070066123437644 -0.00021831859063167321 0.0004980840523672939 -0.00023494139938749257 7.763094855650342e-05 -0.00012420396901156744
1490076|4.583897336300062e-06 -1.0461346195440296e-05 5.0821010861355537e-05 -8.218387556248435e-05 -0.00045261616751065767 0.00016984590699874912 -0.0012608931266067363 -0.0008790487422029796 -0.0032963728129761856 0.001633512815621785 0.001151847650464807 -0.003495313927429521 -0.00395647897693136 -0.00040459323991298517 -0.0002888840439633608
1490749|-2.370942907869017e-08 0.088388342326682 -6.105489543392258e-08 1.809042889823334e-08 -4.776968168066092e-08 -9.19253250272103e-08 3.0983130270305643e-07 -2.435857043855484e-08 1.959759294202359e-07 -2.769155681196362e-07 7.40103783811629e-08 -1.284443860711802e-07 4.085350118912259e-07 -2.3018344179777822e-07 4.0219687983113503e-08
1491215|2.0747785797236104e-06 1.643351416011176e-07 9.917673991327627e-06 9.545744932827296e-06 -0.00013650877393371537 2.4346096886834737e-05 -0.00043100734518547646 0.0003314216174779356 -0.0007265103278954381 0.0005206966416542966 -0.0011144387496619937 0.002091679202101379 -0.002986570281613518 0.01260124580588518 0.1482481398458994
1491230|4.4491888641203576e-07 -1.1208052459295852e-06 4.738006960479097e-06 7.586617904637933e-07 -4.8374192743925056e-05 2.2642941804680495e-05 -0.0009218407154449374 0.001028706260583509 0.13471733045600143 -0.001284586007936256 0.0006228065441498386 -0.0006148925962070511 0.000686710068531868 -0.00031908866639422786 0.00027114467775845474
1491564|-3.913297385190357e-07 2.8069914243788213e-06 -1.2436301877403064e-05 -5.560670011089661e-06 6.759253084314853e-05 -5.853611870635639e-05 0.0008681748302504088 -0.00019272507489135918 0.0007311786135671205 -0.0009497204363868559 0.0015004726621103122 -0.002939817198068036 0.006775035914739548 0.14732497404080394 -0.010090192326472801
1491613|4.583897336300062e-06 -1.0461346195440296e-05 5.0821010861355537e-05 -8.218387556248435e-05 -0.00045261616751065767 0.00016984590699874912 -0.0012608931266067363 -0.0008790487422029796 -0.0032963728129761856 0.001633512815621785 0.001151847650464807 -0.003495313927429521 -0.00395647897693136 -0.00040459323991298517 -0.0002888840439633608
1491618|2.0747785797236104e-06 1.643351416011176e-07 9.917673991327627e-06 9.545744932827296e-06 -0.00013650877393371537 2.4346096886834737e-05 -0.00043100734518547646 0.0003314216174779356 -0.0007265103278954381 0.0005206966416542966 -0.0011144387496619937 0.002091679202101379 -0.002986570281613518 0.01260124580588518 0.1482481398458994
1491621|2.0747785797236104e-06 1.643351416011176e-07 9.917673991327627e-06 9.545744932827296e-06 -0.00013650877393371537 2.4346096886834737e-05 -0.00043100734518547646 0.0003314216174779356 -0.0007265103278954381 0.0005206966416542966 -0.0011144387496619937 0.002091679202101379 -0.002986570281613518 0.01260124580588518 0.1482481398458994
1491625|-1.0733715600196428e-09 9.513972860566108e-10 -4.1661134285184715e-09 4.45172877003706e-10 2.482254789903641e-08 2.4541914332970423e-08 -4.6204486913202596e-08 1.9079380349996426e-08 2.461615004071097e-07 -7.34804688867198e-08 1.0124604432248884e-07 -6.344735036513269e-08 2.2805521541976475e-07 5.126965405491136e-07 1.7756411661334202e-07
1491627|1.9865855102858944e-08 2.27969348991263e-07 -7.527533904333015e-07 9.798879388084573e-08 3.460225496073985e-05 0.11180258885425291 -1.722568163618359e-05 -8.145408325979516e-07 -9.085364537132128e-06 9.086774164066504e-06 -7.299096289364854e-06 6.786387660726231e-06 -1.0131858626897021e-05 1.1593544265539568e-05 -4.655784018525803e-06
1491980|6.321420635175373e-13 -2.9189385801721633e-12 -1.5668765434271004e-12 7.720553451223998e-12 1.5988997853659614e-11 -1.3683581605814131e-11 1.3025090303122423e-10 1.9338250352368817e-11 2.0088434850154542e-11 1.7099458130906344e-10 2.519738332772533e-10 -1.0200031043763334e-10 -2.9626625053079104e-10 -6.116132042290627e-10 3.1156711363868484e-10
1492377|-4.213386742738837e-06 -2.733826708524245e-06 -1.335306379072465e-05 -1.4784150372719347e-05 0.0002494478680392146 -2.30324750076386e-05 0.00047976470099201247 -0.0004209741785465975 0.001036632365296467 -0.0003074841511912693 0.0015080883104025102 -0.0024207135357749376 0.001992203504437202 -0.007312324219528119 0.021133890477616084
1492378|-7.094627030128068e-07 -6.372198442962487e-07 2.161459486936992e-06 -4.141870988368928e-06 2.1498372011284828e-05 8.916044629886518e-06 -2.1260778261453936e-05 0.00014853066317898042 -7.182016678521936e-05 2.1266802858608164e-05 0.00013350899606491044 -8.397656785498218e-05 -0.00013064877442256647 8.307617455598788e-05 -0.00020150284051456853
1492723|4.870983410349811e-07 -5.654749524953217e-07 4.786928569864433e-06 3.985924807524884e-06 -4.908840194834091e-05 2.2136051262790158e-05 -0.0005322030324528433 0.0003034102336243716 -0.0007873004716890709 0.002333298326968961 0.13837828515678757 -0.006245856667476019 0.0007173762989995399 -0.0008717867937969617 0.0005692043408624708
1492724|7.546870399710095e-08 1.8059778380601146e-06 -4.552675585568791e-06 -4.133799288813701e-07 2.1989256198948614e-05 -2.5521445609030817e-05 0.0006016030169877193 -0.00033359484398523163 0.0014717802339397294 0.1372261071217053 -0.0020740202151127724 0.0019341857673253555 -0.0009849101883517705 0.0005150451401202385 -0.00028086926957885777
1492725|-2.3232368792765072e-08 -2.945345030646209e-08 -1.0601465858896303e-07 0.10050374361838803 -8.29068102793505e-07 -6.352914959695806e-08 -2.9298608788264902e-08 5.954799925363712e-07 -8.515210819575461e-08 2.853778593303772e-08 -7.63223132384797e-07 1.5941143854208412e-06 2.9605601774930246e-08 5.778602865367824e-07 -8.691824975964628e-07
1493331|-9.592212562585917e-10 -1.7186581860916108e-09 -1.7082522501862565e-09 6.132501818126121e-09 3.060329728263941e-08 3.6521162242093834e-08 -2.4341606650264414e-07 2.557642999681656e-07 2.4960129765990524e-08 1.4480769460676277e-07 -1.7647098622588338e-07 -5.3461285914495324e-09 2.617667860645824e-08 3.982361030613381e-07 -6.128124177851569e-07
1493332|-6.537014848909529e-08 -3.688670820572119e-06 -2.4807711057769737e-06 4.537113093703465e-06 2.4493652922962574e-05 -2.7052927434537745e-05 0.0003294297867001481 0.00024472069348682875 9.574683475017892e-05 0.0002785086109391163 0.00046036265618616267 -0.0003134621251691442 4.193614691404034e-05 -0.00015886839005376663 0.0006505121199901535
1493367|-1.8431788140655778e-08 -1.3199670500936538e-07 -1.3228588533511652e-07 3.548513101836025e-07 3.2319568543249978e-06 3.8805801050766976e-08 8.388517071112417e-06 1.1655341888636272e-05 9.783068418989864e-06 6.737534457801485e-06 2.581359988079703e-05 -3.7309943958142664e-06 -1.6940165246459708e-05 -3.57028694089794e-06 2.9394489195168657e-05
1493368|2.51083838708279e-06 2.472298657292297e-06 1.141032052875024e-05 5.989384339238781e-06 -0.000152186168979096 3.6127320372745654e-05 -0.00012193809106410252 -0.00023202306541998164 -0.00013687186212991897 0.00014854769599051117 -0.0007321928853149784 0.0003910424550537912 0.0013358479975331774 0.0017134055388325895 -0.0032700326306123106
1493844|-2.370942907869017e-08 0.088388342326682 -6.105489543392258e-08 1.809042889823334e-08 -4.776968168066092e-08 -9.19253250272103e-08 3.0983130270305643e-07 -2.435857043855484e-08 1.959759294202359e-07 -2.769155681196362e-07 7.40103783811629e-08 -1.284443860711802e-07 4.085350118912259e-07 -2.3018344179777822e-07 4.0219687983113503e-08
1493971|3.9955784273345903e-07 -2.143869734942391e-06 -1.6625793864733124e-06 1.1013956719406166e-05 1.816214134429068e-05 -1.4567576080074114e-05 9.723366278362689e-05 -4.4296717523544673e-05 8.339939461577629e-05 0.00018878047373656922 -2.154238519439247e-05 0.00015049999093148927 -0.00013457282666043814 -0.0004110672842636896 -1.4157179085375942e-05
1493972|-4.213386742738837e-06 -2.733826708524245e-06 -1.335306379072465e-05 -1.4784150372719347e-05 0.0002494478680392146 -2.30324750076386e-05 0.00047976470099201247 -0.0004209741785465975 0.001036632365296467 -0.0003074841511912693 0.0015080883104025102 -0.0024207135357749376 0.001992203504437202 -0.007312324219528119 0.021133890477616084
1493973|0.0842151909214623 1.9912085039171102e-08 7.744824308234248e-09 1.1875497917464586e-08 -8.035462191095403e-08 -6.660360783119639e-09 8.917799045820244e-09 3.054203803173886e-08 -5.149028701724865e-08 -1.4341471955447414e-08 -4.428337334177516e-08 5.409400383047398e-08 1.1550361066104643e-08 -1.3240530163545995e-09 -7.804733437437951e-08
1493976|1.9865855102858944e-08 2.27969348991263e-07 -7.527533904333015e-07 9.798879388084573e-08 3.460225496073985e-05 0.11180258885425291 -1.722568163618359e-05 -8.145408325979516e-07 -9.085364537132128e-06 9.086774164066504e-06 -7.299096289364854e-06 6.786387660726231e-06 -1.0131858626897021e-05 1.1593544265539568e-05 -4.655784018525803e-06
1493980|-2.8334369123517388e-09 -7.727635560614379e-09 7.999268600932756e-09 -1.1101235674140157e-08 1.128885943635014e-07 6.081489020259027e-08 1.7430620145168115e-07 4.0627622991231673e-07 9.88289132320157e-08 5.0345975890288e-07 8.983555707236653e-07 -7.31025638275663e-07 -1.2754297485283253e-07 1.270423247061266e-06 8.789960718735938e-07
1493984|2.394119327696472e-07 1.211697574008368e-07 1.1421814069405659e-06 1.2819008702130097e-06 0.11110746910983636 -3.3702038867966486e-05 1.0534007007877749e-05 -7.315310598240893e-06 1.751316968122078e-05 -7.031054590874352e-06 1.4080479418004404e-05 -1.768776680112285e-05 9.748287238803252e-06 -8.115497916516514e-06 1.6892555486910908e-05
1494106|-2.590232063845199e-07 1.0658282151007663e-07 -8.95933310855417e-07 -2.2596462051559804e-06 2.0310451386830044e-05 1.258703045963441e-06 0.0001747739541648145 0.13359947423310634 -0.0009612597902675667 0.00028070066123437644 -0.00021831859063167321 0.0004980840523672939 -0.00023494139938749257 7.763094855650342e-05 -0.00012420396901156744
1494255|1.2796421479783467e-05 8.426067579302279e-06 3.742946271034072e-05 4.217417860427663e-05 -0.0006428776360064649 3.6077445564723145e-05 -0.0007654122079658486 0.0008351224583283617 -0.002162365037897339 0.0005946248624725958 -0.0021157463066654413 0.0032862043824587596 -0.0021070619167821093 0.0034234640348099732 -0.007126506383471017
1494256|-9.592212562585917e-10 -1.7186581860916108e-09 -1.7082522501862565e-09 6.132501818126121e-09 3.060329728263941e-08 3.6521162242093834e-08 -2.4341606650264414e-07 2.557642999681656e-07 2.4960129765990524e-08 1.4480769460676277e-07 -1.7647098622588338e-07 -5.3461285914495324e-09 2.617667860645824e-08 3.982361030613381e-07 -6.128124177851569e-07
1494399|8.111636379476063e-06 -2.13843248335246e-06 1.3926638086597857e-05 5.0537793695017804e-05 -0.0003978862448644531 -2.470426908818727e-05 -0.0006791265950910289 0.0019555140429404 -0.0016420861907882691 0.0010639976161648749 -0.0014452829232208756 0.0038322980010967165 -0.0047611164263019895 0.0007791388220044349 -0.003711199138029999
1494498|-5.4708473047090616e-08 -6.992741646380895e-07 1.0192400272370676e-07 1.051420380397029e-06 5.545185125990846e-06 2.231938381400402e-06 2.8305926003493815e-05 -7.4311866162725395e-06 3.125029342081261e-06 2.4079606959728816e-05 6.694210715725365e-05 -6.0442772354323674e-05 -5.367416918171662e-05 -0.00011306423314062672 0.00015413105770721103
1494554|-2.0329987898556953e-07 -6.963923073863133e-08 -8.552572785453636e-07 1.0985216109372047e-06 -2.3566696151633055e-05 2.1542218118260163e-05 -0.0001747393411638556 0.00016916603300050638 0.00010541710534845031 9.816137899369167e-05 0.00010049689984783268 4.6764202713605574e-05 -0.00022549777052587969 3.069935865756668e-05 -2.6928043260616562e-05
1494555|0.0842151909214623 1.9912085039171102e-08 7.744824308234248e-09 1.1875497917464586e-08 -8.035462191095403e-08 -6.660360783119639e-09 8.917799045820244e-09 3.054203803173886e-08 -5.149028701724865e-08 -1.4341471955447414e-08 -4.428337334177516e-08 5.409400383047398e-08 1.1550361066104643e-08 -1.3240530163545995e-09 -7.804733437437951e-08
1494556|0.0842151909214623 1.9912085039171102e-08 7.744824308234248e-09 1.1875497917464586e-08 -8.035462191095403e-08 -6.660360783119639e-09 8.917799045820244e-09 3.054203803173886e-08 -5.149028701724865e-08 -1.4341471955447414e-08 -4.428337334177516e-08 5.409400383047398e-08 1.1550361066104643e-08 -1.3240530163545995e-09 -7.804733437437951e-08
1494591|2.394119327696472e-07 1.211697574008368e-07 1.1421814069405659e-06 1.2819008702130097e-06 0.11110746910983636 -3.3702038867966486e-05 1.0534007007877749e-05 -7.315310598240893e-06 1.751316968122078e-05 -7.031054590874352e-06 1.4080479418004404e-05 -1.768776680112285e-05 9.748287238803252e-06 -8.115497916516514e-06 1.6892555486910908e-05
1494592|-7.850794750911374e-10 6.82270469648385e-09 -1.0472485391345388e-08 2.519287950514188e-08 1.228862311552679e-07 -2.5088597410049286e-08 6.775932096729327e-08 2.3328945046444927e-07 8.922616996596864e-07 -4.058698283213565e-07 -1.7099140314536783e-08 5.160010856822145e-07 1.4132950092935824e-08 4.404002007317686e-07 -1.2240315168655737e-06
1494593|3.577565123434371e-06 1.163993887573334e-05 3.950254853788118e-06 1.650368269569881e-05 8.043342938030175e-05 1.5888876881447886e-05 -0.0008411643344750369 -0.0004989057111810522 0.00012611448254518762 -0.0012041585898138595 -0.0008173770446090249 2.041648398926968e-05 0.0006232658353121104 0.0027777187475938 0.0001317031859407791
